432 100
</s> 0.10873 0.063187 -0.024442 -0.12798 -0.054508 -0.074836 -0.024014 -0.086102 0.024326 0.059931 0.048333 0.061245 0.039612 0.27713 -0.12992 -0.098566 -0.073983 0.10676 -0.016486 -0.073998 -0.022373 0.15263 0.18559 -0.092283 -0.27119 -0.015797 0.089301 0.00021901 0.03137 0.081295 -0.20546 0.10268 0.041014 -0.010836 0.066637 0.030168 0.18456 -0.087206 -0.028301 0.1817 0.35247 0.17761 0.056129 0.0046597 -0.016388 -0.23729 -0.17495 -0.024543 -0.25826 -0.0036805 -0.019858 0.32797 -0.16666 -0.088433 -0.0082676 -0.16693 0.019763 0.036761 0.06453 0.28362 -0.11566 0.12679 0.20508 0.17001 -0.18191 0.19955 0.072538 -0.073247 -0.0033282 -0.10274 0.01875 0.01415 -0.025613 0.19958 -0.15271 0.035727 0.23275 0.1116 0.065037 0.04333 0.045087 0.17176 0.0085635 -0.13935 0.075702 0.065125 0.04007 -0.16442 -0.10355 -0.0053436 0.21978 -0.10367 0.41952 0.13779 -0.15972 -0.29039 -0.038168 0.0038217 -0.17276 -0.036689 
@EPFL 0.11822 0.054585 -0.014708 -0.12528 -0.054582 -0.075412 -0.030659 -0.085655 0.0081491 0.050135 0.047241 0.054551 0.030635 0.26966 -0.12588 -0.094549 -0.076542 0.099723 -0.015973 -0.063485 -0.019392 0.14419 0.18142 -0.087209 -0.27586 -0.0093507 0.080231 0.0062919 0.037951 0.071437 -0.19666 0.10881 0.054172 -0.0044443 0.07813 0.031968 0.18015 -0.075065 -0.024869 0.19067 0.33977 0.17184 0.056403 0.0063387 -0.009585 -0.23847 -0.16926 -0.026962 -0.25331 -0.0068637 -0.012987 0.31449 -0.15468 -0.094654 -0.0080671 -0.15662 0.018421 0.033344 0.060077 0.28014 -0.11396 0.12861 0.20144 0.16171 -0.1781 0.19668 0.072415 -0.080704 -0.012399 -0.10983 0.037537 0.012518 -0.021294 0.19862 -0.14845 0.037117 0.22122 0.10296 0.065514 0.050316 0.053418 0.16487 -0.00218 -0.13182 0.082999 0.075656 0.040998 -0.16335 -0.096885 -0.00065747 0.21206 -0.10914 0.41032 0.15259 -0.16346 -0.28207 -0.044849 -0.0054659 -0.16563 -0.034043 
the 0.1484 0.065005 -0.0054718 -0.16521 -0.053127 -0.09621 -0.027893 -0.097531 0.0013777 0.054243 0.027398 0.071104 0.018835 0.29058 -0.13775 -0.10857 -0.062819 0.12752 -0.017758 -0.047259 -0.032061 0.13622 0.16812 -0.09225 -0.31421 -0.015822 0.081143 0.0099222 0.046149 0.067783 -0.18875 0.093608 0.055342 -0.0013657 0.086685 0.036843 0.20136 -0.091306 -0.014801 0.205 0.34183 0.18097 0.069103 -0.0080445 0.00094685 -0.25511 -0.19387 -0.018218 -0.24772 -0.0084764 0.0097662 0.33107 -0.16412 -0.11404 -0.010497 -0.16943 0.047225 0.019323 0.042 0.29196 -0.12518 0.15534 0.22431 0.16485 -0.2289 0.2091 0.06642 -0.073525 -0.026112 -0.12318 0.052632 -0.0018933 -0.020997 0.22948 -0.14603 0.031584 0.24102 0.10797 0.075254 0.072096 0.065123 0.18194 -0.023969 -0.13723 0.11241 0.070442 0.074789 -0.15706 -0.096193 0.010403 0.21176 -0.12754 0.42316 0.18294 -0.1507 -0.29942 -0.044639 0.0057681 -0.16734 -0.034202 
to 0.14316 0.066348 -0.014507 -0.15269 -0.062213 -0.094543 -0.028795 -0.095559 0.0017696 0.059667 0.035709 0.073755 0.022339 0.29406 -0.13584 -0.10873 -0.068989 0.12355 -0.021386 -0.055967 -0.023289 0.1444 0.18382 -0.090017 -0.31882 -0.015846 0.092323 0.0069542 0.035569 0.064275 -0.20278 0.098162 0.05205 -0.0060132 0.083461 0.041744 0.20859 -0.095417 -0.023494 0.20701 0.35301 0.17976 0.064992 -0.0090828 0.00042787 -0.26567 -0.18521 -0.01954 -0.26307 -0.0087143 -0.0060417 0.34088 -0.16918 -0.11617 -0.0098249 -0.17695 0.031684 0.024865 0.04925 0.29724 -0.13219 0.14694 0.22539 0.16695 -0.22252 0.21347 0.075465 -0.079561 -0.018167 -0.12478 0.047547 0.0026787 -0.018564 0.22789 -0.15197 0.040024 0.24393 0.11704 0.072693 0.065979 0.061452 0.18493 -0.013922 -0.13532 0.10866 0.070832 0.06544 -0.1641 -0.10627 0.0058057 0.2249 -0.12794 0.43135 0.17162 -0.16052 -0.29767 -0.046508 -0.0011898 -0.17993 -0.035947 
@EPFL_en 0.12599 0.059729 -0.013445 -0.13875 -0.058465 -0.086125 -0.031741 -0.092045 0.0074855 0.050064 0.04568 0.061697 0.029489 0.28596 -0.13083 -0.099825 -0.074052 0.10834 -0.019437 -0.059191 -0.021171 0.14694 0.18374 -0.090323 -0.29389 -0.01292 0.08726 0.0062163 0.039476 0.071144 -0.19853 0.1058 0.0505 -0.006236 0.081456 0.032202 0.19392 -0.085221 -0.024808 0.20035 0.35312 0.17893 0.06284 0.0036223 -0.0053062 -0.24843 -0.17694 -0.020436 -0.26451 -0.0074142 -0.0078228 0.33013 -0.15936 -0.10091 -0.0083619 -0.16734 0.026473 0.029813 0.056973 0.29336 -0.12054 0.13743 0.21141 0.16728 -0.19264 0.20439 0.075245 -0.082187 -0.018281 -0.11461 0.03901 0.0064505 -0.022589 0.20875 -0.1549 0.041299 0.23222 0.1076 0.069552 0.059867 0.059537 0.17634 -0.0070085 -0.13425 0.093101 0.071941 0.051734 -0.16429 -0.099338 0.0014252 0.21767 -0.11719 0.42826 0.1644 -0.163 -0.29532 -0.048167 -0.0031677 -0.17624 -0.035678 
of 0.13531 0.062918 -0.012018 -0.14649 -0.055269 -0.087092 -0.037546 -0.089496 0.0012233 0.05909 0.042202 0.068173 0.027461 0.28565 -0.13429 -0.10544 -0.070144 0.11637 -0.022627 -0.05818 -0.033874 0.14783 0.18072 -0.092397 -0.30015 -0.01161 0.086674 0.00075189 0.033253 0.072469 -0.20218 0.099131 0.04716 -0.0034892 0.082949 0.032543 0.19178 -0.09247 -0.023187 0.20692 0.34978 0.17498 0.069767 0.0044788 -0.00098883 -0.25131 -0.18646 -0.021869 -0.25864 -0.0083933 -0.0071855 0.32683 -0.16689 -0.10138 -0.010278 -0.17322 0.040019 0.030204 0.050712 0.29081 -0.1292 0.14039 0.21944 0.1694 -0.20234 0.20919 0.074176 -0.080778 -0.025312 -0.11351 0.038632 0.0079322 -0.015843 0.21621 -0.14927 0.035203 0.24307 0.10763 0.064734 0.064027 0.066545 0.18345 -0.013049 -0.13475 0.10566 0.076155 0.055868 -0.15909 -0.10184 0.0036861 0.21536 -0.12326 0.42151 0.16479 -0.16168 -0.29056 -0.049364 0.00087318 -0.18077 -0.035444 
and 0.12892 0.062716 -0.0091323 -0.14887 -0.055776 -0.093835 -0.026021 -0.091625 0.0016895 0.055552 0.046186 0.067411 0.025294 0.28652 -0.12617 -0.1078 -0.06955 0.11998 -0.018042 -0.057009 -0.02435 0.14906 0.178 -0.093615 -0.30813 -0.011205 0.079336 0.011251 0.034093 0.07091 -0.19784 0.093859 0.045771 -0.0045478 0.081323 0.041174 0.19937 -0.092583 -0.017711 0.20143 0.34844 0.17671 0.066813 -0.0024578 -0.0056461 -0.24962 -0.18251 -0.018411 -0.25898 -0.01169 0.0030594 0.34629 -0.16128 -0.10706 -0.0073503 -0.17126 0.034217 0.021781 0.051159 0.29131 -0.12165 0.14892 0.21225 0.16306 -0.20232 0.21487 0.071421 -0.079423 -0.018661 -0.11645 0.042098 0.0067581 -0.020027 0.22029 -0.15033 0.043976 0.24015 0.10686 0.071913 0.064118 0.064604 0.18487 -0.011671 -0.13252 0.098405 0.068133 0.063366 -0.16395 -0.10372 0.0072442 0.21904 -0.12296 0.42792 0.16867 -0.16323 -0.29636 -0.046727 -0.001771 -0.18262 -0.039529 
in 0.12959 0.065108 -0.0082775 -0.15065 -0.052737 -0.10008 -0.030065 -0.094599 0.006266 0.047977 0.051973 0.068589 0.024104 0.29309 -0.12856 -0.10703 -0.069462 0.12261 -0.019788 -0.062177 -0.026481 0.1497 0.17668 -0.094957 -0.31087 -0.021126 0.081686 0.0065482 0.03661 0.064423 -0.20487 0.10319 0.051843 -0.0045922 0.078068 0.0329 0.20348 -0.097151 -0.020044 0.20706 0.35631 0.17833 0.066188 0.0036003 -0.00090011 -0.25311 -0.17961 -0.023575 -0.26937 -0.0068282 0.0011047 0.34931 -0.16558 -0.1056 -0.010568 -0.17534 0.036122 0.025735 0.056544 0.29824 -0.12397 0.14375 0.21433 0.16758 -0.19988 0.21527 0.078138 -0.079682 -0.02206 -0.12368 0.0461 0.0094049 -0.016909 0.22099 -0.15016 0.049846 0.23112 0.11123 0.069488 0.068894 0.062287 0.18275 -0.0092526 -0.13176 0.10282 0.073918 0.06167 -0.16281 -0.10195 0.0033816 0.22032 -0.12276 0.43651 0.17743 -0.16408 -0.30602 -0.052449 -0.0054862 -0.18429 -0.044641 
a 0.14279 0.061443 -0.0094431 -0.15436 -0.058895 -0.10168 -0.038342 -0.097773 -0.00047277 0.051057 0.034691 0.073424 0.023374 0.30207 -0.13776 -0.11556 -0.065192 0.12404 -0.011555 -0.055873 -0.033251 0.15079 0.18595 -0.096373 -0.30992 -0.018348 0.08928 -0.0024805 0.045479 0.071871 -0.20011 0.10849 0.05818 -0.005955 0.075801 0.039564 0.20956 -0.088106 -0.020228 0.21414 0.36227 0.17884 0.073553 -0.0020959 -0.0021978 -0.26156 -0.19014 -0.02214 -0.26796 -0.0078355 -0.0072225 0.34249 -0.17001 -0.10344 -0.0093522 -0.17306 0.030379 0.023556 0.056026 0.3016 -0.13008 0.14414 0.22938 0.18434 -0.21688 0.20717 0.086798 -0.086182 -0.027454 -0.12349 0.045602 0.0059606 -0.022071 0.22126 -0.14965 0.048642 0.23804 0.11396 0.076822 0.071182 0.064083 0.18524 -0.0066058 -0.14492 0.10536 0.075277 0.063797 -0.16875 -0.10077 0.01101 0.22415 -0.12238 0.44589 0.17925 -0.16727 -0.30794 -0.050359 0.0058253 -0.18132 -0.035852 
de 0.10906 0.045864 -0.030885 -0.10492 -0.064672 -0.060242 -0.031439 -0.088591 0.029409 0.046997 0.060785 0.045079 0.039789 0.26762 -0.13363 -0.095662 -0.086948 0.08613 -0.014733 -0.082701 -0.01467 0.15122 0.19344 -0.085215 -0.27135 -0.0019655 0.10532 0.0062893 0.028348 0.082063 -0.21665 0.12749 0.055856 -0.011808 0.074694 0.026065 0.17704 -0.064935 -0.039844 0.19132 0.36967 0.17286 0.045277 0.012965 -0.025388 -0.25105 -0.16077 -0.019712 -0.26669 -0.0050623 -0.033334 0.31009 -0.16636 -0.08393 -0.0068975 -0.16143 0.00084654 0.051516 0.082061 0.29639 -0.10343 0.10453 0.19391 0.17014 -0.15938 0.20299 0.096926 -0.08744 0.0019748 -0.098953 0.014186 0.018614 -0.028574 0.18764 -0.171 0.041123 0.21952 0.10357 0.075966 0.024986 0.050796 0.1557 0.013907 -0.13894 0.065847 0.079357 0.017931 -0.18131 -0.098975 -0.01339 0.21746 -0.098511 0.42196 0.13269 -0.1783 -0.2895 -0.049187 -0.0099194 -0.16222 -0.034098 
for 0.13438 0.067911 -0.019245 -0.1466 -0.060571 -0.097729 -0.033663 -0.097323 0.0059728 0.053127 0.041237 0.071613 0.027394 0.29464 -0.1434 -0.10925 -0.073187 0.12055 -0.019793 -0.056013 -0.028024 0.1508 0.18038 -0.092799 -0.31274 -0.01651 0.084875 -9.7493e-05 0.039848 0.075488 -0.20254 0.099909 0.046508 -0.0072703 0.081062 0.031004 0.20068 -0.090005 -0.019195 0.20547 0.36302 0.18479 0.066866 0.00072984 -0.0021946 -0.25594 -0.19042 -0.020716 -0.26725 -0.0075689 -0.0022869 0.34284 -0.16652 -0.10527 -0.011828 -0.17589 0.032031 0.026918 0.053683 0.29849 -0.12125 0.14392 0.22627 0.17528 -0.2136 0.21973 0.07613 -0.07902 -0.021174 -0.11651 0.038991 0.0042448 -0.017963 0.22307 -0.1564 0.044921 0.243 0.11149 0.070979 0.067834 0.062136 0.18197 -0.011573 -0.14345 0.10778 0.077587 0.059933 -0.16572 -0.1042 0.0046155 0.21892 -0.12652 0.44034 0.17089 -0.16916 -0.30698 -0.044388 -0.006106 -0.1845 -0.035183 
at 0.13933 0.065841 -0.010681 -0.15321 -0.056714 -0.091039 -0.027289 -0.092507 0.0031219 0.053594 0.035337 0.075081 0.0297 0.29647 -0.13214 -0.11252 -0.069385 0.11958 -0.025069 -0.057847 -0.02533 0.1512 0.18152 -0.092134 -0.3179 -0.014408 0.084803 0.0070497 0.035148 0.067903 -0.20198 0.11018 0.054068 -0.010046 0.079353 0.039613 0.20321 -0.086002 -0.019698 0.20993 0.35848 0.1788 0.064454 -0.003139 -0.0010599 -0.25765 -0.18587 -0.021899 -0.26187 -0.010266 -0.0013526 0.34234 -0.1683 -0.11381 -0.0058593 -0.17458 0.035868 0.029051 0.052179 0.29746 -0.12391 0.14372 0.22554 0.17548 -0.21431 0.21779 0.07923 -0.076344 -0.025662 -0.12447 0.041838 0.0041739 -0.015974 0.22978 -0.15733 0.044923 0.24506 0.11596 0.07712 0.063784 0.066413 0.18054 -0.018388 -0.13547 0.10556 0.074226 0.066235 -0.16422 -0.10269 0.001204 0.22654 -0.12142 0.43456 0.17972 -0.16636 -0.29855 -0.051129 -0.0075763 -0.18311 -0.035384 
on 0.13389 0.061421 -0.01537 -0.1442 -0.055757 -0.092329 -0.036059 -0.091282 0.0091999 0.054353 0.042069 0.069093 0.035122 0.28849 -0.13002 -0.10564 -0.075385 0.11223 -0.02183 -0.060207 -0.02386 0.15046 0.18387 -0.090913 -0.302 -0.018331 0.088429 0.011609 0.034433 0.070131 -0.20126 0.10629 0.057672 -0.0018978 0.080989 0.037086 0.19619 -0.08668 -0.021174 0.20792 0.35914 0.17634 0.066535 -0.0071025 -0.00017968 -0.25587 -0.18817 -0.021173 -0.25766 -0.0054253 -0.0041074 0.33373 -0.16355 -0.10643 -0.014751 -0.17025 0.027383 0.027698 0.054401 0.2932 -0.11751 0.14111 0.22174 0.16819 -0.20907 0.21501 0.072469 -0.084274 -0.017866 -0.11874 0.040011 0.0073805 -0.014136 0.2217 -0.15148 0.041741 0.23932 0.10804 0.066446 0.066571 0.056973 0.1775 -0.0091573 -0.13996 0.098513 0.073075 0.062726 -0.16639 -0.10112 0.00061956 0.21691 -0.12478 0.42675 0.16091 -0.16114 -0.30082 -0.04326 -0.0040845 -0.18136 -0.03442 
#epfl 0.12493 0.058382 -0.01688 -0.13477 -0.05708 -0.086914 -0.030594 -0.091855 0.0098232 0.051689 0.049791 0.062886 0.027463 0.27787 -0.13477 -0.097596 -0.073157 0.11063 -0.019797 -0.063411 -0.022752 0.14982 0.1784 -0.08882 -0.28728 -0.011318 0.08931 0.0086084 0.037716 0.073005 -0.19682 0.10933 0.046143 -0.0081092 0.076333 0.033708 0.18735 -0.082154 -0.029831 0.19217 0.35168 0.1705 0.060893 0.0028458 -0.0096319 -0.2472 -0.17587 -0.019706 -0.25499 -0.0082576 -0.0097683 0.3239 -0.16151 -0.098914 -0.010273 -0.16954 0.021053 0.03168 0.053204 0.2889 -0.11736 0.12787 0.2089 0.17147 -0.19244 0.20726 0.079457 -0.081727 -0.016966 -0.11029 0.029523 0.006708 -0.02036 0.20597 -0.14839 0.041724 0.22587 0.10603 0.071423 0.053223 0.059558 0.17458 -0.0075913 -0.13499 0.092073 0.072036 0.050046 -0.16042 -0.098495 0.001583 0.21469 -0.11379 0.41584 0.15808 -0.16037 -0.29121 -0.04596 -0.0079578 -0.16956 -0.034414 
with 0.13461 0.065506 -0.013316 -0.149 -0.059648 -0.095221 -0.029344 -0.096821 0.007766 0.059244 0.047485 0.071285 0.025712 0.29889 -0.13447 -0.11099 -0.073537 0.11964 -0.021102 -0.06174 -0.028388 0.15258 0.187 -0.095574 -0.31507 -0.010586 0.090489 -0.00051607 0.041998 0.07182 -0.20419 0.1064 0.049245 -0.0098736 0.083676 0.036601 0.19975 -0.08998 -0.024468 0.20859 0.36387 0.18284 0.063809 0.00021676 -0.00634 -0.26035 -0.18668 -0.015872 -0.26475 -0.0079021 -0.0080601 0.34786 -0.16634 -0.10964 -0.0073734 -0.17923 0.028517 0.029274 0.055755 0.30246 -0.12815 0.14421 0.21808 0.17875 -0.20771 0.21535 0.084747 -0.082056 -0.019036 -0.12186 0.041884 0.0073753 -0.021327 0.22279 -0.15783 0.044659 0.24957 0.11081 0.073399 0.063919 0.066034 0.18663 -0.0091341 -0.14162 0.09984 0.073707 0.058152 -0.17096 -0.10467 0.0020234 0.22514 -0.1226 0.43986 0.16951 -0.17016 -0.30689 -0.046325 -0.0010222 -0.18393 -0.032463 
via 0.12245 0.059575 -0.01926 -0.13458 -0.059179 -0.080534 -0.030557 -0.09193 0.011943 0.051985 0.045645 0.064421 0.028232 0.27743 -0.12713 -0.096511 -0.073667 0.10868 -0.02193 -0.064294 -0.019466 0.14212 0.18082 -0.083389 -0.28454 -0.0095572 0.088988 0.0046636 0.03286 0.069926 -0.19569 0.10458 0.049758 -0.0089651 0.075117 0.031735 0.18571 -0.084885 -0.024191 0.19384 0.34345 0.17194 0.054489 0.00067316 -0.0098498 -0.24309 -0.17375 -0.019799 -0.25035 -0.0074205 -0.013454 0.32751 -0.16549 -0.10049 -0.0084865 -0.1646 0.028841 0.031693 0.057475 0.28226 -0.11224 0.12956 0.20122 0.1661 -0.18909 0.19988 0.0783 -0.071758 -0.016329 -0.11006 0.032209 0.0086122 -0.02254 0.20143 -0.15307 0.039111 0.23093 0.10388 0.068971 0.050422 0.060379 0.17305 -0.0082415 -0.13458 0.091464 0.073144 0.046182 -0.16435 -0.10372 0.0018567 0.21127 -0.10964 0.41384 0.15339 -0.16222 -0.28775 -0.043815 -0.0048953 -0.17292 -0.036587 
is 0.13536 0.067393 -0.013224 -0.1448 -0.058373 -0.093239 -0.035694 -0.093829 0.012622 0.056097 0.044157 0.071476 0.018679 0.28547 -0.13231 -0.10496 -0.071724 0.12013 -0.020886 -0.057077 -0.022838 0.1476 0.18628 -0.087591 -0.30676 -0.011185 0.088501 0.0070692 0.042277 0.067223 -0.19933 0.099954 0.049834 -0.0099585 0.078691 0.036148 0.20003 -0.089515 -0.021261 0.20087 0.35051 0.17588 0.065187 0.00026869 -0.0049094 -0.24918 -0.1832 -0.021774 -0.25411 -0.0088244 -0.0034642 0.33185 -0.16393 -0.10862 -0.0064093 -0.16959 0.035478 0.025327 0.052481 0.28782 -0.11733 0.1329 0.21409 0.1727 -0.20118 0.21229 0.078146 -0.082983 -0.023489 -0.11085 0.035885 0.0023443 -0.019888 0.21767 -0.15242 0.044249 0.23555 0.10611 0.078454 0.067109 0.057265 0.18488 -0.012365 -0.13337 0.10442 0.075835 0.052637 -0.16662 -0.094956 0.0072969 0.22116 -0.11641 0.42578 0.17337 -0.16245 -0.30015 -0.048351 -0.0010123 -0.17319 -0.031641 
la 0.10601 0.05189 -0.02788 -0.10926 -0.064103 -0.071891 -0.03328 -0.081842 0.02718 0.042207 0.057621 0.052021 0.028017 0.26215 -0.12286 -0.094936 -0.078009 0.086114 -0.019417 -0.077898 -0.020651 0.15019 0.18147 -0.088186 -0.2722 -0.003875 0.095156 0.0053377 0.026589 0.078953 -0.20557 0.10911 0.051435 -0.0097972 0.069905 0.030357 0.1724 -0.067858 -0.032243 0.17863 0.35242 0.167 0.047774 0.016608 -0.020436 -0.23579 -0.15587 -0.018092 -0.2574 -0.0061382 -0.029042 0.30881 -0.16473 -0.082931 -0.0059771 -0.15813 0.0051059 0.041506 0.071902 0.28113 -0.10698 0.10851 0.18781 0.17046 -0.16177 0.20182 0.088651 -0.081673 -0.0063434 -0.095775 0.01641 0.018892 -0.020044 0.18623 -0.1573 0.038861 0.20534 0.10086 0.07125 0.045165 0.053161 0.15745 0.0097264 -0.13678 0.074445 0.075857 0.025987 -0.1679 -0.099384 -0.0099969 0.2137 -0.10109 0.40871 0.13471 -0.16403 -0.2747 -0.043955 -0.0077283 -0.16631 -0.034773 
à 0.10552 0.058338 -0.030703 -0.11432 -0.061458 -0.067854 -0.040253 -0.079001 0.03128 0.048982 0.052172 0.053341 0.037513 0.26326 -0.12415 -0.089148 -0.0878 0.08813 -0.017037 -0.083896 -0.021884 0.1542 0.18462 -0.078771 -0.2655 -0.0033821 0.10521 -0.0044925 0.024732 0.071389 -0.21146 0.1092 0.053325 -0.005899 0.063829 0.027837 0.17612 -0.070489 -0.038808 0.18508 0.35435 0.16624 0.041894 0.01526 -0.017375 -0.24512 -0.16925 -0.014842 -0.25422 -0.0083372 -0.036176 0.31477 -0.17236 -0.080221 -0.011386 -0.15462 -0.0026491 0.049564 0.079725 0.2821 -0.092399 0.10099 0.19948 0.17395 -0.16276 0.19783 0.095461 -0.08521 -0.0023972 -0.097781 0.0088776 0.023385 -0.018577 0.17904 -0.15828 0.037196 0.21487 0.10167 0.064785 0.024543 0.05206 0.15108 0.0099645 -0.13692 0.077662 0.079909 0.023351 -0.1677 -0.094143 -0.011041 0.21499 -0.10151 0.41087 0.12662 -0.17014 -0.28207 -0.050912 -0.0088606 -0.16728 -0.032457 
- 0.12359 0.054285 -0.0064475 -0.13557 -0.054099 -0.079774 -0.026642 -0.096326 0.0086726 0.051701 0.045598 0.05683 0.030622 0.27741 -0.12434 -0.10268 -0.075439 0.1039 -0.021088 -0.066106 -0.015397 0.14875 0.18552 -0.092831 -0.29394 -0.016868 0.089332 0.0091804 0.042424 0.074706 -0.19207 0.10674 0.053539 -8.3037e-05 0.079715 0.030563 0.18116 -0.078643 -0.022803 0.19147 0.34991 0.17883 0.060597 0.0056185 0.00086849 -0.24455 -0.18123 -0.026152 -0.25539 -0.017006 -0.0037313 0.33556 -0.15735 -0.098719 -0.013377 -0.17139 0.027878 0.023501 0.056495 0.28654 -0.12409 0.13322 0.19982 0.17293 -0.18598 0.20889 0.085918 -0.076815 -0.019511 -0.10545 0.029792 0.0026915 -0.018392 0.20521 -0.16024 0.044901 0.23239 0.10471 0.068529 0.061792 0.060745 0.17892 -0.010699 -0.13574 0.095267 0.077279 0.044752 -0.16592 -0.09775 0.0004803 0.21479 -0.11945 0.42735 0.15183 -0.16706 -0.28961 -0.050288 -0.0047472 -0.17907 -0.033118 
by 0.12927 0.063243 -0.01915 -0.13092 -0.05766 -0.081698 -0.02721 -0.092546 0.012589 0.054673 0.044192 0.068075 0.027022 0.2786 -0.12377 -0.099569 -0.064614 0.1104 -0.014554 -0.058619 -0.027492 0.14193 0.1818 -0.086088 -0.29431 -0.012551 0.089646 -2.5712e-05 0.037313 0.067067 -0.19567 0.097586 0.047133 -0.006139 0.071914 0.034266 0.19129 -0.078921 -0.016952 0.19965 0.3451 0.17133 0.063102 -0.0033804 -0.0069308 -0.24177 -0.17637 -0.02047 -0.25703 -0.00325 -0.0026751 0.31708 -0.16119 -0.10118 -0.0057624 -0.16705 0.030981 0.030284 0.05241 0.2831 -0.11409 0.12793 0.20999 0.1667 -0.19677 0.2034 0.078607 -0.076874 -0.018438 -0.11341 0.037493 0.0050256 -0.018013 0.21321 -0.14762 0.041702 0.22871 0.10737 0.064232 0.058001 0.054296 0.17317 -0.0094899 -0.13655 0.10052 0.072649 0.056798 -0.15147 -0.097161 -0.00090097 0.21363 -0.10886 0.41815 0.16259 -0.1623 -0.29118 -0.043888 -0.0060812 -0.17904 -0.032338 
#EPFL 0.1242 0.061197 -0.017781 -0.13521 -0.060837 -0.087079 -0.032818 -0.096032 0.01284 0.051317 0.053399 0.061256 0.032745 0.29416 -0.13423 -0.10312 -0.078921 0.10693 -0.016585 -0.067951 -0.022167 0.15797 0.19299 -0.092181 -0.30246 -0.0093781 0.09 0.005108 0.035426 0.078893 -0.21303 0.11693 0.055055 -0.0080649 0.080344 0.033435 0.19379 -0.084144 -0.028231 0.20562 0.36997 0.18426 0.060459 0.0050775 -0.010192 -0.25924 -0.1826 -0.025025 -0.27296 -0.010009 -0.015698 0.34412 -0.17027 -0.10135 -0.0090869 -0.17659 0.021184 0.038217 0.065587 0.30312 -0.12052 0.13687 0.213 0.17418 -0.19485 0.21637 0.084538 -0.085173 -0.014894 -0.11546 0.030875 0.017027 -0.023925 0.20901 -0.16199 0.040632 0.2391 0.11282 0.073384 0.054592 0.060305 0.18002 -0.0030771 -0.1418 0.091009 0.082071 0.043968 -0.1765 -0.10519 -0.0012386 0.22902 -0.11646 0.44355 0.16003 -0.17715 -0.30452 -0.049585 -0.0064443 -0.18133 -0.039025 
et 0.11093 0.054222 -0.024443 -0.11703 -0.064601 -0.067931 -0.027945 -0.091129 0.024456 0.051059 0.060743 0.052055 0.030381 0.27289 -0.13442 -0.092154 -0.082042 0.099125 -0.016616 -0.074429 -0.022169 0.15786 0.18986 -0.085299 -0.28242 -0.003627 0.098257 0.0044828 0.030418 0.075886 -0.21103 0.12081 0.057022 -0.0019804 0.074223 0.033784 0.17971 -0.069658 -0.028755 0.19507 0.36214 0.1719 0.045331 0.0067627 -0.016413 -0.25115 -0.16904 -0.024289 -0.26001 -0.0087996 -0.026402 0.31819 -0.16416 -0.082479 -0.00862 -0.16288 0.0052443 0.042893 0.075504 0.29342 -0.10721 0.11374 0.19515 0.17728 -0.17448 0.19698 0.091693 -0.084339 -0.0011182 -0.10769 0.021247 0.018195 -0.027895 0.19512 -0.16501 0.038234 0.22367 0.096622 0.069111 0.038309 0.049151 0.16447 0.0071783 -0.14032 0.070942 0.085345 0.026171 -0.17929 -0.10028 -0.0083569 0.21469 -0.10758 0.41436 0.13741 -0.17249 -0.29118 -0.048572 -0.0092224 -0.16696 -0.030987 
from 0.12626 0.06126 -0.013167 -0.14078 -0.060913 -0.084135 -0.02995 -0.096194 0.0090023 0.048794 0.041529 0.063266 0.02478 0.28476 -0.13295 -0.10113 -0.071235 0.11284 -0.023164 -0.059086 -0.026142 0.14688 0.17938 -0.088316 -0.30115 -0.013669 0.087483 0.0021222 0.040553 0.068869 -0.19824 0.099989 0.051335 -0.0071657 0.083394 0.034525 0.19482 -0.085715 -0.022858 0.19469 0.35165 0.17677 0.06102 -0.0016208 -0.0065885 -0.24934 -0.17515 -0.017 -0.25207 -0.010442 -0.0042109 0.32691 -0.16444 -0.10092 -0.0087605 -0.16848 0.026122 0.027414 0.052905 0.29077 -0.11758 0.13421 0.21183 0.16885 -0.20026 0.20819 0.079249 -0.080897 -0.019264 -0.11195 0.039891 0.0074021 -0.022397 0.2123 -0.1521 0.038162 0.2304 0.1067 0.067865 0.060833 0.059691 0.17168 -0.0084635 -0.13301 0.10037 0.073409 0.054857 -0.16548 -0.10036 0.0025612 0.21208 -0.11948 0.41716 0.16395 -0.1603 -0.2915 -0.046991 -0.0023256 -0.17753 -0.031494 
&amp; 0.12957 0.059609 -0.017056 -0.13805 -0.062209 -0.088595 -0.029425 -0.094608 0.012132 0.05375 0.047473 0.068272 0.029308 0.28466 -0.13444 -0.10276 -0.072348 0.11133 -0.01961 -0.058316 -0.021838 0.15117 0.18117 -0.089759 -0.30085 -0.013361 0.090625 0.0026282 0.037037 0.073998 -0.20033 0.10255 0.051355 -0.0086494 0.079621 0.032188 0.19417 -0.084898 -0.023229 0.20261 0.35412 0.17506 0.065001 -0.0026515 -0.0026959 -0.25109 -0.17911 -0.017946 -0.25817 -0.0086686 -0.0050742 0.33305 -0.16231 -0.10333 -0.0084952 -0.16966 0.026147 0.027219 0.054342 0.29152 -0.12083 0.13403 0.21135 0.17081 -0.19946 0.21224 0.077345 -0.082372 -0.01523 -0.11305 0.036673 0.0037582 -0.021699 0.21347 -0.15714 0.037368 0.23485 0.11133 0.070709 0.057676 0.060616 0.17958 -0.010752 -0.13908 0.096939 0.074957 0.054101 -0.1658 -0.098311 0.0019452 0.22091 -0.11856 0.42909 0.16324 -0.16223 -0.297 -0.046324 -0.0056182 -0.17864 -0.030535 
les 0.10565 0.048488 -0.024725 -0.10301 -0.068836 -0.066697 -0.035134 -0.083697 0.02498 0.046704 0.055367 0.051395 0.032336 0.25428 -0.12413 -0.088735 -0.082806 0.085805 -0.012565 -0.078548 -0.016551 0.15203 0.18293 -0.080377 -0.25953 -0.0050589 0.090063 -0.0019096 0.023079 0.077451 -0.2053 0.11678 0.048873 -0.0058067 0.072237 0.020624 0.1701 -0.068635 -0.032159 0.17902 0.34566 0.16679 0.046548 0.0091304 -0.025752 -0.23104 -0.15823 -0.023325 -0.24698 -0.0040201 -0.027193 0.2975 -0.1629 -0.075445 -0.011121 -0.15109 0.0040908 0.040113 0.075662 0.27802 -0.098 0.10205 0.18866 0.16665 -0.15942 0.19098 0.08898 -0.082178 -0.0019449 -0.099854 0.015951 0.02688 -0.021887 0.18114 -0.15942 0.042062 0.21024 0.10046 0.07205 0.028028 0.046907 0.15064 0.0095458 -0.12759 0.063566 0.076889 0.018453 -0.16978 -0.095365 -0.011855 0.20997 -0.1008 0.40172 0.1292 -0.16673 -0.27598 -0.046584 -0.012544 -0.16238 -0.033427 
des 0.11097 0.055997 -0.028202 -0.1095 -0.072561 -0.0668 -0.033466 -0.090046 0.029266 0.047571 0.060966 0.053972 0.02864 0.27253 -0.12914 -0.095189 -0.083431 0.09265 -0.015008 -0.080618 -0.016474 0.15865 0.19363 -0.084952 -0.27773 0.00059277 0.099053 0.0011756 0.027762 0.075593 -0.2202 0.1247 0.054712 -0.0042959 0.070751 0.027219 0.18156 -0.067739 -0.034691 0.19004 0.36082 0.17235 0.044593 0.013449 -0.024293 -0.25002 -0.1663 -0.017587 -0.25898 -0.00072141 -0.036557 0.31482 -0.16878 -0.080994 -0.0069673 -0.16296 0.0054122 0.043386 0.082587 0.29015 -0.10318 0.10378 0.20121 0.17368 -0.16318 0.20384 0.093853 -0.084792 0.00095212 -0.10018 0.010642 0.020356 -0.022937 0.1894 -0.16768 0.039257 0.22098 0.10609 0.073285 0.029772 0.054861 0.16171 0.0071404 -0.13663 0.074178 0.077863 0.024586 -0.18212 -0.10241 -0.0095607 0.225 -0.10391 0.42016 0.13634 -0.1753 -0.29093 -0.04772 -0.0099236 -0.16282 -0.029489 
pour 0.11065 0.051666 -0.025733 -0.10977 -0.060219 -0.066077 -0.028757 -0.086132 0.022787 0.048958 0.053203 0.051458 0.033819 0.25986 -0.12748 -0.093923 -0.081111 0.088141 -0.013624 -0.072539 -0.016395 0.14746 0.1847 -0.08325 -0.26868 -0.0031559 0.094701 0.0023925 0.032236 0.080097 -0.20717 0.11955 0.051601 -0.0087237 0.073222 0.024713 0.16879 -0.068896 -0.031971 0.17611 0.3491 0.16722 0.046139 0.010463 -0.020566 -0.2382 -0.16033 -0.021944 -0.25009 -0.0098051 -0.027189 0.30527 -0.16283 -0.084888 -0.0090245 -0.15542 0.0056613 0.040191 0.072624 0.28014 -0.10244 0.10555 0.19278 0.16831 -0.16509 0.19603 0.089716 -0.081617 -0.0019506 -0.097858 0.016398 0.017573 -0.024824 0.18402 -0.15623 0.038106 0.21602 0.097096 0.069212 0.033973 0.054847 0.15547 0.0063515 -0.13489 0.068886 0.081871 0.023279 -0.16767 -0.096787 -0.0082354 0.21226 -0.10193 0.40278 0.133 -0.16657 -0.27928 -0.042782 -0.0089406 -0.15617 -0.031325 
le 0.10601 0.052349 -0.026362 -0.10651 -0.070795 -0.065029 -0.039505 -0.091469 0.022939 0.052307 0.066274 0.056216 0.031987 0.26966 -0.12805 -0.099108 -0.085252 0.089937 -0.019979 -0.081855 -0.020125 0.16465 0.1953 -0.086808 -0.28106 -0.0086018 0.097814 -0.0029511 0.031008 0.088376 -0.22037 0.12957 0.057222 -0.0059211 0.073903 0.02112 0.17746 -0.074832 -0.031646 0.19157 0.37643 0.17472 0.041866 0.0076313 -0.019749 -0.24806 -0.1611 -0.022493 -0.26472 -0.0094075 -0.030007 0.31934 -0.17084 -0.0832 -0.0089335 -0.15455 -0.00054566 0.039592 0.084813 0.29491 -0.11001 0.10486 0.1945 0.17659 -0.16607 0.19953 0.09119 -0.086457 -0.0035092 -0.10617 0.016121 0.028216 -0.029048 0.18726 -0.16738 0.040554 0.22139 0.10336 0.068676 0.028685 0.044567 0.15859 0.012374 -0.14094 0.06846 0.086336 0.02279 -0.17949 -0.10552 -0.0023855 0.22427 -0.10263 0.43103 0.14277 -0.17727 -0.29699 -0.049093 -0.018075 -0.16642 -0.032907 
en 0.10331 0.056453 -0.023493 -0.11764 -0.067892 -0.073418 -0.034607 -0.089933 0.023749 0.045438 0.064007 0.050157 0.028993 0.27727 -0.11463 -0.093455 -0.084516 0.087882 -0.016258 -0.072717 -0.023647 0.15658 0.18661 -0.084783 -0.28278 -0.0080776 0.099262 0.0059249 0.02842 0.076328 -0.21179 0.12156 0.046781 -0.017578 0.07435 0.028543 0.18326 -0.088074 -0.026654 0.18787 0.36207 0.17419 0.051969 0.010785 -0.019282 -0.24307 -0.1679 -0.016035 -0.26261 -0.0062171 -0.017706 0.32974 -0.16409 -0.080151 -0.0077416 -0.16152 0.0066139 0.037 0.068516 0.29367 -0.10838 0.12164 0.1942 0.17426 -0.17273 0.20286 0.086154 -0.087527 -0.005343 -0.11046 0.026122 0.011943 -0.023877 0.18495 -0.16542 0.044527 0.22403 0.10718 0.070499 0.041983 0.062466 0.16956 0.011632 -0.13678 0.075912 0.068096 0.032958 -0.17121 -0.10045 -0.0091006 0.21723 -0.10799 0.42416 0.1448 -0.16667 -0.28826 -0.043788 -0.00803 -0.18325 -0.033063 
! 0.12103 0.051176 -0.020454 -0.12966 -0.067675 -0.086037 -0.036304 -0.090428 0.013653 0.055889 0.050993 0.054028 0.027928 0.27642 -0.1246 -0.1052 -0.081242 0.10992 -0.020973 -0.065217 -0.019288 0.15548 0.17981 -0.091148 -0.28578 -0.0094381 0.086746 0.0089743 0.038707 0.077047 -0.21155 0.1101 0.049163 -0.003126 0.083984 0.033791 0.19319 -0.078745 -0.021256 0.19228 0.34982 0.17869 0.051707 0.004321 -0.016578 -0.24788 -0.17261 -0.015991 -0.24721 -0.013389 -0.015244 0.3248 -0.16421 -0.10012 -0.011843 -0.16242 0.01428 0.040269 0.063938 0.29432 -0.10735 0.12772 0.20699 0.17475 -0.18452 0.21154 0.084382 -0.082433 -0.01343 -0.10861 0.025909 0.012216 -0.018389 0.2011 -0.16185 0.039221 0.22918 0.1049 0.074651 0.039467 0.05664 0.16531 0.0014634 -0.1354 0.087015 0.079482 0.039119 -0.16692 -0.1081 -0.0051017 0.21437 -0.1144 0.42239 0.1473 -0.16639 -0.28396 -0.043746 -0.010518 -0.17757 -0.041548 
The 0.12113 0.061404 -0.013263 -0.13747 -0.057316 -0.091247 -0.032785 -0.092886 0.0096274 0.046953 0.038287 0.066187 0.025415 0.27777 -0.13016 -0.10137 -0.071737 0.10743 -0.020679 -0.063101 -0.023542 0.14165 0.17691 -0.08459 -0.28852 -0.014987 0.0825 0.0012475 0.041803 0.069886 -0.18922 0.09873 0.051135 -0.0067698 0.0766 0.034378 0.18747 -0.083871 -0.020183 0.19541 0.34306 0.17059 0.062863 0.0013789 -0.0043105 -0.24262 -0.17304 -0.0262 -0.2487 -0.011736 -0.0038407 0.32292 -0.15991 -0.10231 -0.0097892 -0.1664 0.028429 0.027299 0.052731 0.28232 -0.11702 0.12902 0.20691 0.16616 -0.19681 0.20081 0.072535 -0.077818 -0.012476 -0.10953 0.035772 0.0091307 -0.01778 0.20966 -0.14798 0.039126 0.2256 0.10139 0.070283 0.056102 0.062168 0.17717 -0.0062771 -0.12828 0.094737 0.07313 0.049885 -0.16098 -0.095895 0.0068992 0.21218 -0.12148 0.40858 0.16056 -0.16016 -0.28342 -0.043912 0.0018683 -0.176 -0.030508 
you 0.1408 0.063982 -0.012752 -0.15248 -0.062056 -0.098929 -0.027967 -0.1 0.0056054 0.057891 0.048406 0.075502 0.024724 0.29993 -0.14113 -0.10924 -0.070138 0.12603 -0.019328 -0.058931 -0.020547 0.15701 0.18974 -0.099631 -0.3151 -0.011469 0.094436 0.0036911 0.042352 0.069235 -0.20908 0.11572 0.047472 -0.0083581 0.083081 0.034921 0.2071 -0.091528 -0.024947 0.20482 0.3677 0.1871 0.065228 -0.0031498 -0.0057791 -0.26752 -0.19113 -0.022662 -0.26683 -0.011647 -0.0040034 0.34992 -0.17157 -0.10929 -0.011326 -0.18093 0.034737 0.028002 0.057213 0.30984 -0.1219 0.14544 0.22277 0.17819 -0.21585 0.21979 0.083692 -0.081862 -0.015133 -0.12218 0.043058 0.0003375 -0.021571 0.22371 -0.16077 0.036503 0.24634 0.11699 0.076309 0.067527 0.063291 0.18537 -0.010056 -0.13864 0.099832 0.077251 0.056644 -0.16999 -0.099899 0.0043036 0.22528 -0.12541 0.4413 0.17257 -0.17082 -0.30686 -0.049897 -0.0011544 -0.17976 -0.037453 
are 0.13267 0.061475 -0.012456 -0.14027 -0.059657 -0.093741 -0.032928 -0.09064 0.0081147 0.054516 0.044637 0.061907 0.028458 0.29368 -0.13203 -0.10494 -0.072759 0.11186 -0.017917 -0.064041 -0.024946 0.15587 0.18416 -0.09242 -0.30807 -0.010493 0.091985 0.003711 0.038382 0.073651 -0.20593 0.10948 0.052942 -0.0054714 0.081061 0.037977 0.1979 -0.088299 -0.023157 0.2011 0.36402 0.18062 0.063448 0.0023702 -0.0055257 -0.2561 -0.18234 -0.01906 -0.26378 -0.011662 -0.004926 0.33867 -0.16509 -0.10544 -0.0096069 -0.17367 0.026207 0.033287 0.059299 0.30049 -0.12331 0.13301 0.21485 0.17499 -0.20611 0.21413 0.084559 -0.085543 -0.017674 -0.1168 0.034767 0.0077494 -0.021923 0.21978 -0.15752 0.038389 0.23649 0.10817 0.073734 0.055925 0.058864 0.18316 -0.008906 -0.14428 0.096444 0.07498 0.052627 -0.16847 -0.098304 0.0019871 0.22111 -0.11911 0.43697 0.16982 -0.16916 -0.30083 -0.049405 -0.005657 -0.17645 -0.036621 
an 0.13123 0.064107 -0.0088495 -0.1531 -0.057884 -0.09981 -0.026853 -0.096744 0.0061189 0.053372 0.051087 0.070841 0.029265 0.30219 -0.12936 -0.10372 -0.067827 0.12161 -0.015442 -0.061177 -0.021005 0.15967 0.18796 -0.094676 -0.31909 -0.010057 0.088497 0.0076481 0.040639 0.073287 -0.20978 0.10269 0.046847 -0.0075226 0.080687 0.034529 0.20636 -0.098598 -0.026916 0.20981 0.36684 0.18435 0.07068 0.0023558 -0.0064342 -0.26214 -0.187 -0.021466 -0.26834 -0.0030494 0.0025407 0.35467 -0.17522 -0.10309 -0.0052624 -0.17695 0.031369 0.028952 0.052554 0.3056 -0.12334 0.15002 0.22423 0.17594 -0.20351 0.21958 0.076186 -0.08665 -0.019636 -0.12337 0.037157 0.00022641 -0.017991 0.22379 -0.16171 0.035743 0.23944 0.1176 0.078935 0.063913 0.068228 0.18393 -0.014891 -0.1395 0.10579 0.072583 0.065037 -0.16984 -0.10954 0.0007905 0.22054 -0.12121 0.44392 0.17202 -0.16196 -0.3103 -0.04766 -0.0014043 -0.19525 -0.038564 
our 0.13366 0.058886 -0.016652 -0.13728 -0.064492 -0.082501 -0.034763 -0.093856 0.017296 0.058477 0.054473 0.060964 0.032098 0.29594 -0.13616 -0.10579 -0.081533 0.10509 -0.0204 -0.067969 -0.021802 0.15923 0.19517 -0.094562 -0.3056 -0.0070526 0.097612 0.00037589 0.037644 0.078122 -0.2155 0.11379 0.056247 -0.0025019 0.077857 0.031176 0.1963 -0.079837 -0.028918 0.20361 0.37885 0.18922 0.053853 0.0035499 -0.010737 -0.26379 -0.18445 -0.024854 -0.27071 -0.0083024 -0.01797 0.34622 -0.17164 -0.10616 -0.012944 -0.178 0.021088 0.036151 0.066408 0.30679 -0.12057 0.12635 0.21865 0.18209 -0.19825 0.21559 0.089842 -0.085252 -0.0062906 -0.11454 0.029821 0.012026 -0.021531 0.2137 -0.1658 0.040337 0.23869 0.11446 0.073722 0.049162 0.058829 0.17922 -0.0053222 -0.1447 0.08843 0.086132 0.04441 -0.17986 -0.10684 -0.0017045 0.23261 -0.11963 0.44644 0.16287 -0.17739 -0.30917 -0.048767 -0.0052889 -0.17861 -0.033925 
#VDtech 0.11674 0.055533 -0.01492 -0.12329 -0.054615 -0.077711 -0.029047 -0.085001 0.0091807 0.048362 0.044265 0.060943 0.026723 0.26035 -0.12262 -0.092875 -0.068006 0.10124 -0.015928 -0.058471 -0.020408 0.14155 0.16982 -0.084213 -0.27542 -0.010465 0.082827 0.0034641 0.033561 0.066674 -0.18904 0.099688 0.046659 -0.0051612 0.07527 0.028236 0.17563 -0.078058 -0.024787 0.18451 0.33083 0.16152 0.056707 0.0018309 -0.008725 -0.23247 -0.16315 -0.020449 -0.24345 -0.0086903 -0.0075533 0.3044 -0.15087 -0.090417 -0.008081 -0.15485 0.022825 0.029924 0.054396 0.27101 -0.10858 0.12046 0.19393 0.16088 -0.17613 0.19139 0.076324 -0.074909 -0.011781 -0.10372 0.032616 0.0072889 -0.016835 0.19253 -0.14831 0.03863 0.21287 0.10039 0.066579 0.049784 0.053796 0.16165 -0.0039329 -0.12664 0.08561 0.068635 0.044271 -0.15635 -0.091921 0.00019202 0.20308 -0.10982 0.3963 0.15019 -0.1527 -0.27293 -0.041662 -0.0051365 -0.16348 -0.030681 
that 0.14616 0.065676 -0.0052635 -0.15682 -0.060032 -0.094021 -0.030888 -0.094059 0.0021508 0.055764 0.038935 0.071874 0.028325 0.30115 -0.14572 -0.10716 -0.06759 0.12484 -0.018585 -0.057083 -0.026077 0.15158 0.18595 -0.096174 -0.31574 -0.010019 0.088415 0.0093469 0.042341 0.06763 -0.20186 0.10384 0.051318 -0.0041489 0.08464 0.034969 0.20978 -0.09032 -0.022491 0.20885 0.36448 0.18791 0.067274 -0.0014851 -0.0012695 -0.26807 -0.195 -0.019103 -0.26458 -0.0048838 0.0016011 0.34848 -0.17258 -0.11384 -0.0091445 -0.17619 0.038169 0.029706 0.052345 0.30601 -0.12586 0.1526 0.22644 0.17635 -0.22425 0.21441 0.077689 -0.078956 -0.023804 -0.1249 0.047507 0.0039742 -0.022487 0.22989 -0.15902 0.034003 0.24999 0.11819 0.079622 0.067908 0.068797 0.18415 -0.015028 -0.13648 0.10759 0.070484 0.066765 -0.16927 -0.10313 0.0071662 0.22646 -0.12812 0.44385 0.1835 -0.16654 -0.30855 -0.043952 0.00036998 -0.17956 -0.035714 
du 0.11173 0.057081 -0.023319 -0.12409 -0.061115 -0.070855 -0.03498 -0.087954 0.021747 0.047607 0.053719 0.054648 0.031898 0.27217 -0.12254 -0.093308 -0.076822 0.092921 -0.02065 -0.071959 -0.011915 0.14501 0.17962 -0.087207 -0.27662 -0.0085494 0.094882 0.0020031 0.028708 0.076144 -0.20491 0.11576 0.051098 -0.010283 0.068708 0.026562 0.18145 -0.079201 -0.033164 0.18287 0.35212 0.16578 0.053678 0.0085498 -0.020065 -0.24343 -0.16288 -0.019413 -0.24943 -0.0020437 -0.022226 0.31364 -0.16245 -0.085487 -0.0067651 -0.1604 0.010576 0.041109 0.066124 0.28138 -0.10465 0.11525 0.19756 0.16807 -0.17093 0.19882 0.087716 -0.085317 -0.007126 -0.10065 0.027678 0.017455 -0.025025 0.19697 -0.15687 0.039263 0.22362 0.10023 0.069008 0.036765 0.058825 0.16078 0.0086796 -0.14063 0.078106 0.081552 0.030194 -0.17046 -0.098262 -0.00037748 0.21742 -0.10462 0.41322 0.1419 -0.16787 -0.28942 -0.047221 -0.0075624 -0.16156 -0.036663 
sur 0.11394 0.057116 -0.024505 -0.11597 -0.063375 -0.068494 -0.03763 -0.094862 0.023026 0.048733 0.056634 0.060447 0.030677 0.27857 -0.13232 -0.10099 -0.084928 0.098812 -0.013514 -0.078366 -0.021996 0.15892 0.19553 -0.089001 -0.2852 -0.0043182 0.098563 -0.001672 0.031996 0.081792 -0.21541 0.12011 0.051375 -0.0088067 0.077087 0.028902 0.17886 -0.075092 -0.031904 0.19016 0.36552 0.1764 0.04667 0.0060102 -0.017545 -0.24908 -0.1725 -0.020775 -0.26848 -0.0083979 -0.025014 0.32798 -0.16943 -0.08997 -0.0102 -0.16633 0.012596 0.039731 0.07408 0.29338 -0.10836 0.11751 0.20507 0.17804 -0.17564 0.20203 0.091847 -0.083858 -0.0034842 -0.10651 0.020644 0.013038 -0.023676 0.19822 -0.16585 0.04149 0.22435 0.10319 0.073895 0.043708 0.054613 0.1656 0.005169 -0.14372 0.07933 0.082635 0.032804 -0.17637 -0.10558 -0.0050961 0.21972 -0.10581 0.42522 0.14843 -0.17799 -0.29863 -0.047861 -0.010466 -0.17076 -0.031361 
be 0.13991 0.062368 -0.015438 -0.14911 -0.053244 -0.088972 -0.036536 -0.087307 0.011301 0.05595 0.045263 0.070462 0.023983 0.28973 -0.14098 -0.10363 -0.071074 0.11948 -0.014428 -0.053738 -0.029201 0.15569 0.17918 -0.093255 -0.30516 -0.0082996 0.082359 0.002158 0.038308 0.067039 -0.20537 0.10484 0.050835 -0.0038883 0.075087 0.032767 0.20022 -0.094553 -0.02956 0.20357 0.35847 0.18165 0.063409 -0.0043051 -0.0022931 -0.25664 -0.1902 -0.0196 -0.26002 -0.0039037 0.00012268 0.33869 -0.16141 -0.11097 -0.0094386 -0.17877 0.028298 0.031366 0.049067 0.30091 -0.12178 0.14048 0.2208 0.17281 -0.20653 0.21289 0.078511 -0.079968 -0.019452 -0.11832 0.040821 0.0092751 -0.018635 0.22404 -0.15477 0.031501 0.2409 0.1114 0.075957 0.059875 0.058213 0.17794 -0.011266 -0.13219 0.10332 0.075733 0.060836 -0.16838 -0.10634 0.0038522 0.21911 -0.12644 0.42767 0.16519 -0.16459 -0.29995 -0.045101 0.0010188 -0.17562 -0.0308 
EPFL 0.12014 0.054844 -0.014655 -0.12798 -0.056413 -0.081441 -0.028581 -0.086604 0.008489 0.05177 0.046756 0.059529 0.030735 0.27674 -0.12916 -0.098141 -0.077746 0.10441 -0.011637 -0.062015 -0.020704 0.14582 0.18547 -0.086025 -0.28394 -0.010131 0.085583 0.0065648 0.036679 0.072155 -0.20059 0.10925 0.050111 -0.0053233 0.07808 0.034113 0.18553 -0.082076 -0.026214 0.19536 0.34684 0.17302 0.058331 0.0062613 -0.010778 -0.24509 -0.17466 -0.028625 -0.25437 -0.0083729 -0.013713 0.32307 -0.15979 -0.096685 -0.0067039 -0.16385 0.021412 0.036819 0.061895 0.2852 -0.11646 0.12765 0.20448 0.16617 -0.18283 0.20426 0.077269 -0.079991 -0.01216 -0.1102 0.033031 0.01263 -0.022562 0.20516 -0.15342 0.035918 0.22915 0.10535 0.067582 0.054414 0.05614 0.16987 -0.0043999 -0.13499 0.083918 0.076818 0.045791 -0.16563 -0.098475 -0.00060589 0.21442 -0.11379 0.41958 0.15413 -0.16714 -0.28895 -0.046579 -0.0072942 -0.1721 -0.037043 
@epfl 0.13567 0.062033 -0.017486 -0.14446 -0.066802 -0.090237 -0.033622 -0.099303 0.014429 0.055148 0.050091 0.067683 0.031894 0.29877 -0.14248 -0.10877 -0.078677 0.11408 -0.020422 -0.070496 -0.023968 0.16259 0.19626 -0.098461 -0.31102 -0.0085845 0.10245 0.0084403 0.036577 0.077966 -0.2151 0.11523 0.054442 -0.011304 0.083002 0.033277 0.2063 -0.08664 -0.030815 0.20846 0.37988 0.18558 0.062135 0.0050588 -0.01052 -0.26714 -0.18735 -0.021998 -0.2742 -0.0080167 -0.013493 0.34794 -0.17762 -0.10629 -0.010945 -0.18215 0.022499 0.037322 0.058608 0.3115 -0.12226 0.13738 0.22607 0.18484 -0.20977 0.22019 0.085682 -0.086256 -0.015222 -0.11809 0.035209 0.0072663 -0.021246 0.22204 -0.16418 0.03937 0.24563 0.11496 0.077569 0.055004 0.059375 0.18692 -0.0052601 -0.14684 0.099135 0.081615 0.049207 -0.17882 -0.10895 0.0017692 0.23359 -0.12319 0.45061 0.16696 -0.17589 -0.31635 -0.045362 -0.006657 -0.1851 -0.033999 
about 0.13341 0.06178 -0.013175 -0.14664 -0.060882 -0.087179 -0.030787 -0.08967 0.0086497 0.051477 0.046708 0.06679 0.02635 0.28979 -0.13217 -0.10701 -0.072195 0.11695 -0.018317 -0.063855 -0.025878 0.15177 0.18548 -0.090057 -0.30623 -0.012884 0.089441 0.0043706 0.038628 0.069262 -0.2085 0.10519 0.05112 -0.0027131 0.080608 0.033867 0.20186 -0.08892 -0.022821 0.20541 0.36093 0.1777 0.063167 0.0012676 -0.0085277 -0.25774 -0.1846 -0.018577 -0.26226 -0.0082608 -0.0041467 0.3373 -0.16912 -0.10247 -0.0099201 -0.17779 0.029759 0.03334 0.055416 0.29779 -0.12145 0.14206 0.21649 0.17559 -0.20563 0.21356 0.080987 -0.079001 -0.017753 -0.11929 0.039936 0.0047897 -0.023951 0.21839 -0.15513 0.038513 0.2413 0.1122 0.069253 0.06053 0.062702 0.18033 -0.0095136 -0.13974 0.097692 0.073336 0.053064 -0.16659 -0.10368 0.0025708 0.21997 -0.11777 0.43417 0.16647 -0.16607 -0.30015 -0.046626 -0.0023377 -0.17952 -0.037932 
new 0.13057 0.06521 -0.016842 -0.14194 -0.062554 -0.092292 -0.03447 -0.098161 0.010742 0.059479 0.051785 0.06686 0.032978 0.29585 -0.13839 -0.11034 -0.077634 0.11656 -0.021494 -0.063233 -0.02464 0.15427 0.19287 -0.093204 -0.31204 -0.0093198 0.09328 0.00036753 0.040654 0.069445 -0.20615 0.10756 0.05132 -0.0059554 0.087235 0.032469 0.20364 -0.087652 -0.025345 0.20834 0.37165 0.18489 0.058782 -0.0014167 -0.0071482 -0.26162 -0.18863 -0.017068 -0.27055 -0.0058035 -0.0081106 0.34593 -0.17161 -0.10278 -0.010885 -0.17565 0.025806 0.029245 0.061588 0.30404 -0.12039 0.14023 0.21894 0.18321 -0.20741 0.21682 0.086331 -0.084944 -0.01938 -0.12109 0.037345 0.011622 -0.023837 0.2222 -0.16285 0.041174 0.24782 0.11386 0.072626 0.05883 0.06531 0.18832 -0.011263 -0.14026 0.10006 0.0776 0.056759 -0.17276 -0.10523 0.0033452 0.22678 -0.11733 0.44115 0.1747 -0.16983 -0.3056 -0.046973 -0.0056902 -0.18114 -0.037307 
A 0.11645 0.054694 -0.018678 -0.12662 -0.059938 -0.083159 -0.024299 -0.083545 0.018487 0.049542 0.046577 0.057141 0.020908 0.2689 -0.12024 -0.10145 -0.066147 0.1061 -0.021449 -0.06889 -0.020106 0.14647 0.17133 -0.086689 -0.28166 -0.011067 0.08067 -0.0025828 0.029337 0.067374 -0.18301 0.10398 0.04293 -0.012097 0.069042 0.032465 0.17686 -0.088513 -0.025278 0.18434 0.33583 0.16339 0.052642 -0.0017635 0.00031024 -0.23648 -0.16653 -0.021103 -0.24448 -0.01826 -0.016158 0.31649 -0.15979 -0.097986 -0.0057808 -0.16842 0.015714 0.026966 0.054305 0.27906 -0.10638 0.12639 0.20012 0.1659 -0.18461 0.19697 0.081339 -0.080945 -0.018711 -0.10651 0.02556 0.014414 -0.022744 0.19466 -0.15811 0.043091 0.22017 0.10614 0.067373 0.051293 0.054326 0.16399 0.00098953 -0.12421 0.090714 0.065346 0.045812 -0.15962 -0.10032 0.00035959 0.20269 -0.10416 0.39977 0.15453 -0.15104 -0.27877 -0.046714 -0.0061279 -0.17128 -0.032394 
can 0.13343 0.062596 -0.011705 -0.14716 -0.059842 -0.095189 -0.035305 -0.09409 0.010808 0.056049 0.0441 0.065781 0.025903 0.29336 -0.1358 -0.10134 -0.071607 0.11318 -0.015575 -0.057884 -0.023475 0.15502 0.18657 -0.089988 -0.30868 -0.011106 0.091913 0.0059899 0.037158 0.073123 -0.20693 0.10429 0.045254 -0.0096932 0.08059 0.032327 0.20051 -0.091949 -0.02833 0.19876 0.35917 0.17914 0.061513 -0.0029723 -0.0062633 -0.25949 -0.18373 -0.018026 -0.26273 -0.0069341 -0.0069388 0.34343 -0.17028 -0.10453 -0.0059034 -0.17688 0.032861 0.026252 0.056458 0.29824 -0.11855 0.14119 0.21479 0.1718 -0.20322 0.21504 0.080281 -0.084704 -0.020252 -0.11575 0.037493 0.0052166 -0.023536 0.21405 -0.15712 0.039661 0.24026 0.11318 0.073726 0.059216 0.063815 0.18462 -0.010227 -0.13994 0.10009 0.069505 0.05778 -0.16945 -0.10849 0.002727 0.22347 -0.11423 0.4305 0.1698 -0.16462 -0.29782 -0.043101 -0.005502 -0.17815 -0.033289 
Swiss 0.1311 0.063002 -0.014274 -0.14601 -0.063038 -0.091764 -0.031609 -0.095629 0.0081658 0.056728 0.050346 0.065861 0.030188 0.29686 -0.13545 -0.10801 -0.075822 0.11281 -0.019219 -0.065612 -0.024785 0.15156 0.18787 -0.093454 -0.30644 -0.0089768 0.093847 0.0048241 0.037794 0.072185 -0.20597 0.10707 0.048858 -0.0085984 0.083849 0.034341 0.20133 -0.09168 -0.02475 0.20689 0.3655 0.18068 0.064248 -0.0024014 -0.0075175 -0.25619 -0.18164 -0.019748 -0.26643 -0.011661 -0.0077854 0.34312 -0.16732 -0.10557 -0.011907 -0.17497 0.027545 0.030844 0.058371 0.30112 -0.12106 0.13826 0.21488 0.17278 -0.20083 0.21498 0.083244 -0.083646 -0.017328 -0.1203 0.03743 0.0086527 -0.0206 0.21768 -0.16043 0.045012 0.24168 0.10956 0.07068 0.059348 0.060819 0.18322 -0.0057234 -0.14154 0.099904 0.075668 0.051682 -0.17256 -0.10264 0.0040474 0.22681 -0.1209 0.44185 0.16629 -0.16706 -0.30179 -0.048779 -0.0054025 -0.18242 -0.034708 
have 0.13598 0.06491 -0.011976 -0.15024 -0.059627 -0.092527 -0.030061 -0.095407 0.012346 0.05536 0.044768 0.068894 0.031333 0.30065 -0.13724 -0.10794 -0.071961 0.12135 -0.021074 -0.064554 -0.024709 0.15749 0.18825 -0.096001 -0.3171 -0.010005 0.092634 0.0030027 0.032771 0.075529 -0.2133 0.10867 0.049924 -0.0092723 0.084397 0.036963 0.20843 -0.090376 -0.025226 0.2105 0.36698 0.18648 0.064646 -0.00098695 -0.0092699 -0.26465 -0.18707 -0.020135 -0.26756 -0.0067536 -0.006037 0.35096 -0.17626 -0.10546 -0.010464 -0.17971 0.027535 0.029424 0.061376 0.30621 -0.12645 0.14608 0.22149 0.17757 -0.21438 0.22015 0.085 -0.084773 -0.018575 -0.12086 0.040556 0.0057388 -0.020129 0.22382 -0.16355 0.042136 0.24431 0.11641 0.079201 0.066139 0.066095 0.1868 -0.0090274 -0.14038 0.1055 0.076141 0.058572 -0.17171 -0.10673 0.0020214 0.23013 -0.12336 0.44953 0.17196 -0.16809 -0.30877 -0.047484 -0.0041868 -0.18651 -0.039143 
I 0.13276 0.052705 -0.01253 -0.13979 -0.0596 -0.090331 -0.035809 -0.086245 0.0084214 0.050712 0.042 0.070735 0.019429 0.28991 -0.13766 -0.10742 -0.067208 0.11731 -0.02354 -0.065262 -0.027384 0.14116 0.18115 -0.084413 -0.29972 -0.014498 0.086897 0.013942 0.042686 0.06283 -0.20077 0.10013 0.052792 -0.0044711 0.082835 0.035539 0.20039 -0.091147 -0.018982 0.19743 0.36069 0.18027 0.063599 -0.0073242 -0.0061973 -0.25136 -0.1792 -0.018794 -0.24766 -0.014085 -0.005426 0.33226 -0.16635 -0.10948 -0.0088029 -0.16892 0.036579 0.025057 0.057977 0.29056 -0.11682 0.14127 0.21195 0.1822 -0.20489 0.21534 0.078282 -0.08543 -0.019972 -0.11024 0.042365 0.0063629 -0.025658 0.21348 -0.15811 0.038032 0.22628 0.10382 0.061922 0.055276 0.07247 0.1831 -0.001564 -0.12986 0.091211 0.070798 0.054066 -0.16974 -0.091721 0.013871 0.21116 -0.11798 0.4349 0.1759 -0.15368 -0.30003 -0.046587 -0.0041252 -0.17601 -0.03162 
au 0.11539 0.052499 -0.02252 -0.10693 -0.063071 -0.065016 -0.037823 -0.09378 0.024794 0.050849 0.063145 0.054741 0.036689 0.26503 -0.12708 -0.096338 -0.075184 0.092539 -0.018966 -0.075933 -0.016494 0.15418 0.18665 -0.087876 -0.27309 -0.0037826 0.092417 0.00088348 0.030498 0.08122 -0.20525 0.11817 0.054871 -0.0087739 0.068272 0.026982 0.17154 -0.075033 -0.024367 0.17971 0.35253 0.16624 0.04742 0.01213 -0.019621 -0.24014 -0.16905 -0.024164 -0.25716 -0.0055176 -0.021878 0.30842 -0.16507 -0.082875 -0.011675 -0.15682 0.004442 0.039226 0.071628 0.28365 -0.10183 0.10326 0.18805 0.17167 -0.16083 0.19917 0.089013 -0.080936 -0.0063079 -0.1011 0.016566 0.020795 -0.021325 0.19068 -0.15636 0.047421 0.21972 0.099358 0.071301 0.029974 0.056403 0.15929 0.0068698 -0.14304 0.069544 0.079911 0.018961 -0.17211 -0.098966 -0.0018357 0.21407 -0.10723 0.41043 0.12882 -0.16861 -0.28329 -0.04266 -0.010673 -0.15938 -0.03443 
: 0.11696 0.061935 -0.017231 -0.13084 -0.062697 -0.079832 -0.030793 -0.085442 0.015202 0.049048 0.055213 0.062892 0.024325 0.27216 -0.12586 -0.10053 -0.080917 0.098246 -0.024119 -0.067999 -0.025489 0.14192 0.18812 -0.085291 -0.28629 -0.011672 0.094516 0.008718 0.036186 0.076931 -0.20922 0.11041 0.048113 -0.0020215 0.071706 0.029778 0.18683 -0.0764 -0.026187 0.19244 0.35898 0.1832 0.054666 0.0043347 -0.0068394 -0.25391 -0.17411 -0.016817 -0.25104 -0.0040258 -0.01121 0.32802 -0.16591 -0.098285 -0.0057519 -0.16489 0.010282 0.032196 0.062052 0.28521 -0.11376 0.11645 0.20736 0.16351 -0.18475 0.20657 0.078074 -0.077376 -0.013057 -0.11793 0.027043 0.011188 -0.018881 0.20684 -0.16634 0.049128 0.2334 0.10293 0.073699 0.050603 0.054959 0.16566 0.0031117 -0.13101 0.090268 0.075237 0.044884 -0.16931 -0.097928 0.0014812 0.21307 -0.11396 0.42363 0.16031 -0.16657 -0.28699 -0.046 0.0041002 -0.17952 -0.029305 
un 0.11725 0.052493 -0.022491 -0.11756 -0.057295 -0.070159 -0.027623 -0.084606 0.018763 0.048007 0.05527 0.051439 0.034262 0.26141 -0.12542 -0.090909 -0.071732 0.095347 -0.014891 -0.070185 -0.017637 0.14954 0.18005 -0.08569 -0.26892 -0.0050557 0.091965 0.0099739 0.028139 0.07505 -0.19942 0.1066 0.049273 -0.0054686 0.066837 0.02445 0.17696 -0.067012 -0.032572 0.18655 0.34052 0.16045 0.044381 0.0098414 -0.0072835 -0.23316 -0.16498 -0.021109 -0.24984 -0.0046179 -0.01741 0.30295 -0.15668 -0.083826 -0.0023898 -0.16028 0.011612 0.036125 0.057691 0.27833 -0.10292 0.11228 0.19361 0.16183 -0.16777 0.20013 0.084441 -0.07851 -0.0052159 -0.10287 0.025465 0.011682 -0.020026 0.18405 -0.15006 0.037045 0.21331 0.099947 0.073116 0.037401 0.050378 0.15513 0.001993 -0.13436 0.074631 0.074884 0.035156 -0.16492 -0.10294 -0.0015821 0.20711 -0.10839 0.40514 0.13778 -0.1619 -0.27948 -0.045777 -0.0061008 -0.16142 -0.031161 
New 0.12544 0.059913 -0.012515 -0.14118 -0.062837 -0.089605 -0.029485 -0.090129 0.009251 0.051546 0.047365 0.068276 0.027293 0.27936 -0.12976 -0.098888 -0.068407 0.10811 -0.024165 -0.060752 -0.021975 0.14457 0.17343 -0.090096 -0.29455 -0.012824 0.086832 -0.0021974 0.037191 0.072691 -0.19401 0.1013 0.043787 -0.0090612 0.078078 0.029784 0.1932 -0.089431 -0.01894 0.19808 0.34692 0.17294 0.059139 -0.0035661 -0.0047342 -0.24369 -0.17329 -0.01674 -0.25263 -0.011516 -0.0070504 0.32803 -0.1588 -0.10556 -0.0083486 -0.16783 0.024924 0.027785 0.05628 0.28548 -0.11194 0.13023 0.20804 0.16432 -0.19264 0.20256 0.073213 -0.076415 -0.019562 -0.11089 0.033534 0.0084951 -0.019622 0.2031 -0.15322 0.040326 0.2333 0.10885 0.06608 0.05421 0.060663 0.17148 -0.0091832 -0.13593 0.092885 0.072712 0.051847 -0.16077 -0.096507 0.0032855 0.21437 -0.11502 0.41165 0.16173 -0.16074 -0.28714 -0.050196 -0.0078676 -0.17294 -0.036592 
| 0.11528 0.058147 -0.017316 -0.12427 -0.061091 -0.078929 -0.037205 -0.092871 0.016283 0.052017 0.052333 0.067178 0.035199 0.26548 -0.12755 -0.10425 -0.066336 0.10178 -0.017463 -0.067467 -0.020512 0.13678 0.17296 -0.088103 -0.2748 -0.014094 0.094286 0.0071079 0.03857 0.070912 -0.19356 0.10856 0.04736 -0.0097948 0.079009 0.029746 0.18739 -0.078844 -0.017843 0.18708 0.33511 0.16724 0.060468 -0.00078314 -0.0076129 -0.23542 -0.17059 -0.015883 -0.24247 -0.0034172 -0.008092 0.31475 -0.152 -0.094758 -0.0040839 -0.15494 0.021065 0.029504 0.063354 0.28184 -0.11255 0.12154 0.19909 0.16052 -0.17659 0.19173 0.082355 -0.078458 -0.011737 -0.1078 0.03635 0.0018889 -0.028743 0.19904 -0.15703 0.036956 0.21935 0.095258 0.063033 0.055369 0.056288 0.16506 -0.0037309 -0.12819 0.082859 0.069519 0.046878 -0.15285 -0.10354 -0.00010675 0.20936 -0.11439 0.40144 0.15037 -0.15554 -0.27708 -0.048043 -0.0089294 -0.15985 -0.03055 
more 0.13584 0.064692 -0.013958 -0.14692 -0.061749 -0.093325 -0.034748 -0.099667 0.0090568 0.05433 0.046248 0.07119 0.027211 0.30198 -0.14093 -0.1091 -0.07671 0.12067 -0.021246 -0.064766 -0.028111 0.16032 0.19192 -0.095231 -0.31905 -0.010124 0.092349 0.0053729 0.038384 0.077454 -0.2123 0.10944 0.054033 -0.005653 0.086609 0.036697 0.20667 -0.091361 -0.025079 0.21208 0.37624 0.18849 0.064053 -0.00078325 -0.0061905 -0.26577 -0.18794 -0.019766 -0.27402 -0.0061087 -0.0055373 0.35086 -0.17347 -0.10874 -0.0089796 -0.1806 0.029502 0.033992 0.06231 0.31059 -0.12787 0.13977 0.22395 0.18231 -0.21232 0.22187 0.085423 -0.086255 -0.019437 -0.12143 0.036804 0.011332 -0.022971 0.22885 -0.16406 0.043493 0.24714 0.11555 0.077484 0.059186 0.063379 0.18767 -0.0045811 -0.1433 0.099133 0.081338 0.054927 -0.17449 -0.1084 -0.0032468 0.23644 -0.12573 0.4554 0.17624 -0.17243 -0.31087 -0.048117 -0.0061115 -0.18814 -0.037497 
it 0.13901 0.062703 -0.0096386 -0.15055 -0.064437 -0.095452 -0.035195 -0.098352 0.0062907 0.053915 0.050505 0.072593 0.029301 0.30484 -0.13654 -0.11235 -0.077399 0.11685 -0.01578 -0.062413 -0.027761 0.14682 0.19071 -0.090905 -0.31429 -0.016286 0.094073 0.004398 0.042457 0.077936 -0.20941 0.1097 0.052748 -0.0066072 0.086772 0.034555 0.20685 -0.092698 -0.027926 0.21058 0.36945 0.18682 0.065352 1.3496e-05 -0.010715 -0.25927 -0.19137 -0.020402 -0.26851 -0.0064077 -0.0051062 0.34398 -0.16792 -0.10881 -0.01025 -0.1751 0.038058 0.033078 0.059941 0.3085 -0.12343 0.14722 0.22029 0.17595 -0.20798 0.21564 0.07973 -0.084724 -0.02334 -0.11927 0.043575 0.0078289 -0.022828 0.22476 -0.16749 0.043749 0.24596 0.11043 0.069533 0.061892 0.062737 0.18346 -0.0081619 -0.14375 0.099699 0.075411 0.054433 -0.1731 -0.099316 0.0071698 0.22582 -0.11641 0.45243 0.17201 -0.16666 -0.30818 -0.049611 0.00062092 -0.18191 -0.037626 
will 0.12846 0.059077 -0.011526 -0.13659 -0.057977 -0.088354 -0.031613 -0.092037 0.0082159 0.05716 0.042249 0.064914 0.026804 0.27995 -0.12872 -0.10011 -0.07193 0.11051 -0.017266 -0.057535 -0.022512 0.14298 0.17953 -0.088192 -0.29135 -0.012142 0.089745 0.0043922 0.039528 0.065292 -0.19578 0.10236 0.048632 -0.0049325 0.077934 0.033166 0.18765 -0.081152 -0.026492 0.19807 0.34623 0.1726 0.063334 -0.0013013 -0.001792 -0.24874 -0.17355 -0.016033 -0.25135 -0.0080559 -0.0059993 0.32732 -0.15704 -0.10026 -0.009122 -0.16794 0.027636 0.028362 0.055419 0.28377 -0.11682 0.13491 0.20737 0.16915 -0.19468 0.20321 0.079328 -0.078046 -0.017715 -0.11358 0.039013 0.0073022 -0.020211 0.2067 -0.15127 0.038221 0.23016 0.10406 0.065689 0.059542 0.056039 0.17547 -0.0068994 -0.13393 0.09263 0.070563 0.052453 -0.16396 -0.098399 0.0014172 0.21161 -0.11717 0.41902 0.16086 -0.16178 -0.29047 -0.044161 -0.0075952 -0.17615 -0.029537 
#Switzerland 0.13511 0.068216 -0.016725 -0.15659 -0.073735 -0.10696 -0.029757 -0.1105 0.016821 0.056146 0.062982 0.069633 0.03571 0.33447 -0.13828 -0.11921 -0.086487 0.12463 -0.02163 -0.071463 -0.026001 0.17525 0.21238 -0.10509 -0.34777 -0.014191 0.10347 0.0064333 0.039729 0.079699 -0.23427 0.11886 0.050919 -0.019442 0.091446 0.039614 0.22042 -0.11283 -0.025675 0.22964 0.41657 0.20673 0.06893 0.00088436 -0.0094119 -0.28765 -0.1986 -0.017294 -0.3092 -0.011798 -0.005857 0.40176 -0.18949 -0.11615 -0.0094004 -0.20352 0.027795 0.031869 0.068337 0.34341 -0.1376 0.15668 0.236 0.19823 -0.21792 0.24598 0.091707 -0.09668 -0.018909 -0.13362 0.037483 0.0087443 -0.02802 0.23858 -0.18963 0.056157 0.27113 0.12841 0.083734 0.069783 0.078674 0.21231 0.00063045 -0.15678 0.1087 0.079667 0.058438 -0.19551 -0.12345 0.0036092 0.25468 -0.12993 0.50263 0.18739 -0.19462 -0.33957 -0.052582 -0.0047145 -0.21915 -0.04118 
has 0.13503 0.06425 -0.011529 -0.14614 -0.063433 -0.095426 -0.03641 -0.094825 0.009079 0.053901 0.047772 0.067184 0.028938 0.29284 -0.13536 -0.11042 -0.073929 0.12027 -0.019096 -0.068376 -0.027791 0.15153 0.18468 -0.093471 -0.31444 -0.0090066 0.090996 0.0044158 0.038937 0.074261 -0.20937 0.10499 0.051397 -0.0037017 0.083788 0.035404 0.20383 -0.090993 -0.024549 0.20603 0.36589 0.182 0.065298 -0.00048969 -0.0071855 -0.25866 -0.18956 -0.020913 -0.25801 -0.0075638 -0.0031702 0.34178 -0.17254 -0.10251 -0.010672 -0.17844 0.029589 0.034754 0.057831 0.29886 -0.12421 0.14495 0.21636 0.17722 -0.20612 0.2154 0.083691 -0.083237 -0.019762 -0.11767 0.038082 0.0062936 -0.016708 0.21865 -0.15615 0.047538 0.23935 0.11158 0.074403 0.059194 0.064119 0.18163 -0.0093526 -0.14595 0.10352 0.076257 0.053603 -0.16757 -0.10659 0.0055484 0.22065 -0.11853 0.43814 0.17205 -0.1677 -0.30366 -0.049081 -0.0089721 -0.18194 -0.037231 
une 0.11672 0.053335 -0.020791 -0.11817 -0.062043 -0.07188 -0.027418 -0.090727 0.020594 0.049087 0.051655 0.055314 0.028572 0.26749 -0.12736 -0.096897 -0.077148 0.097708 -0.018437 -0.07421 -0.02053 0.15203 0.18819 -0.086329 -0.28175 -0.0092518 0.098053 0.0036158 0.027205 0.078417 -0.20245 0.11613 0.054031 -0.0052079 0.068015 0.024821 0.17897 -0.073218 -0.026808 0.18597 0.34909 0.17054 0.050434 0.0046561 -0.015088 -0.24149 -0.16605 -0.022596 -0.25128 -0.010297 -0.021173 0.31508 -0.16012 -0.088766 -0.0017651 -0.15962 0.011534 0.034562 0.06391 0.28531 -0.10363 0.11274 0.19726 0.17162 -0.1768 0.20167 0.086312 -0.081573 -0.0057447 -0.10846 0.022844 0.015477 -0.023228 0.19292 -0.15664 0.040045 0.22107 0.099292 0.069965 0.043969 0.050953 0.15918 0.0016668 -0.13734 0.078177 0.080253 0.030679 -0.1718 -0.099865 -0.0012053 0.21263 -0.10919 0.41051 0.13981 -0.17016 -0.28483 -0.042932 -0.009802 -0.16276 -0.030249 
first 0.1341 0.062023 -0.015697 -0.14824 -0.062322 -0.092694 -0.032251 -0.097516 0.012758 0.054334 0.045985 0.067733 0.029229 0.29167 -0.13477 -0.11059 -0.074267 0.11812 -0.021023 -0.06184 -0.027083 0.15179 0.1865 -0.09234 -0.30936 -0.0098265 0.090072 0.0035173 0.037102 0.070114 -0.20776 0.10328 0.05113 -0.008419 0.081645 0.034913 0.20271 -0.092853 -0.02197 0.20435 0.36503 0.1824 0.067633 0.0040812 -0.0069372 -0.26081 -0.18439 -0.020056 -0.26153 -0.011622 -0.0044776 0.34274 -0.16647 -0.1057 -0.0070349 -0.17613 0.02685 0.031738 0.052355 0.29965 -0.12598 0.1397 0.21942 0.17564 -0.20738 0.21426 0.08176 -0.080344 -0.020028 -0.1186 0.037233 0.0069555 -0.021915 0.21839 -0.15845 0.044772 0.23965 0.11043 0.073469 0.064328 0.066075 0.18519 -0.0087011 -0.14047 0.10305 0.075411 0.057342 -0.16396 -0.10346 0.0054204 0.22039 -0.11913 0.43781 0.17055 -0.16552 -0.30478 -0.048209 -0.0041219 -0.18147 -0.033635 
2018 0.13138 0.063802 -0.018689 -0.14225 -0.06044 -0.087141 -0.03106 -0.10159 0.011503 0.057621 0.052016 0.068572 0.030064 0.29888 -0.1381 -0.10922 -0.080737 0.11878 -0.018941 -0.066517 -0.025226 0.15858 0.19367 -0.090393 -0.31182 -0.0077678 0.095167 0.0040319 0.033749 0.078207 -0.2163 0.11583 0.055383 -0.007197 0.083968 0.036085 0.19801 -0.085484 -0.023329 0.212 0.37177 0.18845 0.066195 0.0016399 -0.0084346 -0.26145 -0.19125 -0.018391 -0.27111 -0.010298 -0.0095545 0.35132 -0.16955 -0.10329 -0.0085814 -0.1792 0.025369 0.035155 0.06089 0.31113 -0.12419 0.14199 0.21918 0.17947 -0.19861 0.22014 0.085598 -0.085947 -0.013154 -0.12462 0.033423 0.011308 -0.021937 0.22433 -0.1632 0.043508 0.2399 0.11127 0.070179 0.060689 0.0635 0.1837 -0.0068223 -0.14676 0.096018 0.080252 0.049681 -0.17906 -0.11139 0.00091022 0.22698 -0.12441 0.44643 0.16777 -0.17698 -0.30605 -0.0462 -0.0055989 -0.18409 -0.034592 
@MartinVetterli 0.12213 0.058865 -0.017858 -0.13256 -0.061528 -0.081833 -0.030078 -0.093193 0.01141 0.052237 0.049836 0.062109 0.02946 0.27621 -0.12891 -0.10366 -0.073771 0.10768 -0.021189 -0.063982 -0.02231 0.14978 0.18315 -0.08934 -0.29272 -0.0090641 0.089564 0.0022199 0.035826 0.072933 -0.20222 0.10791 0.05054 -0.0097005 0.077849 0.027709 0.18758 -0.084862 -0.026272 0.19448 0.35434 0.17369 0.058263 0.0021796 -0.0091266 -0.24681 -0.17447 -0.018202 -0.25702 -0.010148 -0.012466 0.32688 -0.16378 -0.095219 -0.0066716 -0.16756 0.019635 0.032287 0.058733 0.29054 -0.11456 0.12575 0.20533 0.16892 -0.18803 0.20621 0.079902 -0.08146 -0.012549 -0.10931 0.029025 0.010634 -0.020342 0.20383 -0.15526 0.04098 0.23083 0.10549 0.071262 0.049495 0.058592 0.17083 -0.0033408 -0.13622 0.089374 0.076759 0.044531 -0.16616 -0.10173 0.00043363 0.2163 -0.11489 0.41916 0.15461 -0.16519 -0.28987 -0.044993 -0.00528 -0.17309 -0.032291 
all 0.1349 0.060328 -0.013291 -0.15202 -0.067098 -0.096368 -0.028276 -0.1002 0.010787 0.056317 0.045383 0.068436 0.026797 0.30424 -0.13763 -0.10987 -0.075502 0.1225 -0.020666 -0.062821 -0.026379 0.15385 0.19338 -0.094212 -0.31726 -0.013973 0.098163 0.0057718 0.040393 0.075036 -0.20747 0.10832 0.056744 -0.013484 0.08368 0.033746 0.20728 -0.093611 -0.025515 0.21047 0.37468 0.18661 0.069826 -0.0011433 -0.0087077 -0.26951 -0.18689 -0.017956 -0.27477 -0.0077162 -0.0054244 0.35558 -0.17607 -0.10817 -0.012217 -0.18469 0.028002 0.030662 0.059333 0.30767 -0.12363 0.14662 0.22168 0.17884 -0.21152 0.22188 0.089167 -0.085918 -0.01823 -0.12172 0.044455 0.010678 -0.020653 0.22502 -0.16616 0.044141 0.24978 0.11427 0.073094 0.066361 0.068919 0.18809 -0.010425 -0.14585 0.1028 0.072281 0.059789 -0.17493 -0.10888 0.0063133 0.22779 -0.12439 0.44778 0.17851 -0.17473 -0.31111 -0.046546 -0.0040398 -0.1892 -0.035951 
students 0.13274 0.061613 -0.015982 -0.14561 -0.063654 -0.090772 -0.028575 -0.095307 0.013137 0.054544 0.047439 0.070486 0.0284 0.29513 -0.13802 -0.10832 -0.073991 0.11887 -0.020806 -0.063383 -0.026386 0.15701 0.18955 -0.092793 -0.31359 -0.011656 0.093299 0.0039927 0.039251 0.072604 -0.20704 0.10737 0.053911 -0.0096566 0.078123 0.032504 0.20309 -0.08831 -0.026347 0.20873 0.36925 0.18486 0.059942 0.00068447 -0.0037418 -0.26284 -0.18615 -0.02019 -0.26927 -0.0098463 -0.0060742 0.34632 -0.17101 -0.10682 -0.0089946 -0.17591 0.028177 0.031607 0.057187 0.30242 -0.12452 0.14054 0.21917 0.18017 -0.20695 0.21796 0.082739 -0.080892 -0.018167 -0.11789 0.039091 0.0066717 -0.021284 0.21971 -0.1606 0.041046 0.24284 0.11429 0.071954 0.061072 0.059486 0.18104 -0.0064949 -0.14203 0.10417 0.076362 0.055874 -0.17123 -0.10636 0.0036972 0.22656 -0.1223 0.44505 0.16612 -0.16759 -0.30682 -0.048523 -0.0037724 -0.18398 -0.035916 
par 0.11001 0.055709 -0.020792 -0.12024 -0.063568 -0.076271 -0.028853 -0.088745 0.018944 0.046232 0.051827 0.058293 0.027504 0.268 -0.12081 -0.09067 -0.078997 0.10124 -0.019927 -0.066768 -0.020184 0.14792 0.17726 -0.086024 -0.27691 -0.0070188 0.090258 0.00425 0.030993 0.067491 -0.196 0.10494 0.051317 -0.011632 0.073525 0.023243 0.17197 -0.076896 -0.024186 0.18672 0.34333 0.16955 0.049253 0.0068439 -0.013826 -0.23746 -0.16563 -0.015667 -0.24484 -0.0065162 -0.0163 0.31404 -0.16522 -0.087146 -0.0066315 -0.15805 0.016021 0.031565 0.06455 0.27814 -0.10558 0.1167 0.19679 0.16253 -0.17184 0.19704 0.081367 -0.08061 -0.010907 -0.10524 0.024308 0.013569 -0.021241 0.19126 -0.15312 0.045009 0.21673 0.099795 0.072351 0.048339 0.056743 0.16334 0.0046718 -0.13414 0.078339 0.072872 0.039863 -0.15974 -0.10067 0.0010137 0.20949 -0.10597 0.40596 0.14495 -0.16339 -0.2774 -0.043821 -0.0022967 -0.15972 -0.031739 
Les 0.1097 0.051381 -0.022338 -0.10901 -0.061466 -0.066614 -0.033858 -0.087283 0.02196 0.046998 0.0555 0.051362 0.028484 0.26274 -0.11994 -0.086992 -0.070456 0.094768 -0.020737 -0.068945 -0.015951 0.14456 0.17942 -0.087543 -0.26368 -0.01099 0.090079 0.0032247 0.025737 0.071408 -0.19756 0.10894 0.044658 -0.0068495 0.071411 0.026636 0.17268 -0.068034 -0.026705 0.18037 0.3391 0.16089 0.047914 0.0046433 -0.012948 -0.2306 -0.15895 -0.019257 -0.24637 -0.011941 -0.027206 0.30144 -0.15805 -0.081906 -0.0083808 -0.1544 0.010946 0.042142 0.062626 0.27457 -0.10033 0.1035 0.19151 0.16512 -0.16438 0.19322 0.087215 -0.081457 -0.0036103 -0.10068 0.024882 0.019329 -0.017718 0.18418 -0.15583 0.041451 0.21466 0.10267 0.068316 0.03169 0.052073 0.14932 0.0010358 -0.12572 0.072888 0.071516 0.029515 -0.16394 -0.097157 -0.0017315 0.20701 -0.099045 0.39634 0.13244 -0.1643 -0.2684 -0.042529 -0.009356 -0.16243 -0.032176 
now 0.13925 0.059256 -0.0080109 -0.15502 -0.05902 -0.094668 -0.031379 -0.097487 0.0054925 0.052463 0.045695 0.072107 0.030306 0.29864 -0.13885 -0.11166 -0.074327 0.1195 -0.01861 -0.058539 -0.029332 0.15839 0.18431 -0.097602 -0.31302 -0.015478 0.091054 0.003418 0.04518 0.069446 -0.20595 0.10182 0.051808 -0.0070726 0.085102 0.037385 0.20194 -0.0888 -0.023964 0.21414 0.36904 0.1856 0.066707 -0.0017273 -0.0072489 -0.26397 -0.19037 -0.019407 -0.26847 -0.010041 -0.0040594 0.34691 -0.16932 -0.10779 -0.013563 -0.17446 0.031791 0.02701 0.059647 0.30133 -0.12151 0.14327 0.22437 0.17326 -0.21468 0.21994 0.07956 -0.081732 -0.016776 -0.12331 0.038511 0.0064632 -0.019458 0.21977 -0.15824 0.040187 0.24662 0.10989 0.071544 0.059373 0.060235 0.18493 -0.012009 -0.14206 0.10447 0.076493 0.055644 -0.17207 -0.10687 0.0082108 0.2286 -0.12478 0.4384 0.17591 -0.16843 -0.30943 -0.047459 -0.0034559 -0.19125 -0.035605 
this 0.14338 0.064425 -0.013395 -0.15481 -0.059245 -0.096412 -0.033272 -0.094309 0.0098305 0.059265 0.040556 0.069497 0.028401 0.30009 -0.1419 -0.10964 -0.0747 0.1216 -0.019214 -0.06168 -0.030254 0.15661 0.19177 -0.095478 -0.32117 -0.011015 0.093135 0.0075217 0.038937 0.073128 -0.21032 0.10827 0.054662 -0.002861 0.086661 0.034521 0.21143 -0.091354 -0.023415 0.21295 0.37513 0.18867 0.069079 -0.0047063 -0.0048998 -0.26569 -0.1936 -0.019486 -0.27344 -0.0081471 -0.0037881 0.35105 -0.17522 -0.11088 -0.0073347 -0.18222 0.034417 0.029857 0.057835 0.31291 -0.12932 0.1483 0.22677 0.18016 -0.22034 0.22065 0.07957 -0.08359 -0.022242 -0.12133 0.041769 0.0070516 -0.025078 0.22852 -0.16245 0.046111 0.25066 0.11501 0.078725 0.065228 0.063788 0.18878 -0.012365 -0.13904 0.10579 0.079789 0.060298 -0.17527 -0.10704 0.0037782 0.228 -0.12655 0.45241 0.18022 -0.17064 -0.3122 -0.048811 -0.0013328 -0.18691 -0.037713 
its 0.13633 0.063214 -0.016982 -0.15201 -0.063164 -0.089705 -0.034017 -0.097468 0.0096086 0.051366 0.051008 0.075892 0.028947 0.3061 -0.14346 -0.11225 -0.079499 0.12137 -0.020893 -0.062422 -0.023734 0.15725 0.19011 -0.09402 -0.32207 -0.014277 0.092579 0.0015516 0.039087 0.07795 -0.21034 0.11073 0.054891 -0.0030328 0.083492 0.030152 0.20982 -0.090375 -0.022042 0.21696 0.37686 0.18973 0.064732 0.00075523 -0.0098422 -0.26751 -0.19468 -0.02054 -0.27562 -0.0099002 -0.0047731 0.35153 -0.17359 -0.10721 -0.0086705 -0.17828 0.031571 0.035207 0.060938 0.31116 -0.12477 0.14991 0.22627 0.18473 -0.21051 0.21827 0.086192 -0.084079 -0.023625 -0.11992 0.039976 0.0060465 -0.017102 0.23051 -0.16194 0.041336 0.24857 0.11484 0.075318 0.060121 0.060109 0.1865 -0.0099114 -0.14743 0.1016 0.080865 0.053541 -0.17443 -0.11046 -0.0032444 0.23479 -0.12183 0.45618 0.17365 -0.17122 -0.31837 -0.053654 -0.0025992 -0.19294 -0.036023 
@ETH_en 0.12679 0.064283 -0.015104 -0.14199 -0.062653 -0.090184 -0.031373 -0.093938 0.0059145 0.050464 0.050138 0.063882 0.029916 0.29105 -0.13121 -0.10323 -0.076943 0.11225 -0.021381 -0.059517 -0.023792 0.14922 0.18462 -0.090891 -0.30268 -0.012827 0.091044 0.0063742 0.039024 0.073283 -0.20293 0.10672 0.049486 -0.0092899 0.077743 0.034479 0.19796 -0.092334 -0.024479 0.20205 0.36394 0.18175 0.060964 -0.00058394 -0.0059599 -0.25185 -0.17907 -0.020736 -0.26823 -0.0098411 -0.0082992 0.34165 -0.15945 -0.10283 -0.009491 -0.17317 0.027715 0.030023 0.061023 0.29553 -0.12459 0.13982 0.21334 0.17348 -0.19767 0.20926 0.079114 -0.083072 -0.018571 -0.11682 0.035266 0.0074424 -0.022987 0.21413 -0.15673 0.045232 0.23603 0.10929 0.071725 0.060813 0.060776 0.1815 -0.0050346 -0.13707 0.097233 0.074776 0.051668 -0.17016 -0.10362 0.0028257 0.22306 -0.12006 0.43641 0.16576 -0.16478 -0.30123 -0.047577 -0.0038278 -0.18305 -0.033816 
how 0.13397 0.05854 -0.010925 -0.14355 -0.054513 -0.090243 -0.032392 -0.089364 0.0062456 0.051307 0.041488 0.067567 0.028814 0.28873 -0.13245 -0.10598 -0.068329 0.11856 -0.020329 -0.058693 -0.02362 0.14902 0.17991 -0.090939 -0.30534 -0.016322 0.087301 0.0018452 0.038804 0.072897 -0.20289 0.096084 0.049332 -0.0084432 0.081532 0.034218 0.19606 -0.088759 -0.02176 0.19944 0.35957 0.17945 0.059608 -0.0060163 -0.0072392 -0.25804 -0.18565 -0.019891 -0.25905 -0.0080458 -0.0080343 0.33686 -0.16454 -0.10588 -0.0098044 -0.17155 0.028916 0.031896 0.055301 0.29623 -0.11988 0.14167 0.22001 0.16796 -0.20691 0.21167 0.080153 -0.077957 -0.020795 -0.11489 0.043835 0.0072491 -0.023593 0.21211 -0.15378 0.045087 0.23861 0.1098 0.068833 0.062726 0.062136 0.18297 -0.014763 -0.13458 0.09761 0.071667 0.052827 -0.16606 -0.10088 0.0061604 0.22151 -0.11459 0.43421 0.16794 -0.16519 -0.29834 -0.045481 -0.004436 -0.18078 -0.038428 
2017 0.12063 0.058649 -0.016369 -0.12671 -0.058941 -0.081241 -0.027968 -0.08769 0.010886 0.051182 0.048997 0.058704 0.025387 0.26959 -0.12387 -0.096185 -0.073652 0.10509 -0.020427 -0.062271 -0.016558 0.14316 0.17564 -0.083768 -0.28291 -0.006261 0.08526 0.0030211 0.031068 0.068078 -0.19682 0.1006 0.045905 -0.0076735 0.077423 0.032741 0.18266 -0.075431 -0.025921 0.18946 0.33994 0.16442 0.058923 0.0025256 -0.0080816 -0.23757 -0.17177 -0.015011 -0.24456 -0.0071893 -0.0075901 0.31484 -0.1564 -0.092454 -0.0053995 -0.16089 0.021717 0.034966 0.056097 0.27863 -0.11052 0.12778 0.20026 0.16433 -0.1791 0.20153 0.078262 -0.076112 -0.013862 -0.10935 0.030602 0.0092307 -0.020736 0.1962 -0.14924 0.041205 0.21992 0.10277 0.064191 0.054102 0.056847 0.166 -0.0064017 -0.13404 0.087263 0.07512 0.045698 -0.16129 -0.099819 0.0045566 0.20774 -0.11429 0.4073 0.14766 -0.1598 -0.28222 -0.04334 -0.0035935 -0.1643 -0.032307 
their 0.13247 0.059362 -0.011339 -0.14265 -0.055866 -0.087531 -0.02792 -0.091973 0.005265 0.05317 0.036771 0.06862 0.025973 0.28192 -0.12997 -0.10319 -0.067758 0.11507 -0.019297 -0.057804 -0.02568 0.1415 0.17312 -0.086716 -0.29629 -0.01084 0.087675 0.0062493 0.038052 0.071115 -0.19382 0.098415 0.049166 -0.008133 0.079595 0.033772 0.19098 -0.085399 -0.019826 0.19536 0.3449 0.17266 0.061124 -0.0014387 -0.0023275 -0.24882 -0.17967 -0.019509 -0.2505 -0.0089326 -0.0033067 0.32459 -0.16115 -0.09988 -0.0098073 -0.1674 0.032163 0.024845 0.048234 0.28514 -0.11937 0.13773 0.21097 0.1693 -0.20385 0.20168 0.072048 -0.074541 -0.018916 -0.1131 0.036836 0.0030833 -0.017494 0.20939 -0.14722 0.033097 0.22907 0.10863 0.066099 0.058697 0.06248 0.17277 -0.012141 -0.13104 0.097235 0.071796 0.05601 -0.16054 -0.099135 0.004246 0.21383 -0.12172 0.4146 0.16475 -0.15455 -0.28735 -0.044351 -0.0011171 -0.17033 -0.032154 
@epfl_en 0.12726 0.060731 -0.015652 -0.13904 -0.062217 -0.089457 -0.031698 -0.094848 0.010524 0.051355 0.046158 0.064985 0.029288 0.28697 -0.13115 -0.10373 -0.073799 0.11113 -0.019044 -0.061927 -0.022732 0.15284 0.18712 -0.091127 -0.29956 -0.011071 0.095215 0.0072037 0.036131 0.071545 -0.20399 0.10607 0.048947 -0.010618 0.080402 0.031472 0.19462 -0.085899 -0.026643 0.19944 0.36043 0.17758 0.060357 0.0031496 -0.0051314 -0.25216 -0.18004 -0.020652 -0.26254 -0.0084286 -0.0094009 0.3359 -0.1654 -0.10197 -0.010631 -0.17178 0.024027 0.031117 0.055718 0.2971 -0.1189 0.13419 0.21502 0.17353 -0.19872 0.20916 0.079919 -0.081511 -0.018164 -0.11591 0.033939 0.0073847 -0.021589 0.21028 -0.15723 0.040343 0.2356 0.11037 0.072722 0.056346 0.058728 0.18026 -0.0058929 -0.13802 0.096047 0.074927 0.051495 -0.16818 -0.10241 0.0012643 0.22239 -0.11749 0.4339 0.16191 -0.16446 -0.30009 -0.045502 -0.0033725 -0.1806 -0.032315 
as 0.13828 0.064418 -0.021167 -0.1581 -0.069622 -0.099244 -0.042751 -0.095058 0.012932 0.046146 0.052459 0.07204 0.025672 0.29687 -0.14277 -0.11036 -0.076631 0.12238 -0.021456 -0.064816 -0.026442 0.16367 0.18957 -0.09669 -0.3161 -0.012204 0.097731 0.0082529 0.040565 0.073705 -0.20988 0.10305 0.054096 -0.006433 0.087666 0.03787 0.21106 -0.092417 -0.022707 0.21393 0.37947 0.18462 0.063631 0.0017296 -0.011849 -0.26479 -0.1952 -0.015795 -0.2698 -0.0061428 -0.013027 0.35473 -0.18065 -0.10965 -0.01542 -0.17693 0.02632 0.029664 0.061043 0.30572 -0.12504 0.14751 0.22915 0.17866 -0.21182 0.2238 0.084901 -0.083956 -0.027792 -0.11618 0.035012 0.0029939 -0.019859 0.22478 -0.16207 0.05071 0.24629 0.11328 0.076381 0.062188 0.062417 0.18903 -0.010171 -0.15121 0.10716 0.076619 0.052833 -0.17243 -0.10953 0.0028846 0.22535 -0.12562 0.45501 0.16734 -0.17364 -0.31057 -0.041768 -0.010234 -0.19167 -0.034718 
@unil 0.12778 0.061301 -0.024581 -0.13601 -0.06145 -0.082847 -0.026836 -0.095652 0.0096795 0.053188 0.047489 0.066667 0.030037 0.28326 -0.13132 -0.09997 -0.070305 0.11003 -0.024291 -0.066043 -0.024639 0.15071 0.18431 -0.090397 -0.29984 -0.0079438 0.094205 -0.00034143 0.034829 0.072725 -0.20593 0.1058 0.048013 -0.0096066 0.075582 0.031697 0.19343 -0.082929 -0.025692 0.19834 0.35996 0.17573 0.060719 0.0030921 -0.0057198 -0.25502 -0.17543 -0.017161 -0.26386 -0.0076639 -0.010729 0.329 -0.16571 -0.10011 -0.0067302 -0.17335 0.022986 0.036355 0.05795 0.29622 -0.11732 0.13179 0.21092 0.17024 -0.19721 0.20823 0.085045 -0.081203 -0.014258 -0.10981 0.028819 0.004025 -0.020572 0.21017 -0.15796 0.040364 0.23365 0.10853 0.069345 0.052561 0.060545 0.1767 -0.0059458 -0.14124 0.09633 0.073494 0.049504 -0.16683 -0.10676 -0.00023456 0.21971 -0.11344 0.4254 0.16004 -0.16233 -0.29693 -0.047012 -0.0026382 -0.1745 -0.030749 
dans 0.11104 0.051626 -0.018606 -0.11497 -0.058912 -0.0734 -0.032723 -0.085106 0.013511 0.044966 0.046919 0.054102 0.028767 0.25396 -0.11485 -0.090807 -0.072223 0.092911 -0.013947 -0.065449 -0.018678 0.14255 0.17412 -0.083732 -0.26561 -0.010738 0.084015 0.0021655 0.030302 0.069054 -0.18963 0.10083 0.049713 -0.0089473 0.067147 0.025958 0.17083 -0.074839 -0.027518 0.17373 0.32911 0.15901 0.05057 0.0048264 -0.0088213 -0.22741 -0.16045 -0.019037 -0.23569 -0.004683 -0.012628 0.30153 -0.15448 -0.086038 -0.0054447 -0.15218 0.014903 0.032133 0.058568 0.2685 -0.10288 0.11464 0.18791 0.15977 -0.1702 0.18895 0.076897 -0.078507 -0.0098991 -0.099254 0.02473 0.013069 -0.019158 0.18759 -0.14469 0.037647 0.20916 0.093448 0.064043 0.040193 0.052459 0.15595 -0.00020128 -0.12893 0.074548 0.071128 0.037128 -0.15694 -0.097326 -0.0035961 0.20061 -0.10343 0.39326 0.13461 -0.1578 -0.26877 -0.039786 -0.0088966 -0.15988 -0.032043 
we 0.1359 0.061525 -0.015327 -0.14888 -0.059215 -0.093424 -0.031677 -0.091302 0.011594 0.05463 0.050867 0.072819 0.023811 0.29261 -0.12913 -0.11109 -0.071143 0.12414 -0.020144 -0.059584 -0.030431 0.14806 0.18356 -0.090796 -0.31213 -0.014061 0.090505 0.008638 0.036935 0.070512 -0.20661 0.10812 0.052083 -0.0040624 0.082291 0.032701 0.20364 -0.091095 -0.02075 0.20964 0.36555 0.17879 0.065434 -0.0055107 -0.005893 -0.25925 -0.18629 -0.016309 -0.26122 -0.0086641 -0.0057611 0.34222 -0.16747 -0.10801 -0.01331 -0.18117 0.029778 0.026619 0.055132 0.30182 -0.11977 0.14112 0.21639 0.16853 -0.21351 0.21866 0.080694 -0.079051 -0.0152 -0.11265 0.043067 0.0080313 -0.014678 0.22064 -0.1604 0.043444 0.23771 0.10752 0.073397 0.060871 0.059259 0.18281 -0.011864 -0.1378 0.10105 0.072701 0.062501 -0.17183 -0.10686 0.0039636 0.22234 -0.12257 0.43593 0.17018 -0.16672 -0.30053 -0.045971 0.0044209 -0.17931 -0.040254 
your 0.12903 0.060123 -0.016684 -0.13492 -0.061164 -0.083524 -0.032102 -0.091811 0.014091 0.055095 0.04936 0.065035 0.029521 0.28278 -0.1354 -0.10375 -0.076676 0.1111 -0.016263 -0.062069 -0.022035 0.15155 0.1866 -0.090777 -0.29788 -0.0070157 0.093085 0.0010543 0.035636 0.072844 -0.20861 0.11615 0.053654 -0.0087366 0.077479 0.03306 0.19226 -0.079192 -0.028462 0.1943 0.35878 0.17901 0.059393 0.0018832 -0.0076204 -0.25393 -0.17902 -0.020321 -0.26068 -0.0089683 -0.014171 0.33065 -0.16383 -0.10154 -0.01052 -0.17124 0.024162 0.032389 0.063452 0.29392 -0.11587 0.12764 0.21113 0.17608 -0.1942 0.20918 0.082968 -0.080842 -0.0086003 -0.11146 0.03259 0.0069826 -0.020712 0.20599 -0.15739 0.03404 0.23197 0.11015 0.072347 0.050683 0.055637 0.17231 -0.0047401 -0.13785 0.092236 0.078311 0.042104 -0.16716 -0.098601 0.0014299 0.22081 -0.11438 0.42245 0.16135 -0.16722 -0.29578 -0.049562 -0.0057314 -0.16806 -0.033007 
Lausanne 0.14218 0.06643 -0.022587 -0.15283 -0.068848 -0.092743 -0.032139 -0.10822 0.014475 0.062208 0.056684 0.072721 0.036239 0.32025 -0.1527 -0.1143 -0.089338 0.12194 -0.022227 -0.077151 -0.024542 0.17177 0.21164 -0.10166 -0.33764 -0.0087215 0.10796 0.0033295 0.04216 0.082806 -0.23719 0.1251 0.057857 -0.010894 0.083977 0.038224 0.21774 -0.095966 -0.031239 0.22724 0.41129 0.19981 0.064347 0.0017092 -0.012025 -0.28858 -0.20194 -0.025504 -0.29822 -0.012691 -0.015863 0.38335 -0.19004 -0.11283 -0.010852 -0.19322 0.022157 0.038371 0.067387 0.33375 -0.12791 0.14658 0.2418 0.19937 -0.21534 0.24255 0.098315 -0.092147 -0.014063 -0.12674 0.031854 0.0086615 -0.027072 0.23593 -0.18237 0.049888 0.26641 0.11806 0.080831 0.058022 0.066011 0.19475 -0.0070552 -0.15996 0.10336 0.091162 0.052695 -0.19778 -0.11755 0.0018671 0.25106 -0.12767 0.48753 0.18069 -0.19218 -0.33808 -0.051031 -0.0084517 -0.19894 -0.040688 
Avec 0.097432 0.044428 -0.015678 -0.10318 -0.053222 -0.062507 -0.028925 -0.073157 0.016945 0.041405 0.042741 0.049894 0.024686 0.2284 -0.10697 -0.079222 -0.064523 0.085651 -0.016309 -0.059327 -0.018478 0.12511 0.15459 -0.074249 -0.23927 -0.0023912 0.076617 0.0027066 0.024591 0.06547 -0.1719 0.091396 0.043585 -0.0096113 0.061859 0.02719 0.15207 -0.066702 -0.023622 0.16184 0.29799 0.14525 0.045306 0.0074097 -0.01263 -0.20466 -0.14174 -0.020042 -0.21298 -0.0085343 -0.0096412 0.26943 -0.13988 -0.075931 -0.0060897 -0.13681 0.012148 0.030631 0.054057 0.24052 -0.091293 0.10224 0.16993 0.14478 -0.14768 0.16781 0.068721 -0.06491 -0.0068429 -0.087619 0.023256 0.013181 -0.018923 0.16572 -0.13053 0.033734 0.18758 0.088578 0.057836 0.035832 0.047643 0.13762 0.0027413 -0.11113 0.069729 0.066414 0.03199 -0.14185 -0.086535 -0.0015227 0.17979 -0.094064 0.35253 0.12471 -0.13537 -0.23983 -0.037633 -0.0060397 -0.1439 -0.030724 
vous 0.11637 0.056193 -0.025364 -0.12027 -0.064109 -0.070618 -0.03323 -0.088687 0.017956 0.050682 0.054557 0.056766 0.034811 0.26624 -0.12758 -0.094711 -0.07601 0.10195 -0.0208 -0.070449 -0.020006 0.15331 0.18623 -0.090511 -0.278 -0.0060473 0.093994 -0.00021234 0.033336 0.07567 -0.20128 0.11354 0.052046 -0.0091146 0.074806 0.029461 0.176 -0.079552 -0.029682 0.18727 0.35075 0.16812 0.049427 0.006709 -0.018989 -0.24129 -0.16906 -0.017254 -0.25435 -0.0088159 -0.017758 0.32211 -0.16295 -0.090323 -0.007264 -0.16141 0.016443 0.038043 0.064556 0.28771 -0.10781 0.11828 0.19573 0.17032 -0.17109 0.19667 0.085928 -0.086426 -0.0090245 -0.10818 0.022483 0.014746 -0.021181 0.19036 -0.1581 0.043208 0.22147 0.10017 0.068431 0.044743 0.057331 0.16294 0.0044228 -0.13393 0.081812 0.077048 0.038732 -0.16814 -0.10495 -0.00095583 0.21149 -0.10812 0.41506 0.14599 -0.1656 -0.2835 -0.043411 -0.0075724 -0.16646 -0.035055 
#innovation 0.11838 0.055469 -0.015242 -0.13017 -0.056007 -0.080231 -0.027216 -0.090313 0.0113 0.052681 0.046881 0.061481 0.026432 0.27066 -0.12408 -0.098902 -0.069464 0.10576 -0.019449 -0.061389 -0.021683 0.14319 0.17593 -0.08862 -0.28446 -0.0098648 0.086413 0.0043273 0.034805 0.070445 -0.1929 0.10293 0.046994 -0.0069637 0.07267 0.031493 0.18405 -0.081185 -0.02246 0.18998 0.34081 0.1702 0.056828 -0.00013801 -0.0064652 -0.24086 -0.16898 -0.018966 -0.24802 -0.0071365 -0.0094967 0.31767 -0.15465 -0.0925 -0.0078177 -0.16235 0.023398 0.031153 0.056208 0.27989 -0.11372 0.12787 0.20127 0.16264 -0.18693 0.19946 0.076014 -0.077344 -0.014558 -0.11001 0.032386 0.0095293 -0.020102 0.20255 -0.15124 0.040711 0.2225 0.10324 0.067401 0.053993 0.055341 0.16876 -0.0050687 -0.13199 0.091102 0.072169 0.048474 -0.1591 -0.099103 -0.0014752 0.20985 -0.11118 0.40829 0.15345 -0.15855 -0.28235 -0.042834 -0.0045898 -0.17045 -0.033193 
talk 0.12973 0.059198 -0.013278 -0.14368 -0.056652 -0.089384 -0.032553 -0.091869 0.0085482 0.052366 0.040884 0.065237 0.032957 0.28937 -0.13208 -0.11023 -0.073365 0.1127 -0.019758 -0.061691 -0.027426 0.15073 0.18442 -0.091994 -0.30546 -0.0084793 0.089566 6.152e-05 0.031534 0.070969 -0.20224 0.1063 0.047664 -0.0062653 0.082565 0.031875 0.19363 -0.085954 -0.023264 0.20377 0.35945 0.17764 0.064941 -0.003702 -0.0078478 -0.25726 -0.18278 -0.018436 -0.26396 -0.0080702 -0.004907 0.33775 -0.16685 -0.10425 -0.0086928 -0.17506 0.025796 0.029612 0.053735 0.29773 -0.11897 0.13909 0.21338 0.17545 -0.20031 0.21124 0.081873 -0.082821 -0.019022 -0.11814 0.034553 0.011037 -0.020875 0.21437 -0.15645 0.043042 0.23659 0.1105 0.072347 0.058918 0.063018 0.18228 -0.010297 -0.14063 0.098501 0.073182 0.058526 -0.16676 -0.10342 0.00048202 0.21812 -0.11486 0.43119 0.16664 -0.16373 -0.29592 -0.04734 -0.0058293 -0.17978 -0.034419 
next 0.12576 0.062116 -0.014135 -0.14136 -0.060506 -0.08708 -0.029562 -0.092628 0.01055 0.051265 0.047419 0.0633 0.03027 0.27989 -0.12778 -0.10532 -0.073498 0.10676 -0.018894 -0.061896 -0.026124 0.14863 0.18271 -0.087399 -0.29522 -0.0094377 0.087868 0.0022964 0.037977 0.067785 -0.2015 0.1043 0.049353 -0.0047092 0.078476 0.03408 0.19272 -0.083409 -0.024512 0.19907 0.35291 0.17691 0.058531 -0.0014006 -0.0082824 -0.24748 -0.1745 -0.019069 -0.25671 -0.010135 -0.0055713 0.32916 -0.16038 -0.09933 -0.0093158 -0.16724 0.026389 0.029305 0.051051 0.28779 -0.11669 0.13055 0.20756 0.16847 -0.19331 0.20541 0.07881 -0.08039 -0.01657 -0.11412 0.033877 0.0079355 -0.021856 0.21149 -0.15422 0.041628 0.2299 0.10905 0.069613 0.055653 0.061146 0.17485 -0.005618 -0.1319 0.092962 0.078566 0.04787 -0.16631 -0.10202 0.0023178 0.21363 -0.11204 0.41965 0.15793 -0.16335 -0.28858 -0.044998 -0.0045949 -0.17338 -0.037942 
avec 0.11763 0.053647 -0.020702 -0.12795 -0.058702 -0.073487 -0.034105 -0.090285 0.021449 0.048574 0.052166 0.058002 0.029862 0.2785 -0.13047 -0.094747 -0.081058 0.10041 -0.020499 -0.076815 -0.01842 0.15646 0.18388 -0.087008 -0.28692 -0.0080984 0.092919 0.0044659 0.026964 0.080197 -0.2096 0.11442 0.049679 -0.010037 0.072435 0.031021 0.18195 -0.077761 -0.032039 0.19392 0.36087 0.17573 0.052439 0.011028 -0.016332 -0.24444 -0.17166 -0.021131 -0.25827 -0.0087514 -0.016151 0.32633 -0.16731 -0.089141 -0.0051236 -0.1662 0.0094116 0.035695 0.06888 0.28623 -0.10931 0.11631 0.20145 0.1739 -0.17657 0.20506 0.084861 -0.080962 -0.010597 -0.10558 0.025654 0.015004 -0.021858 0.19875 -0.16183 0.039734 0.22279 0.10487 0.072414 0.042647 0.054062 0.16681 0.0030037 -0.13452 0.085163 0.07775 0.036898 -0.17493 -0.10563 -0.0047147 0.21744 -0.1098 0.42537 0.14627 -0.16976 -0.28803 -0.043987 -0.0037668 -0.17447 -0.030795 
work 0.13102 0.068682 -0.016806 -0.14888 -0.064747 -0.098478 -0.029236 -0.099826 0.011718 0.054602 0.048142 0.068092 0.034045 0.30692 -0.13259 -0.1138 -0.073378 0.12002 -0.022262 -0.060417 -0.025747 0.15962 0.18767 -0.097849 -0.32324 -0.011869 0.094589 0.0045542 0.035435 0.074572 -0.21274 0.10495 0.050237 -0.013483 0.088435 0.03552 0.20599 -0.095161 -0.01953 0.21079 0.37458 0.18236 0.065215 0.0011063 -0.006117 -0.26785 -0.18863 -0.022341 -0.27476 -0.0056081 -0.005146 0.36064 -0.17443 -0.10838 -0.0096437 -0.18461 0.030358 0.028691 0.058552 0.31249 -0.12549 0.15134 0.22225 0.17576 -0.20702 0.22461 0.086696 -0.089073 -0.023351 -0.12419 0.041897 0.0045545 -0.022418 0.22616 -0.17105 0.045999 0.24761 0.1166 0.078633 0.069675 0.069607 0.19236 -0.0094453 -0.1428 0.1058 0.075778 0.058025 -0.1763 -0.11075 0.00177 0.22799 -0.12268 0.45102 0.17613 -0.17273 -0.30765 -0.048227 -0.0020754 -0.19505 -0.037427 
#epflcampus 0.11456 0.053365 -0.018326 -0.12223 -0.055346 -0.077109 -0.029214 -0.083211 0.011657 0.049602 0.045636 0.05858 0.027204 0.25756 -0.12175 -0.091967 -0.068574 0.10071 -0.018591 -0.058808 -0.020384 0.14025 0.16663 -0.08374 -0.2673 -0.010414 0.083549 0.0035263 0.033527 0.06604 -0.18445 0.10002 0.044046 -0.0068074 0.0706 0.030567 0.17517 -0.076884 -0.026507 0.17942 0.32736 0.15975 0.052994 0.0011856 -0.0071683 -0.22911 -0.16052 -0.019989 -0.23694 -0.0089628 -0.0095414 0.30211 -0.15068 -0.09073 -0.0083823 -0.15605 0.020025 0.031792 0.052414 0.26958 -0.10725 0.1179 0.19455 0.1592 -0.17616 0.19123 0.074628 -0.075701 -0.012778 -0.10312 0.027091 0.0071354 -0.019441 0.19038 -0.14347 0.04111 0.21168 0.098271 0.063445 0.047414 0.054247 0.15922 -0.004903 -0.12571 0.084527 0.06934 0.042339 -0.152 -0.09346 0.00098635 0.20015 -0.10605 0.3897 0.14417 -0.15186 -0.26807 -0.042446 -0.0063131 -0.15997 -0.03184 
my 0.13758 0.063197 -0.031032 -0.15021 -0.06729 -0.10065 -0.034578 -0.10494 0.0082551 0.059609 0.044211 0.082715 0.022775 0.30095 -0.14779 -0.1174 -0.068319 0.12924 -0.03408 -0.066602 -0.033464 0.15823 0.19599 -0.092677 -0.33923 -0.011763 0.10453 0.0039638 0.044213 0.074982 -0.21081 0.11135 0.050142 -0.0098139 0.074628 0.02883 0.21953 -0.092752 -0.031733 0.21239 0.3877 0.18993 0.074308 -0.0034976 -0.0022406 -0.28367 -0.18807 -0.012877 -0.27749 -0.0093382 -0.0094332 0.34673 -0.17678 -0.10903 -0.0036324 -0.19183 0.026718 0.026251 0.055483 0.31024 -0.13639 0.14095 0.23642 0.18599 -0.2226 0.21762 0.087954 -0.082956 -0.021374 -0.11082 0.028803 -0.0065343 -0.025051 0.22825 -0.1621 0.042622 0.25775 0.11972 0.078345 0.060243 0.065994 0.18865 -0.015923 -0.1525 0.11763 0.080287 0.067572 -0.1728 -0.11679 0.005461 0.24125 -0.12922 0.45519 0.18196 -0.16664 -0.32459 -0.050435 -0.0058867 -0.1871 -0.027102 
? 0.12774 0.050664 -0.012686 -0.12645 -0.057825 -0.083801 -0.034889 -0.081686 0.0093079 0.043348 0.053696 0.063439 0.019835 0.2649 -0.12108 -0.088629 -0.074506 0.095474 -0.0088358 -0.06913 -0.012794 0.14803 0.17356 -0.084654 -0.28497 -0.01032 0.096597 -0.00030805 0.027829 0.078769 -0.20073 0.10863 0.048855 -0.0094807 0.074022 0.01989 0.17713 -0.075379 -0.024578 0.1879 0.34641 0.1641 0.057605 0.0033315 -0.0098239 -0.23821 -0.1637 -0.016556 -0.24419 -0.010159 -0.011453 0.31477 -0.16226 -0.092501 -0.011206 -0.16623 0.015427 0.024734 0.053233 0.28202 -0.1056 0.12356 0.19954 0.16444 -0.18264 0.20054 0.079496 -0.077871 -0.0073782 -0.10509 0.036312 0.019725 -0.014443 0.1931 -0.15014 0.040635 0.21953 0.096446 0.073479 0.048203 0.056414 0.1647 -0.0065545 -0.13115 0.082524 0.071194 0.04112 -0.15633 -0.091373 0.0028934 0.21084 -0.10421 0.40337 0.14709 -0.16034 -0.28385 -0.039051 -0.006382 -0.16644 -0.03198 
research 0.13442 0.062465 -0.011222 -0.145 -0.055239 -0.088616 -0.030393 -0.091068 0.0059688 0.054515 0.041065 0.068813 0.028213 0.28813 -0.13145 -0.10481 -0.069023 0.1173 -0.018359 -0.060424 -0.022649 0.14818 0.18122 -0.094953 -0.30185 -0.015472 0.084653 0.0050438 0.038784 0.068319 -0.20171 0.10184 0.049235 -0.010295 0.080573 0.035856 0.20082 -0.087298 -0.023801 0.20263 0.35576 0.17885 0.064561 -0.0019151 -0.0014143 -0.25419 -0.1825 -0.021094 -0.25998 -0.008866 -0.0049284 0.33646 -0.16586 -0.10408 -0.010658 -0.1693 0.030794 0.02977 0.053445 0.2922 -0.12065 0.14203 0.21879 0.17288 -0.20485 0.2115 0.077255 -0.081345 -0.022113 -0.115 0.038944 0.003884 -0.022112 0.21714 -0.15156 0.039778 0.23693 0.11256 0.072536 0.063043 0.059856 0.17866 -0.010892 -0.13249 0.099728 0.071986 0.059302 -0.1635 -0.10485 -0.0016246 0.21952 -0.11804 0.42845 0.16646 -0.16157 -0.29651 -0.046663 -0.0065451 -0.17889 -0.033925 
Learning 0.14569 0.070552 -0.015052 -0.15716 -0.067809 -0.09515 -0.029833 -0.10114 0.0063698 0.062303 0.049495 0.077536 0.03285 0.32077 -0.14804 -0.12129 -0.081069 0.12766 -0.023675 -0.066642 -0.028523 0.16677 0.20415 -0.10392 -0.33669 -0.013476 0.098908 -0.0004358 0.040296 0.076938 -0.22077 0.11407 0.056 -0.0041123 0.086952 0.041173 0.2176 -0.098684 -0.023323 0.2272 0.39873 0.20017 0.072306 -0.0070025 -0.0058165 -0.28255 -0.20584 -0.022148 -0.29075 -0.015748 -0.0072031 0.37992 -0.18255 -0.11745 -0.013678 -0.19255 0.030772 0.030749 0.062756 0.32545 -0.13536 0.15303 0.23712 0.19222 -0.22468 0.2371 0.087854 -0.085681 -0.020491 -0.13278 0.043821 0.0087761 -0.022876 0.2437 -0.17383 0.048541 0.26528 0.12122 0.079303 0.06814 0.065476 0.19804 -0.0056148 -0.15012 0.10635 0.085888 0.060052 -0.18768 -0.10823 -0.0003483 0.2425 -0.12981 0.47522 0.18117 -0.18309 -0.32917 -0.049801 -0.0087294 -0.19986 -0.041063 
@dgt_switzerland 0.1118 0.056297 -0.014142 -0.12642 -0.057936 -0.084275 -0.024266 -0.088848 0.011369 0.04757 0.048441 0.057504 0.028949 0.26653 -0.11555 -0.096518 -0.069499 0.10088 -0.017701 -0.057819 -0.021783 0.14041 0.1714 -0.084147 -0.27919 -0.011105 0.083389 0.0054735 0.032221 0.066123 -0.18931 0.096607 0.042642 -0.013237 0.073248 0.03113 0.1791 -0.088357 -0.021229 0.18474 0.33589 0.16681 0.054489 0.001386 -0.0082977 -0.23212 -0.16237 -0.01645 -0.24748 -0.010742 -0.0048456 0.31903 -0.15183 -0.093766 -0.0071668 -0.16236 0.022515 0.027378 0.05403 0.27623 -0.1115 0.12622 0.1917 0.16006 -0.17876 0.19766 0.075003 -0.077648 -0.016095 -0.10674 0.031794 0.0073777 -0.020984 0.1935 -0.15138 0.04313 0.21851 0.10187 0.066835 0.055326 0.059381 0.16857 -0.0018795 -0.12828 0.088461 0.066723 0.046345 -0.15724 -0.097493 0.0028334 0.20468 -0.10597 0.40177 0.15115 -0.15655 -0.2739 -0.043639 -0.0046234 -0.17219 -0.032933 
up 0.13123 0.064737 -0.013201 -0.14701 -0.063908 -0.088877 -0.030486 -0.096566 0.015875 0.048816 0.048668 0.069881 0.031459 0.29306 -0.14404 -0.10629 -0.073585 0.12033 -0.021807 -0.064547 -0.022461 0.15251 0.18712 -0.094941 -0.30676 -0.012416 0.097781 0.0033998 0.043198 0.070653 -0.20575 0.10573 0.051564 -0.0059365 0.07806 0.03538 0.19854 -0.080682 -0.024961 0.20059 0.36631 0.17973 0.063237 -0.003962 -0.0044378 -0.26341 -0.18549 -0.015407 -0.26201 -0.0060725 -0.0090682 0.34497 -0.1604 -0.10553 -0.006196 -0.17273 0.02984 0.033997 0.057651 0.29719 -0.12401 0.143 0.21497 0.17069 -0.21062 0.2188 0.086664 -0.075042 -0.019308 -0.11536 0.034687 0.0067767 -0.021704 0.21437 -0.16325 0.045562 0.24608 0.11206 0.077487 0.054649 0.068888 0.18047 -0.011731 -0.13768 0.096141 0.069857 0.049652 -0.16703 -0.10126 0.0083993 0.22134 -0.12082 0.43683 0.16605 -0.16352 -0.30221 -0.046569 0.00044945 -0.18021 -0.034735 
day 0.13895 0.061734 -0.011973 -0.15131 -0.063978 -0.091907 -0.032076 -0.097307 0.0056446 0.056335 0.046436 0.066607 0.03053 0.30197 -0.13729 -0.11381 -0.073586 0.12093 -0.017502 -0.058842 -0.028388 0.15868 0.18804 -0.093976 -0.32205 -0.013396 0.094089 0.0018781 0.038 0.07526 -0.21186 0.10936 0.050153 -0.0085734 0.082496 0.038486 0.20466 -0.094191 -0.019833 0.20869 0.37395 0.18341 0.069778 -0.0044233 -0.0063135 -0.2604 -0.19311 -0.020403 -0.27276 -0.0096668 -0.0038235 0.35234 -0.17205 -0.11198 -0.0092627 -0.17871 0.029756 0.034501 0.062066 0.30181 -0.12749 0.14572 0.22588 0.18283 -0.21347 0.21715 0.081704 -0.085961 -0.01928 -0.1193 0.042257 0.010432 -0.020928 0.2266 -0.16081 0.046658 0.24878 0.11254 0.074631 0.064475 0.060443 0.18452 -0.0083771 -0.14316 0.10599 0.079491 0.057076 -0.17754 -0.10908 1.566e-05 0.23148 -0.12614 0.44915 0.17036 -0.17164 -0.31045 -0.046417 -0.00092755 -0.18482 -0.039836 
This 0.13102 0.065974 -0.013529 -0.14141 -0.055047 -0.089921 -0.033565 -0.090201 0.010363 0.051282 0.038518 0.068715 0.027327 0.28623 -0.13345 -0.10743 -0.071556 0.11157 -0.02045 -0.060982 -0.025342 0.1483 0.18507 -0.088018 -0.30134 -0.01167 0.087068 0.005737 0.035807 0.070634 -0.20205 0.10441 0.053358 -0.0046846 0.079525 0.033338 0.19711 -0.087409 -0.022261 0.20489 0.35776 0.17933 0.062733 -0.005204 -0.0086805 -0.24976 -0.18136 -0.021016 -0.25945 -0.010357 -0.0042104 0.3366 -0.16554 -0.10712 -0.0082812 -0.17227 0.031602 0.033957 0.059671 0.29589 -0.12176 0.1388 0.21603 0.17073 -0.20565 0.21053 0.077768 -0.079893 -0.020241 -0.11377 0.039017 0.0097656 -0.022427 0.21285 -0.15759 0.042942 0.23548 0.1051 0.072522 0.064595 0.060602 0.17866 -0.0091245 -0.13243 0.098687 0.076724 0.056227 -0.16717 -0.10212 0.0035444 0.21636 -0.11793 0.42661 0.16677 -0.16674 -0.29598 -0.047253 -0.0028521 -0.17594 -0.034436 
Un 0.11048 0.049998 -0.017354 -0.1226 -0.052922 -0.075759 -0.03138 -0.079024 0.01649 0.043851 0.049914 0.054823 0.029014 0.25207 -0.11695 -0.09745 -0.068587 0.094326 -0.011772 -0.064663 -0.016154 0.1328 0.17505 -0.080103 -0.26132 -0.010905 0.083911 -0.0016919 0.033622 0.06564 -0.18509 0.1029 0.047105 -0.0056477 0.067132 0.028664 0.17547 -0.075408 -0.027345 0.18101 0.3277 0.15789 0.048161 0.0056215 -0.0082762 -0.22642 -0.15538 -0.019421 -0.2344 -0.0055362 -0.014612 0.29626 -0.15653 -0.086112 -0.0083012 -0.15379 0.018667 0.036904 0.058725 0.26548 -0.10283 0.11129 0.18999 0.15733 -0.163 0.19115 0.081213 -0.072066 -0.014031 -0.098744 0.02645 0.016086 -0.020755 0.18271 -0.1464 0.038982 0.20669 0.09499 0.069079 0.043506 0.050132 0.14997 -0.002886 -0.13142 0.073064 0.075501 0.03467 -0.155 -0.095756 -0.0035052 0.19535 -0.095831 0.3812 0.13839 -0.15128 -0.26612 -0.039089 -0.007482 -0.1598 -0.027453 
his 0.13427 0.064087 -0.012892 -0.14402 -0.054129 -0.093901 -0.029655 -0.09259 0.01305 0.056476 0.043191 0.065036 0.029334 0.29008 -0.13191 -0.10818 -0.069184 0.11408 -0.017908 -0.062018 -0.023872 0.14776 0.18223 -0.090696 -0.30442 -0.010618 0.090057 0.0097827 0.036034 0.068687 -0.20333 0.10315 0.052938 -0.0014391 0.07877 0.03617 0.20143 -0.085897 -0.01865 0.20652 0.36227 0.1797 0.063705 -0.0038618 -0.0083906 -0.25163 -0.18352 -0.018033 -0.26483 -0.01093 -0.001905 0.33489 -0.16199 -0.10912 -0.0044463 -0.172 0.032671 0.026986 0.058014 0.29612 -0.11796 0.13612 0.21307 0.17295 -0.20443 0.20708 0.081794 -0.084127 -0.019697 -0.11636 0.038379 0.0065303 -0.022327 0.21659 -0.15331 0.0458 0.24195 0.10525 0.07396 0.066707 0.060767 0.18035 -0.01386 -0.13273 0.099352 0.077749 0.050934 -0.16836 -0.10157 0.0037363 0.21848 -0.1189 0.43063 0.16942 -0.16967 -0.29669 -0.046505 -0.0015155 -0.17707 -0.03561 
out 0.14128 0.066214 -0.01388 -0.15837 -0.066551 -0.099125 -0.034575 -0.099442 0.012983 0.054051 0.05073 0.072333 0.025106 0.3092 -0.14287 -0.11476 -0.079324 0.12203 -0.022529 -0.065163 -0.029282 0.1614 0.19791 -0.09469 -0.32684 -0.014724 0.090708 0.0018176 0.042373 0.077101 -0.2156 0.10836 0.054179 -0.0022624 0.088491 0.037043 0.21541 -0.09405 -0.020553 0.21531 0.38445 0.19163 0.066934 -0.0025487 -0.0046712 -0.26954 -0.20048 -0.019851 -0.27795 -0.0093937 -0.0035862 0.3598 -0.17865 -0.10877 -0.01054 -0.18546 0.034069 0.035437 0.058259 0.31562 -0.12754 0.15308 0.23274 0.18521 -0.21908 0.22619 0.08872 -0.085505 -0.020383 -0.1261 0.042887 0.0084532 -0.023607 0.23614 -0.16525 0.047384 0.25512 0.11494 0.072943 0.065848 0.065077 0.19127 -0.0073269 -0.14653 0.10596 0.079803 0.063328 -0.18335 -0.10904 0.00566 0.23239 -0.12882 0.46239 0.17843 -0.17563 -0.32397 -0.050629 -0.004232 -0.19189 -0.037035 
We 0.13255 0.064742 -0.0074591 -0.14579 -0.057943 -0.089542 -0.028245 -0.091477 0.01389 0.058496 0.046341 0.068315 0.031859 0.29704 -0.13168 -0.10752 -0.07773 0.11648 -0.019722 -0.059415 -0.024024 0.15074 0.18892 -0.10003 -0.30578 -0.0096053 0.091764 0.0083294 0.035593 0.072114 -0.21382 0.10309 0.051638 -0.0021132 0.077474 0.037288 0.20589 -0.086042 -0.0259 0.20556 0.36394 0.1795 0.062465 -0.010903 -0.0081019 -0.26438 -0.18741 -0.022294 -0.26358 -0.015535 -0.0074918 0.34774 -0.17137 -0.1085 -0.0073094 -0.18322 0.025939 0.032663 0.057017 0.29746 -0.11933 0.14455 0.22152 0.18032 -0.20348 0.21824 0.080844 -0.082138 -0.011935 -0.1186 0.035889 0.0092207 -0.021146 0.21402 -0.16002 0.038549 0.23217 0.11125 0.072732 0.057731 0.059503 0.17852 -0.0021274 -0.13951 0.098405 0.077642 0.055593 -0.16413 -0.10868 -0.00055218 0.2253 -0.11826 0.4396 0.16888 -0.16649 -0.29866 -0.04633 -0.0038929 -0.18161 -0.03996 
but 0.13813 0.063901 -0.0072634 -0.15748 -0.064942 -0.093422 -0.036058 -0.092564 0.0082624 0.051063 0.046057 0.069675 0.029219 0.30311 -0.13909 -0.10674 -0.071382 0.12197 -0.02193 -0.063145 -0.035805 0.15752 0.19299 -0.091638 -0.32198 -0.010534 0.091216 0.0081457 0.041868 0.07872 -0.21592 0.11389 0.052797 -0.0041057 0.089085 0.039755 0.20925 -0.092239 -0.023346 0.21102 0.379 0.1835 0.069069 -0.0032735 -0.0032195 -0.26469 -0.19729 -0.017582 -0.26923 -0.010151 -0.0036985 0.35463 -0.17608 -0.10928 -0.0080507 -0.18104 0.030606 0.038283 0.064117 0.31213 -0.12446 0.14943 0.22558 0.17653 -0.22086 0.22053 0.087195 -0.08577 -0.022095 -0.13091 0.045517 0.0045934 -0.027166 0.2299 -0.16656 0.044347 0.25057 0.11322 0.074007 0.066793 0.065145 0.18993 -0.012998 -0.14566 0.10009 0.078904 0.053666 -0.17708 -0.10533 0.0045599 0.23123 -0.12625 0.45719 0.17221 -0.17371 -0.31397 -0.047366 0.002698 -0.1859 -0.036556 
Thanks 0.11083 0.053037 -0.012808 -0.12117 -0.050975 -0.076293 -0.026198 -0.080445 0.0079384 0.043776 0.037629 0.053602 0.026566 0.24872 -0.11362 -0.089729 -0.062874 0.097207 -0.01985 -0.056038 -0.017445 0.13044 0.15693 -0.080276 -0.25972 -0.01111 0.080376 -0.00039245 0.034831 0.061845 -0.17441 0.093029 0.041848 -0.0093686 0.068111 0.028024 0.16807 -0.078897 -0.023322 0.17202 0.30841 0.15195 0.053703 -0.00039721 -0.0042115 -0.21955 -0.15565 -0.017089 -0.22476 -0.0069461 -0.0076691 0.28983 -0.14475 -0.089852 -0.0060306 -0.14807 0.023448 0.027422 0.048067 0.25613 -0.10443 0.11858 0.18242 0.14965 -0.16991 0.18256 0.071011 -0.070088 -0.013403 -0.10106 0.030209 0.0097067 -0.020489 0.18548 -0.14005 0.037636 0.20352 0.092813 0.061102 0.050635 0.055612 0.15627 -0.0051267 -0.11979 0.081676 0.063156 0.045611 -0.14389 -0.087887 0.0030209 0.19029 -0.10152 0.37256 0.14163 -0.14384 -0.25585 -0.041466 -0.002234 -0.15809 -0.030042 
#AI 0.13475 0.068656 -0.01092 -0.14737 -0.065841 -0.089722 -0.033948 -0.091532 0.0071332 0.05521 0.047641 0.068606 0.035868 0.29565 -0.13366 -0.10591 -0.075598 0.11919 -0.016741 -0.063458 -0.02548 0.15474 0.18955 -0.096214 -0.30769 -0.010595 0.096796 0.0073264 0.038855 0.074142 -0.20804 0.10696 0.059547 -0.0043296 0.08332 0.033316 0.19718 -0.09413 -0.024445 0.20179 0.37189 0.18474 0.066421 -0.0013186 -0.0022827 -0.26023 -0.18935 -0.019336 -0.26838 -0.0051647 -0.009858 0.34095 -0.16924 -0.098515 -0.00997 -0.18006 0.031044 0.028973 0.056784 0.30244 -0.12514 0.14454 0.22076 0.18021 -0.20607 0.21593 0.086082 -0.081754 -0.017741 -0.11557 0.041895 0.0051043 -0.024536 0.21991 -0.16187 0.037799 0.23658 0.11001 0.07304 0.064919 0.065555 0.18274 -0.0069306 -0.14414 0.098211 0.076861 0.048382 -0.17231 -0.10653 0.0046001 0.22492 -0.12206 0.44661 0.16564 -0.1666 -0.30016 -0.052232 -0.0023184 -0.18823 -0.03611 
made 0.12577 0.055585 -0.017519 -0.13996 -0.059246 -0.087806 -0.028843 -0.090498 0.013066 0.049374 0.051308 0.065616 0.027343 0.28648 -0.13102 -0.10407 -0.073677 0.11083 -0.019785 -0.060322 -0.024853 0.14907 0.18809 -0.092093 -0.2943 -0.011323 0.089434 0.0055546 0.034244 0.071169 -0.20345 0.10365 0.044844 -0.010334 0.079965 0.035111 0.19186 -0.086719 -0.026543 0.19537 0.3552 0.17307 0.059122 0.00035402 -0.0096792 -0.24777 -0.17518 -0.01808 -0.25899 -0.0061139 -0.0089124 0.33432 -0.16307 -0.099954 -0.0078032 -0.17204 0.028548 0.029642 0.057057 0.29403 -0.11963 0.13362 0.20926 0.17111 -0.19706 0.20894 0.082394 -0.080969 -0.01764 -0.11186 0.032479 0.0069092 -0.028295 0.20903 -0.15719 0.043027 0.23057 0.10838 0.069156 0.058286 0.062764 0.17592 -0.0030236 -0.13506 0.094892 0.070296 0.05044 -0.16907 -0.10171 -2.88e-05 0.21803 -0.11765 0.42847 0.16328 -0.16303 -0.29176 -0.047551 0.0011252 -0.1743 -0.032257 
see 0.12473 0.060357 -0.013344 -0.13527 -0.060813 -0.087494 -0.032985 -0.092527 0.011644 0.048738 0.047097 0.059624 0.026453 0.27627 -0.12585 -0.10168 -0.073553 0.10497 -0.016549 -0.06525 -0.024764 0.14791 0.18106 -0.09326 -0.29233 -0.010906 0.090087 0.0065913 0.042113 0.068523 -0.20118 0.10794 0.048862 -0.0071718 0.078139 0.032299 0.18925 -0.084268 -0.027274 0.19856 0.3484 0.1786 0.05799 0.0028919 -0.0049375 -0.25026 -0.1755 -0.021874 -0.2549 -0.0090903 -0.013136 0.32291 -0.15971 -0.099332 -0.004196 -0.16866 0.02624 0.029852 0.061111 0.28773 -0.11244 0.12567 0.20819 0.16656 -0.19436 0.20505 0.077839 -0.07998 -0.016731 -0.10967 0.034633 0.0075166 -0.024267 0.21276 -0.15333 0.041227 0.22995 0.10328 0.073418 0.055236 0.060356 0.17297 -0.007593 -0.13921 0.089553 0.077667 0.043541 -0.16282 -0.10429 0.0034867 0.2208 -0.11513 0.41829 0.16195 -0.16316 -0.29481 -0.043891 -0.0012044 -0.17364 -0.037203 
#Lausanne 0.12215 0.057034 -0.019547 -0.13062 -0.059749 -0.079549 -0.028643 -0.09304 0.012807 0.053178 0.049262 0.061599 0.032545 0.27516 -0.13119 -0.098711 -0.077385 0.1041 -0.018288 -0.067166 -0.020577 0.14877 0.18178 -0.086808 -0.29045 -0.0074142 0.092345 0.0032225 0.036059 0.072798 -0.20529 0.10849 0.050955 -0.0084774 0.071562 0.032624 0.18769 -0.080996 -0.027482 0.19443 0.35329 0.17063 0.054825 0.0024179 -0.0086977 -0.24756 -0.1723 -0.022194 -0.25567 -0.01078 -0.015528 0.3283 -0.16303 -0.097144 -0.0097347 -0.16661 0.017584 0.034228 0.059783 0.28747 -0.10893 0.12487 0.20855 0.17227 -0.18338 0.20822 0.08438 -0.078565 -0.011812 -0.10968 0.027902 0.0088792 -0.022409 0.20241 -0.15729 0.042275 0.2287 0.10165 0.069451 0.048715 0.055854 0.16703 -0.0053089 -0.138 0.087874 0.079471 0.043058 -0.17161 -0.10132 0.0012942 0.21516 -0.10989 0.42 0.15312 -0.16586 -0.29028 -0.042577 -0.0068604 -0.17099 -0.034543 
one 0.1215 0.056595 -0.018238 -0.13297 -0.055576 -0.081276 -0.03026 -0.09122 0.01181 0.052531 0.04363 0.061896 0.025002 0.27583 -0.12721 -0.10291 -0.075159 0.10562 -0.013247 -0.060024 -0.02353 0.14664 0.18147 -0.086972 -0.28894 -0.016168 0.086235 0.0041601 0.034071 0.067906 -0.19621 0.10733 0.051485 -0.0070762 0.073383 0.032229 0.18914 -0.082524 -0.023275 0.19482 0.34697 0.17157 0.056167 -0.0016733 -0.010821 -0.24459 -0.17658 -0.023112 -0.25485 -0.0063852 -0.0079916 0.32301 -0.16505 -0.10266 -0.0072628 -0.16643 0.026049 0.028478 0.051956 0.28807 -0.11125 0.12791 0.20754 0.1653 -0.19114 0.20441 0.082304 -0.080292 -0.016097 -0.11353 0.036433 0.0061086 -0.02086 0.2062 -0.15368 0.037727 0.22904 0.10585 0.068561 0.06155 0.056497 0.17358 -0.0074649 -0.13699 0.095265 0.074905 0.046028 -0.16436 -0.10096 0.0017737 0.21365 -0.11322 0.41432 0.15629 -0.16145 -0.2891 -0.042746 -0.0070478 -0.1712 -0.030993 
