432 100
</s> 0.17871 0.03653 -0.0087022 -0.16519 0.0078781 -0.17634 -0.0089276 -0.14589 -0.02487 -0.031683 0.040442 0.058309 -0.015889 0.21021 -0.13629 -0.15074 -0.079868 0.11577 0.078141 -0.10041 -0.011346 0.11318 0.22947 -0.082413 -0.23199 -0.0417 0.0015246 0.010296 0.1069 0.10087 -0.099528 0.10188 0.038144 -0.0022588 0.071509 0.028124 0.1731 -0.066668 -0.064363 0.067925 0.2976 0.13614 0.037871 -0.024198 0.019693 -0.21448 -0.12961 -0.029724 -0.25761 -0.034052 0.017653 0.30206 -0.21468 0.003272 -0.04438 -0.23946 0.02576 -0.031947 0.09955 0.24031 -0.062061 0.084912 0.36301 0.19067 -0.16885 0.19821 0.15203 -0.097093 -0.032012 -0.069156 -0.030548 0.013209 0.00020429 0.27406 -0.13527 0.13094 0.14209 0.097658 0.11884 0.054111 0.06393 0.10277 0.017052 -0.15027 0.066112 0.031165 0.17088 -0.22224 -0.1545 0.10633 0.19347 -0.1872 0.42674 0.16264 -0.16597 -0.26217 -0.10267 0.0051433 -0.082385 -0.044069 
@EPFL 0.1824 0.027299 -0.0024224 -0.15744 0.0034568 -0.17591 -0.010525 -0.14773 -0.039152 -0.039343 0.037295 0.049926 -0.027948 0.19727 -0.12765 -0.14562 -0.076295 0.10867 0.077168 -0.088771 -0.005046 0.10271 0.21957 -0.076901 -0.23102 -0.03294 -0.0073407 0.016806 0.11014 0.084325 -0.086787 0.10674 0.044896 0.0016957 0.081577 0.027927 0.16325 -0.05453 -0.055809 0.07072 0.27684 0.12828 0.036763 -0.020405 0.025848 -0.20918 -0.11534 -0.032272 -0.24496 -0.037066 0.027834 0.286 -0.19653 -0.005751 -0.039077 -0.2276 0.026599 -0.037615 0.087837 0.23075 -0.057192 0.082575 0.34721 0.17702 -0.15916 0.19364 0.14683 -0.10267 -0.040525 -0.072236 -0.01592 0.011856 0.0032651 0.26612 -0.13222 0.13209 0.12883 0.088256 0.11719 0.05582 0.072967 0.096925 0.0080045 -0.13792 0.073173 0.037562 0.16669 -0.21822 -0.14488 0.11028 0.1788 -0.1884 0.40593 0.17528 -0.16407 -0.24661 -0.10846 -0.0051538 -0.074523 -0.039259 
the 0.21105 0.03343 -0.0034059 -0.19783 0.013638 -0.18696 -0.0030625 -0.15998 -0.047382 -0.036306 0.029484 0.053819 -0.038371 0.19893 -0.13988 -0.15157 -0.066865 0.12437 0.088906 -0.077045 -0.010712 0.084521 0.21387 -0.088401 -0.25164 -0.036631 -0.013559 0.023916 0.12247 0.085415 -0.074498 0.10895 0.034757 0.0050884 0.087792 0.029621 0.17778 -0.072215 -0.062527 0.067007 0.28216 0.13975 0.049643 -0.034992 0.029083 -0.20956 -0.12771 -0.025826 -0.24998 -0.041766 0.060314 0.28954 -0.19717 -0.012999 -0.050495 -0.25126 0.050753 -0.051182 0.068228 0.23713 -0.055599 0.099816 0.36849 0.17147 -0.19494 0.20059 0.13575 -0.091325 -0.043865 -0.074121 -0.0032976 -0.01129 -0.0051444 0.3021 -0.12931 0.12294 0.14798 0.087619 0.11635 0.064774 0.079761 0.11091 -0.007134 -0.14992 0.079916 0.032142 0.2023 -0.22122 -0.13892 0.12418 0.16891 -0.20415 0.40487 0.20138 -0.14929 -0.26326 -0.10258 0.0090229 -0.058689 -0.039235 
to 0.20731 0.037991 -0.009013 -0.18717 0.0045678 -0.18795 -0.0017846 -0.16026 -0.050291 -0.032552 0.031275 0.060814 -0.037828 0.20331 -0.14054 -0.15512 -0.068059 0.12709 0.084348 -0.08389 -0.0030481 0.094605 0.22828 -0.083109 -0.26193 -0.037559 -0.0018629 0.019638 0.11268 0.079437 -0.082039 0.10364 0.034357 0.00016704 0.08368 0.034938 0.18579 -0.075762 -0.068794 0.070899 0.2878 0.13798 0.045721 -0.036387 0.030772 -0.22284 -0.12308 -0.026937 -0.26038 -0.042508 0.044296 0.30058 -0.20793 -0.014417 -0.047807 -0.25911 0.03949 -0.04938 0.0733 0.23846 -0.06717 0.09671 0.37567 0.17521 -0.19415 0.20498 0.14634 -0.09716 -0.03863 -0.074972 -0.0084852 -0.004757 -0.00018472 0.30307 -0.13239 0.1347 0.14891 0.098049 0.11842 0.066306 0.07998 0.11193 -0.00062313 -0.14986 0.086075 0.028558 0.201 -0.22591 -0.15004 0.12446 0.18111 -0.20861 0.41423 0.19545 -0.15917 -0.2634 -0.10668 0.0011223 -0.070469 -0.039381 
@EPFL_en 0.18995 0.02833 -0.0016565 -0.17218 0.0063996 -0.18514 -0.006965 -0.15355 -0.042414 -0.039955 0.037584 0.053113 -0.031415 0.20464 -0.13233 -0.15069 -0.073805 0.1156 0.082887 -0.085578 -0.0043723 0.10199 0.22475 -0.081898 -0.2438 -0.035551 -0.0055918 0.016907 0.11418 0.085843 -0.083266 0.10808 0.038821 0.0019294 0.086415 0.028245 0.1746 -0.064112 -0.060642 0.072848 0.28689 0.13361 0.043419 -0.02541 0.027667 -0.21453 -0.11896 -0.027113 -0.25588 -0.03893 0.036897 0.29778 -0.19892 -0.007754 -0.044123 -0.24308 0.034923 -0.043764 0.084414 0.23953 -0.058723 0.089865 0.35883 0.17838 -0.17255 0.1988 0.15053 -0.10258 -0.041932 -0.071848 -0.015413 0.0046624 -0.0015581 0.27961 -0.13639 0.13589 0.13744 0.091448 0.11838 0.061544 0.07997 0.10554 0.004881 -0.14182 0.075328 0.031143 0.18326 -0.22363 -0.14692 0.11528 0.18098 -0.19737 0.41895 0.18864 -0.16255 -0.25798 -0.11054 -0.0031244 -0.076887 -0.04273 
of 0.19881 0.031691 -0.0044551 -0.18267 0.010693 -0.18232 -0.011908 -0.15064 -0.047291 -0.030888 0.037358 0.056012 -0.031313 0.19935 -0.13829 -0.15102 -0.069292 0.11968 0.079307 -0.084004 -0.013945 0.096875 0.22127 -0.085755 -0.24329 -0.033838 -0.0042038 0.013633 0.10905 0.087238 -0.084535 0.10294 0.033054 0.0018907 0.084778 0.025549 0.17125 -0.075685 -0.067154 0.073752 0.2806 0.13191 0.051548 -0.025493 0.026713 -0.21239 -0.1245 -0.025125 -0.25225 -0.037721 0.040146 0.28592 -0.20355 -0.0034271 -0.049088 -0.24963 0.046739 -0.04293 0.073866 0.23234 -0.067007 0.09172 0.36417 0.17447 -0.17896 0.19756 0.14312 -0.098101 -0.046024 -0.067789 -0.013801 0.00066868 0.0024515 0.2867 -0.12637 0.1248 0.14982 0.089774 0.11145 0.066398 0.085268 0.11207 -0.00095341 -0.144 0.083642 0.032043 0.18743 -0.2175 -0.14636 0.11854 0.17385 -0.20266 0.40468 0.18962 -0.1579 -0.25223 -0.10694 0.0043258 -0.07551 -0.042439 
and 0.20079 0.033125 -0.0065161 -0.18946 0.011045 -0.18853 -0.0010994 -0.15876 -0.050791 -0.033975 0.037083 0.055679 -0.036056 0.19785 -0.13689 -0.15704 -0.067521 0.13002 0.085792 -0.082685 -0.0031356 0.099564 0.2198 -0.091073 -0.25766 -0.033034 -0.01284 0.021599 0.11587 0.083782 -0.077643 0.10167 0.031891 0.0035614 0.085226 0.033233 0.18544 -0.070937 -0.060201 0.068062 0.28306 0.1353 0.048237 -0.031988 0.024839 -0.21604 -0.12369 -0.024317 -0.2554 -0.044147 0.050894 0.30122 -0.19878 -0.01139 -0.047824 -0.25107 0.043342 -0.05214 0.073637 0.23717 -0.059757 0.098544 0.36455 0.16977 -0.18429 0.20824 0.14545 -0.097263 -0.040251 -0.066699 -0.011899 -0.0045083 -0.0023503 0.29909 -0.12674 0.13465 0.14877 0.09002 0.11702 0.060519 0.082638 0.11079 -0.0049208 -0.14739 0.079313 0.028138 0.20094 -0.22491 -0.14586 0.12309 0.17629 -0.20519 0.40915 0.19668 -0.16021 -0.26126 -0.10538 -0.00018461 -0.069947 -0.043575 
in 0.20031 0.034315 -0.0020746 -0.18768 0.017215 -0.19701 -0.0036516 -0.15959 -0.042365 -0.042581 0.04563 0.058691 -0.034604 0.21023 -0.13552 -0.15728 -0.070966 0.13053 0.08732 -0.089542 -0.0082265 0.10421 0.22558 -0.087906 -0.25811 -0.043493 -0.010834 0.018811 0.11713 0.080775 -0.090142 0.11156 0.038815 0.0015962 0.083467 0.028428 0.1859 -0.0784 -0.064553 0.074002 0.2955 0.13573 0.048144 -0.028113 0.031531 -0.22168 -0.1219 -0.030194 -0.26742 -0.039402 0.048004 0.31512 -0.20696 -0.0075739 -0.049735 -0.25934 0.042621 -0.047818 0.08688 0.24771 -0.06147 0.09399 0.37265 0.18084 -0.17964 0.21111 0.15642 -0.10018 -0.042848 -0.078908 -0.011738 0.002338 -0.00076444 0.29882 -0.13233 0.14221 0.14184 0.095846 0.11773 0.073169 0.081716 0.11144 0.001322 -0.14719 0.081018 0.034784 0.20182 -0.22891 -0.14961 0.11819 0.18383 -0.2079 0.42829 0.20308 -0.16838 -0.27515 -0.1134 -0.0027104 -0.076174 -0.048839 
a 0.20726 0.028823 0.00030985 -0.18846 0.0081117 -0.19822 -0.013699 -0.15601 -0.052176 -0.043471 0.026707 0.063052 -0.034544 0.21264 -0.14216 -0.16447 -0.065791 0.12655 0.093682 -0.082311 -0.014553 0.10115 0.22873 -0.087252 -0.25106 -0.041051 -0.0049099 0.0081999 0.12381 0.086258 -0.080332 0.11092 0.044626 0.0009696 0.077559 0.034173 0.18771 -0.067279 -0.064521 0.078011 0.294 0.13261 0.054769 -0.031273 0.031327 -0.22224 -0.12965 -0.027742 -0.26323 -0.039995 0.039583 0.30063 -0.20719 -0.0045387 -0.047141 -0.24934 0.035368 -0.050885 0.08574 0.24179 -0.065429 0.091861 0.37933 0.1937 -0.19039 0.19696 0.16264 -0.10515 -0.051647 -0.077263 -0.011607 -0.0019266 -0.0026915 0.29351 -0.12636 0.14434 0.13945 0.097899 0.12483 0.073251 0.08048 0.11105 0.0045605 -0.1524 0.081886 0.031965 0.19609 -0.22849 -0.14591 0.12692 0.18362 -0.19981 0.42998 0.20216 -0.16448 -0.26952 -0.11283 0.010873 -0.07316 -0.039991 
de 0.15871 0.012788 -0.0035495 -0.12146 -0.0047979 -0.15388 -0.026324 -0.12031 -0.016869 -0.0499 0.041626 0.043406 -0.0051048 0.19454 -0.12254 -0.14277 -0.093683 0.079792 0.067495 -0.099861 -0.010375 0.10821 0.21093 -0.05527 -0.20251 -0.03269 0.012185 0.013797 0.088927 0.091424 -0.10099 0.10526 0.062768 0.0018993 0.0752 0.026788 0.14399 -0.032398 -0.060693 0.077524 0.28033 0.11263 0.018689 -0.009652 0.02091 -0.20993 -0.1166 -0.022444 -0.24074 -0.027839 -0.0083244 0.26365 -0.19736 0.0053662 -0.035856 -0.20031 0.0011207 -0.014157 0.11878 0.23303 -0.048859 0.054044 0.32471 0.17762 -0.13056 0.1837 0.16613 -0.10769 -0.037115 -0.073382 -0.034692 0.028257 0.0069741 0.22904 -0.13996 0.1347 0.10538 0.081895 0.12958 0.040831 0.060119 0.074224 0.019109 -0.12343 0.054487 0.041518 0.1279 -0.21435 -0.14115 0.086433 0.17626 -0.16466 0.40335 0.13297 -0.17234 -0.2303 -0.11264 -0.010355 -0.076227 -0.0453 
for 0.206 0.03836 -0.012338 -0.18432 0.0066369 -0.19799 -0.0087235 -0.16234 -0.045488 -0.040092 0.033026 0.063029 -0.035733 0.20908 -0.14807 -0.15749 -0.07334 0.12736 0.084675 -0.08197 -0.0084376 0.10207 0.22383 -0.085627 -0.25876 -0.040182 -0.010708 0.015112 0.11839 0.089513 -0.082949 0.10943 0.035019 -0.0027443 0.084121 0.024438 0.18155 -0.070516 -0.063707 0.071641 0.2978 0.14176 0.046244 -0.031563 0.033452 -0.22267 -0.12848 -0.024758 -0.26369 -0.044441 0.04522 0.30695 -0.20579 -0.0058121 -0.048518 -0.2574 0.04173 -0.049544 0.082214 0.24395 -0.057374 0.09207 0.38368 0.18619 -0.19015 0.2159 0.15108 -0.10097 -0.043023 -0.071844 -0.016126 -0.0019922 0.0037854 0.30153 -0.13666 0.14011 0.14801 0.095557 0.12293 0.070989 0.082907 0.11002 0.00037783 -0.15482 0.087307 0.037839 0.19921 -0.22731 -0.15341 0.12435 0.18076 -0.21122 0.43025 0.19779 -0.1685 -0.272 -0.10744 -0.004083 -0.076734 -0.039858 
at 0.20627 0.035301 -0.0028278 -0.18993 0.010978 -0.18871 -0.0040943 -0.15415 -0.050214 -0.041182 0.030543 0.06098 -0.029605 0.20552 -0.13484 -0.15851 -0.069149 0.1242 0.079265 -0.085165 -0.0048666 0.10286 0.2243 -0.085561 -0.25918 -0.038326 -0.011938 0.019573 0.1146 0.084223 -0.082109 0.1149 0.037879 -0.0046399 0.081001 0.032082 0.18011 -0.068171 -0.063738 0.072965 0.29046 0.13326 0.046114 -0.031562 0.031325 -0.21743 -0.12285 -0.028569 -0.25512 -0.042922 0.045817 0.30265 -0.20718 -0.011993 -0.044782 -0.253 0.043128 -0.046812 0.078957 0.23916 -0.058413 0.093911 0.37613 0.18228 -0.18743 0.20979 0.1523 -0.097219 -0.049211 -0.075574 -0.013776 -0.0014951 0.0032178 0.30228 -0.1365 0.14109 0.14895 0.097645 0.12227 0.063424 0.084471 0.10843 -0.0057515 -0.14499 0.083321 0.032006 0.201 -0.22455 -0.14824 0.11995 0.18431 -0.20247 0.41703 0.20211 -0.16309 -0.26077 -0.11258 -0.006004 -0.074927 -0.041501 
on 0.19865 0.032004 -0.0072645 -0.18007 0.013177 -0.18733 -0.010568 -0.15184 -0.041319 -0.037774 0.035749 0.056798 -0.026073 0.20083 -0.13322 -0.15008 -0.076026 0.11865 0.080214 -0.086781 -0.0036539 0.10178 0.22514 -0.083549 -0.24313 -0.044547 -0.007606 0.026146 0.11145 0.085016 -0.083782 0.10749 0.044071 0.0061726 0.085349 0.030752 0.17676 -0.068408 -0.062354 0.074883 0.28913 0.13264 0.046938 -0.038423 0.033218 -0.21769 -0.12832 -0.028838 -0.24843 -0.036264 0.044227 0.29433 -0.20211 -0.0087689 -0.051394 -0.2433 0.034612 -0.046774 0.079043 0.23312 -0.05524 0.093342 0.36906 0.17522 -0.18335 0.2051 0.14215 -0.10233 -0.040959 -0.072533 -0.012926 -0.00015308 0.006052 0.29431 -0.12876 0.13134 0.14417 0.089073 0.11212 0.072497 0.073021 0.10383 0.0023402 -0.14607 0.076828 0.03117 0.19502 -0.2252 -0.14673 0.11539 0.17275 -0.20359 0.41026 0.18382 -0.15742 -0.26335 -0.10222 -0.0010325 -0.07422 -0.040901 
#epfl 0.1869 0.027446 -0.0025895 -0.16539 0.0046259 -0.18101 -0.012411 -0.14875 -0.038096 -0.041259 0.04042 0.054471 -0.03004 0.19792 -0.13723 -0.14581 -0.07645 0.11425 0.074976 -0.087061 -0.00807 0.10332 0.21593 -0.07473 -0.23375 -0.035249 -0.0020264 0.021914 0.11106 0.086504 -0.082979 0.10894 0.041289 0.00014903 0.081253 0.029059 0.16653 -0.061078 -0.065582 0.067872 0.28424 0.128 0.038476 -0.024614 0.026796 -0.21441 -0.12162 -0.025996 -0.24608 -0.0397 0.031003 0.28847 -0.19967 -0.0047109 -0.043667 -0.23655 0.027148 -0.040556 0.086511 0.2362 -0.056543 0.079373 0.35355 0.18161 -0.16755 0.20023 0.15167 -0.10296 -0.043569 -0.071392 -0.021899 0.0062092 0.0039736 0.2736 -0.13052 0.13515 0.13076 0.089893 0.12102 0.060279 0.076528 0.10173 0.0033919 -0.13775 0.074155 0.035651 0.17405 -0.21679 -0.14658 0.11287 0.17683 -0.1919 0.4059 0.17668 -0.1601 -0.2525 -0.10763 -0.0045378 -0.072856 -0.039541 
with 0.20079 0.033096 -0.0019491 -0.18226 0.008774 -0.1933 -0.0060247 -0.15922 -0.044479 -0.03507 0.039647 0.0582 -0.032076 0.21066 -0.13916 -0.15875 -0.076747 0.12277 0.083734 -0.087679 -0.0084181 0.10397 0.22955 -0.087167 -0.25712 -0.035503 -0.0057098 0.012636 0.12028 0.087888 -0.083614 0.10999 0.03847 -0.001338 0.086279 0.0307 0.17832 -0.068316 -0.067499 0.074198 0.29505 0.13831 0.042647 -0.030505 0.027604 -0.22306 -0.12638 -0.021575 -0.25772 -0.04105 0.039414 0.30904 -0.20391 -0.009845 -0.046558 -0.25727 0.032866 -0.044387 0.084076 0.2458 -0.065167 0.093782 0.37089 0.18836 -0.18099 0.20711 0.15948 -0.10242 -0.043805 -0.077099 -0.013485 0.00303 -0.00054603 0.29632 -0.13611 0.14142 0.15109 0.093424 0.12199 0.066152 0.083764 0.11048 0.0012488 -0.14976 0.078298 0.034059 0.19294 -0.23232 -0.15229 0.11965 0.18407 -0.20572 0.4265 0.19274 -0.17161 -0.26887 -0.10895 -0.00074386 -0.077839 -0.039073 
via 0.18776 0.030444 -0.0078304 -0.16747 0.003412 -0.17575 -0.011354 -0.14856 -0.037737 -0.038613 0.038225 0.05481 -0.029117 0.20035 -0.12952 -0.14344 -0.074544 0.11497 0.075068 -0.088316 -0.0056836 0.095933 0.21772 -0.07261 -0.23439 -0.033789 -0.0034899 0.016857 0.1054 0.084817 -0.08496 0.10306 0.042234 0.0002169 0.08001 0.029055 0.16969 -0.063653 -0.060376 0.069997 0.27784 0.12829 0.035538 -0.027103 0.024565 -0.20948 -0.11995 -0.025862 -0.24538 -0.036614 0.029331 0.29197 -0.20244 -0.0089653 -0.043966 -0.23308 0.035288 -0.039687 0.087522 0.2303 -0.05357 0.083021 0.34764 0.17685 -0.16756 0.19184 0.14983 -0.093128 -0.043209 -0.071251 -0.018395 0.0063588 -9.0097e-05 0.27095 -0.13004 0.13124 0.1373 0.087354 0.11763 0.055937 0.075189 0.10191 0.0013879 -0.14143 0.075685 0.037442 0.17385 -0.2199 -0.15055 0.11145 0.17496 -0.18854 0.40514 0.1741 -0.16114 -0.25155 -0.10333 -0.0028921 -0.074729 -0.04338 
is 0.2043 0.036748 -0.0029827 -0.18382 0.007985 -0.19202 -0.012012 -0.156 -0.039065 -0.035781 0.039894 0.061156 -0.038419 0.20443 -0.13829 -0.15602 -0.073944 0.12664 0.082746 -0.084724 -0.0074444 0.10319 0.23026 -0.081806 -0.25488 -0.034614 -0.0052902 0.020459 0.12105 0.08385 -0.085535 0.10521 0.038469 -0.0010458 0.082309 0.032348 0.18356 -0.071333 -0.063461 0.070627 0.289 0.13484 0.047076 -0.029379 0.028395 -0.21536 -0.1281 -0.028855 -0.25286 -0.041586 0.044534 0.30033 -0.20301 -0.011074 -0.044285 -0.25005 0.042059 -0.048643 0.080459 0.23629 -0.056513 0.086515 0.36843 0.18457 -0.18 0.20751 0.15229 -0.10415 -0.047234 -0.070121 -0.017058 -0.002636 0.00079553 0.29565 -0.1329 0.1407 0.14199 0.090244 0.12678 0.071077 0.073659 0.11399 -0.0013854 -0.14524 0.084071 0.036586 0.187 -0.22857 -0.14314 0.12204 0.18384 -0.19925 0.41872 0.19874 -0.16206 -0.26877 -0.10852 0.0023437 -0.069479 -0.0388 
la 0.17019 0.022608 -0.0057541 -0.13802 -0.0049671 -0.1703 -0.02497 -0.12755 -0.020169 -0.050259 0.044289 0.052183 -0.022082 0.19916 -0.12259 -0.14707 -0.086723 0.089549 0.06726 -0.10055 -0.014452 0.11331 0.21589 -0.066867 -0.22461 -0.032137 0.0072142 0.013381 0.094992 0.092462 -0.10094 0.09724 0.055897 0.006638 0.076564 0.030668 0.15501 -0.04291 -0.059653 0.068271 0.28705 0.11904 0.025666 -0.010732 0.022062 -0.21208 -0.11783 -0.021282 -0.24735 -0.032093 0.0016154 0.28035 -0.20846 0.0028313 -0.037416 -0.21634 0.0088306 -0.023004 0.11006 0.23486 -0.054338 0.065552 0.33768 0.18821 -0.14748 0.19819 0.16526 -0.10563 -0.040662 -0.070801 -0.03355 0.024901 0.011142 0.24617 -0.13507 0.13475 0.11047 0.086079 0.1278 0.059316 0.069048 0.084783 0.011541 -0.1354 0.069399 0.042726 0.14776 -0.2162 -0.14995 0.095112 0.18463 -0.1797 0.41313 0.15128 -0.16906 -0.2368 -0.10914 -0.0094838 -0.079984 -0.044553 
à 0.16412 0.029435 -0.0075645 -0.1395 -0.0022973 -0.16676 -0.0347 -0.12046 -0.014022 -0.045468 0.036164 0.054111 -0.010724 0.20001 -0.12088 -0.13941 -0.09426 0.088702 0.065751 -0.10313 -0.018374 0.11602 0.21 -0.053339 -0.21419 -0.032126 0.016651 0.0025434 0.09067 0.082047 -0.10482 0.09217 0.058589 0.0093776 0.067022 0.026695 0.15205 -0.043556 -0.064641 0.079682 0.28299 0.11405 0.017182 -0.01025 0.028129 -0.21812 -0.13003 -0.016085 -0.23863 -0.033219 -0.0075826 0.2823 -0.21263 0.007407 -0.041126 -0.20339 0.00052303 -0.01371 0.12037 0.23295 -0.039127 0.054618 0.34385 0.19043 -0.14305 0.1881 0.17078 -0.10783 -0.041175 -0.074294 -0.041696 0.030814 0.015398 0.2309 -0.13535 0.13224 0.11513 0.08359 0.12102 0.04089 0.064448 0.074374 0.010603 -0.12988 0.073033 0.050513 0.14045 -0.2084 -0.14296 0.090596 0.18221 -0.17518 0.40747 0.13781 -0.17153 -0.2401 -0.11684 -0.011572 -0.082748 -0.04106 
- 0.18495 0.025374 0.0037044 -0.16651 0.0098022 -0.17167 -0.00659 -0.15251 -0.03965 -0.038126 0.03711 0.047236 -0.024049 0.19445 -0.12867 -0.14931 -0.076331 0.10637 0.076175 -0.090457 -0.00032928 0.10293 0.22209 -0.082494 -0.23682 -0.039002 -0.0022666 0.022133 0.11573 0.088269 -0.078339 0.10796 0.043647 0.0098137 0.081712 0.02745 0.15998 -0.055846 -0.061334 0.064986 0.28121 0.13248 0.040038 -0.022215 0.036074 -0.20898 -0.12498 -0.031923 -0.24667 -0.04793 0.037947 0.2952 -0.19288 -0.0036817 -0.048774 -0.24029 0.031808 -0.045831 0.084154 0.23105 -0.064058 0.082099 0.34608 0.18224 -0.16132 0.19992 0.15703 -0.096281 -0.044795 -0.063715 -0.024462 3.1305e-05 0.0044354 0.27237 -0.13767 0.13595 0.13788 0.086958 0.11687 0.065085 0.075825 0.10444 -0.0014441 -0.14171 0.075108 0.039071 0.17128 -0.22025 -0.14171 0.11081 0.17499 -0.19767 0.4116 0.17011 -0.1665 -0.24989 -0.11059 -0.0028758 -0.077574 -0.038966 
by 0.20439 0.036704 -0.0081128 -0.17651 0.0073517 -0.18795 -0.0055223 -0.1607 -0.039497 -0.036997 0.041271 0.062242 -0.029767 0.2117 -0.13693 -0.15604 -0.072026 0.12361 0.089146 -0.090207 -0.011986 0.10422 0.23764 -0.082849 -0.25815 -0.039097 -0.0027944 0.01309 0.11714 0.087568 -0.089718 0.10867 0.039873 0.0029346 0.081911 0.033125 0.18447 -0.064812 -0.059652 0.07835 0.30052 0.13733 0.045487 -0.034874 0.027138 -0.22076 -0.13092 -0.028424 -0.26789 -0.037268 0.043911 0.30446 -0.21245 -0.0062616 -0.046365 -0.2555 0.038809 -0.044901 0.087484 0.24556 -0.057187 0.086168 0.37894 0.18883 -0.18485 0.21017 0.16138 -0.1034 -0.04306 -0.078931 -0.014223 0.0027498 0.0016619 0.30383 -0.13664 0.14208 0.14492 0.097355 0.11965 0.06625 0.07604 0.10994 0.0028078 -0.15164 0.083705 0.035969 0.196 -0.2251 -0.15243 0.11867 0.18802 -0.2006 0.4362 0.1958 -0.17412 -0.2728 -0.11014 -0.0029664 -0.083118 -0.042989 
#EPFL 0.19298 0.030944 -0.0031655 -0.16811 0.003315 -0.18973 -0.013149 -0.15631 -0.038996 -0.04499 0.04105 0.054164 -0.028005 0.21359 -0.13431 -0.15416 -0.080385 0.11329 0.084904 -0.093984 -0.0086489 0.11008 0.23245 -0.079077 -0.24836 -0.035661 -0.0070295 0.018186 0.11193 0.092141 -0.094529 0.11316 0.047968 0.0017186 0.084673 0.031856 0.17336 -0.060787 -0.062985 0.076577 0.29609 0.13536 0.038856 -0.02431 0.028828 -0.22443 -0.12691 -0.031177 -0.26308 -0.040153 0.027626 0.30747 -0.21127 -0.0057282 -0.043741 -0.24678 0.029086 -0.036695 0.095392 0.24823 -0.0578 0.086288 0.36791 0.18627 -0.17326 0.21051 0.16144 -0.10816 -0.044317 -0.076296 -0.02258 0.016665 0.0012883 0.28036 -0.13909 0.13999 0.13881 0.095526 0.12845 0.061898 0.078992 0.104 0.0056017 -0.14523 0.077416 0.040883 0.1782 -0.23346 -0.1543 0.11569 0.1909 -0.20078 0.43475 0.18121 -0.17752 -0.26222 -0.11634 -0.0042589 -0.080838 -0.046944 
et 0.16936 0.024894 -0.0029964 -0.14043 -0.0055895 -0.16634 -0.022109 -0.13411 -0.022802 -0.046165 0.048334 0.052016 -0.019868 0.20368 -0.12996 -0.14136 -0.090988 0.098331 0.069532 -0.096982 -0.014719 0.11811 0.21937 -0.062843 -0.22751 -0.032047 0.0078705 0.013633 0.097279 0.087333 -0.10129 0.10726 0.061843 0.011714 0.076186 0.033515 0.15455 -0.041928 -0.056452 0.080454 0.28863 0.11838 0.019206 -0.018957 0.027446 -0.22017 -0.1254 -0.02627 -0.24534 -0.034022 0.0030748 0.28437 -0.20504 0.0084206 -0.040151 -0.21402 0.0051776 -0.023331 0.1168 0.24128 -0.050663 0.065378 0.34133 0.1929 -0.14822 0.18587 0.16942 -0.10927 -0.038082 -0.080568 -0.031903 0.024892 0.0055114 0.24952 -0.14223 0.1369 0.11942 0.077225 0.12477 0.053052 0.062005 0.085944 0.013687 -0.13586 0.062546 0.049518 0.14442 -0.22532 -0.15076 0.09812 0.17953 -0.18295 0.41002 0.14618 -0.17427 -0.24612 -0.11507 -0.01021 -0.078612 -0.040046 
from 0.19644 0.032937 -0.0026307 -0.17969 0.0050299 -0.18443 -0.0089229 -0.15657 -0.040781 -0.043023 0.036934 0.055225 -0.031263 0.20934 -0.13946 -0.15169 -0.074383 0.121 0.079395 -0.087344 -0.010122 0.10265 0.22657 -0.081044 -0.25268 -0.040292 -0.0046593 0.01591 0.11738 0.08738 -0.087169 0.10532 0.042171 0.001113 0.089014 0.030839 0.18066 -0.069165 -0.064012 0.068333 0.29395 0.13609 0.043082 -0.032522 0.026172 -0.21936 -0.12328 -0.024219 -0.25425 -0.040645 0.041179 0.29806 -0.20907 -0.0058608 -0.047699 -0.24884 0.034295 -0.045203 0.083846 0.24212 -0.058685 0.088801 0.36927 0.18339 -0.18097 0.20598 0.15408 -0.1037 -0.043407 -0.072367 -0.011987 0.0029434 -0.002176 0.29202 -0.13466 0.13241 0.13972 0.090913 0.11874 0.066567 0.078842 0.10355 0.0033029 -0.14405 0.081215 0.033871 0.18962 -0.22873 -0.15176 0.11789 0.17805 -0.20293 0.41809 0.18985 -0.16245 -0.26213 -0.10919 0.00097611 -0.077717 -0.040194 
&amp; 0.20259 0.030794 -0.0043535 -0.17809 0.0025812 -0.19231 -0.010752 -0.1589 -0.039808 -0.042158 0.042233 0.060455 -0.031528 0.2102 -0.143 -0.15732 -0.077544 0.11901 0.084756 -0.089059 -0.0055319 0.10877 0.23021 -0.08248 -0.25509 -0.038867 -0.0032387 0.016248 0.11609 0.091063 -0.089832 0.11154 0.04499 0.0015933 0.08623 0.029581 0.18185 -0.065465 -0.065353 0.077072 0.29814 0.13485 0.043934 -0.031307 0.032226 -0.22594 -0.12808 -0.025744 -0.26021 -0.041059 0.039518 0.30598 -0.20998 -0.0071742 -0.046859 -0.25091 0.034495 -0.046378 0.088812 0.24679 -0.064064 0.087456 0.37407 0.18811 -0.18268 0.21204 0.15811 -0.10839 -0.041298 -0.075452 -0.015925 0.0012796 0.0018264 0.29504 -0.1414 0.13913 0.14229 0.09775 0.12636 0.064264 0.080895 0.1096 0.00068726 -0.15135 0.080412 0.038047 0.19104 -0.23283 -0.15083 0.11978 0.18818 -0.20715 0.43418 0.19308 -0.16813 -0.26877 -0.11281 -0.0038954 -0.076886 -0.039687 
les 0.16511 0.02146 -0.0014348 -0.13159 -0.0090169 -0.16345 -0.023722 -0.128 -0.02531 -0.043215 0.040386 0.053194 -0.01735 0.18828 -0.12005 -0.13745 -0.084054 0.090946 0.07047 -0.09454 -0.0092916 0.11002 0.20762 -0.059952 -0.20943 -0.033328 0.0027372 0.0052179 0.089596 0.085548 -0.096183 0.097375 0.04828 0.005868 0.073512 0.021084 0.15041 -0.046952 -0.055681 0.070128 0.27099 0.11713 0.026761 -0.018567 0.018311 -0.20002 -0.11636 -0.026518 -0.23264 -0.028225 0.0077891 0.26456 -0.19758 0.0071794 -0.041917 -0.20261 0.012195 -0.025781 0.1078 0.22399 -0.047349 0.061485 0.32697 0.17658 -0.14253 0.17967 0.15702 -0.10223 -0.038101 -0.073358 -0.029907 0.026917 0.0072498 0.23706 -0.13333 0.13193 0.11429 0.082538 0.122 0.045344 0.05977 0.080438 0.011004 -0.12213 0.058784 0.039326 0.13844 -0.20925 -0.13943 0.092644 0.17546 -0.17261 0.39282 0.14449 -0.16257 -0.23384 -0.10844 -0.010498 -0.077069 -0.040259 
des 0.17162 0.024878 -0.00054259 -0.13438 -0.011854 -0.16984 -0.027982 -0.13138 -0.019522 -0.0512 0.046921 0.054262 -0.018015 0.20819 -0.12529 -0.1479 -0.093698 0.090926 0.071812 -0.10197 -0.010475 0.11993 0.22449 -0.059733 -0.22074 -0.029983 0.0066733 0.0092812 0.096297 0.090889 -0.11161 0.10879 0.061792 0.0093227 0.074169 0.027497 0.15611 -0.040058 -0.060056 0.077693 0.28962 0.12192 0.019774 -0.012336 0.021101 -0.22032 -0.12759 -0.021266 -0.24583 -0.02502 -0.0084532 0.28421 -0.21109 0.008209 -0.037957 -0.21388 0.0087904 -0.02331 0.12547 0.23781 -0.049519 0.057042 0.35002 0.1902 -0.1422 0.1944 0.17031 -0.11034 -0.038418 -0.078471 -0.041428 0.029045 0.010616 0.24453 -0.14655 0.13937 0.11476 0.087508 0.13134 0.046707 0.067293 0.08542 0.012541 -0.12707 0.064995 0.04315 0.14357 -0.22732 -0.15283 0.097672 0.19293 -0.17986 0.42357 0.14624 -0.1781 -0.2465 -0.1159 -0.010278 -0.077863 -0.040788 
pour 0.16996 0.022348 -0.0041331 -0.13616 -0.00048391 -0.16456 -0.017948 -0.12742 -0.025113 -0.042806 0.040023 0.051384 -0.017932 0.19162 -0.12279 -0.14192 -0.08464 0.089376 0.071576 -0.089056 -0.010476 0.10434 0.21071 -0.062915 -0.21757 -0.029238 0.0043374 0.011531 0.097642 0.088551 -0.097335 0.10419 0.051616 0.0034985 0.076023 0.02503 0.14841 -0.044565 -0.057624 0.066934 0.27474 0.11744 0.025012 -0.015569 0.0228 -0.20667 -0.11632 -0.024242 -0.23499 -0.034669 0.0081657 0.27171 -0.19942 -0.00011528 -0.038811 -0.20965 0.012912 -0.027339 0.10592 0.22901 -0.048114 0.060566 0.33351 0.17895 -0.14468 0.18696 0.15908 -0.10303 -0.037785 -0.071986 -0.029876 0.020006 0.0051149 0.23967 -0.13218 0.13031 0.11624 0.079695 0.1223 0.052177 0.06816 0.08391 0.010541 -0.12934 0.063062 0.045163 0.14493 -0.20814 -0.14281 0.094332 0.17479 -0.17462 0.39409 0.14824 -0.16413 -0.23472 -0.10394 -0.0079262 -0.069626 -0.038877 
le 0.17266 0.023782 -0.0028537 -0.13975 -0.0082011 -0.17032 -0.029116 -0.13947 -0.03113 -0.04424 0.049109 0.059326 -0.020638 0.20191 -0.12643 -0.15329 -0.087054 0.097069 0.069124 -0.098275 -0.013556 0.12021 0.22194 -0.064506 -0.23135 -0.038442 0.0042719 0.0057168 0.10198 0.097245 -0.10392 0.11041 0.058863 0.0058344 0.076995 0.021538 0.15641 -0.051582 -0.057161 0.078408 0.29913 0.12219 0.020368 -0.022292 0.028255 -0.21658 -0.11982 -0.024618 -0.25041 -0.035027 0.005874 0.28721 -0.21091 0.0055878 -0.041103 -0.21081 0.0091431 -0.031301 0.11901 0.23924 -0.055747 0.063873 0.34535 0.1893 -0.15049 0.19087 0.1654 -0.1087 -0.043502 -0.079261 -0.033403 0.028159 0.0039608 0.25036 -0.14103 0.13972 0.12132 0.084128 0.12463 0.048862 0.060614 0.08394 0.012054 -0.13734 0.06631 0.047541 0.15272 -0.22321 -0.15408 0.10928 0.18736 -0.18075 0.42366 0.16078 -0.17355 -0.25456 -0.1162 -0.016239 -0.07552 -0.040656 
en 0.1594 0.022218 -0.0034039 -0.13704 -0.0042044 -0.163 -0.023554 -0.12971 -0.02585 -0.045161 0.046663 0.045679 -0.025462 0.19424 -0.10818 -0.13726 -0.084891 0.087451 0.072749 -0.087805 -0.013647 0.10858 0.20694 -0.060011 -0.21994 -0.030709 0.0077174 0.010387 0.096464 0.085116 -0.095128 0.10711 0.049408 0.00020316 0.075711 0.028275 0.15258 -0.056485 -0.051814 0.068533 0.27262 0.11606 0.026431 -0.015092 0.021276 -0.20279 -0.11827 -0.01994 -0.23433 -0.03125 0.014675 0.27803 -0.19344 0.0057429 -0.039376 -0.20581 0.011224 -0.03015 0.099646 0.22892 -0.048324 0.068665 0.32322 0.17646 -0.14823 0.18506 0.15757 -0.10684 -0.034814 -0.075586 -0.024895 0.01665 0.0036257 0.23192 -0.13344 0.1311 0.11585 0.082229 0.11674 0.047704 0.074337 0.086509 0.012326 -0.12917 0.062378 0.035091 0.149 -0.209 -0.14053 0.091696 0.17331 -0.17682 0.39723 0.15253 -0.16059 -0.23243 -0.10183 -0.010131 -0.082332 -0.039271 
! 0.18699 0.020553 -0.003211 -0.16217 -0.0033765 -0.18453 -0.021995 -0.1443 -0.035971 -0.037817 0.040633 0.047693 -0.025861 0.20603 -0.12775 -0.15678 -0.086357 0.11569 0.075789 -0.089856 -0.0081392 0.11306 0.21923 -0.076978 -0.23458 -0.036241 -0.0061834 0.020691 0.11212 0.092054 -0.10002 0.10585 0.046321 0.0084197 0.089342 0.032632 0.17431 -0.058602 -0.057222 0.073195 0.28498 0.13188 0.031583 -0.023933 0.02156 -0.21838 -0.12551 -0.021213 -0.24318 -0.041287 0.024225 0.29558 -0.20819 -0.0072261 -0.047999 -0.23065 0.020842 -0.029164 0.098081 0.2456 -0.049524 0.082141 0.3607 0.18922 -0.16435 0.20722 0.1603 -0.10499 -0.043984 -0.075377 -0.026232 0.014869 0.0073724 0.27164 -0.13914 0.13523 0.13495 0.089164 0.12719 0.049363 0.072863 0.094885 0.0080195 -0.14015 0.073476 0.044432 0.16829 -0.22329 -0.15682 0.10651 0.1802 -0.19628 0.42147 0.16586 -0.17032 -0.24881 -0.10968 -0.01025 -0.083555 -0.050331 
The 0.19151 0.035276 -0.0042879 -0.17647 0.0057603 -0.19189 -0.013666 -0.15355 -0.038879 -0.044953 0.034049 0.059886 -0.029498 0.20651 -0.13748 -0.15234 -0.077168 0.11423 0.080107 -0.092779 -0.008803 0.10104 0.22548 -0.076912 -0.24466 -0.03827 -0.0078725 0.011627 0.11921 0.088203 -0.081704 0.10568 0.041962 0.00066487 0.083486 0.030931 0.17518 -0.067818 -0.062958 0.073133 0.29241 0.13355 0.043582 -0.027216 0.029236 -0.21569 -0.12331 -0.032609 -0.2541 -0.044355 0.040083 0.30198 -0.20448 -0.0074247 -0.047484 -0.24846 0.035022 -0.041864 0.085813 0.23933 -0.058568 0.084069 0.36482 0.18319 -0.18056 0.20201 0.15136 -0.1026 -0.037819 -0.07209 -0.018822 0.005186 0.0037608 0.28913 -0.13548 0.13583 0.13922 0.086869 0.12084 0.061724 0.082134 0.11232 0.0053593 -0.14068 0.077409 0.036664 0.18412 -0.22679 -0.14627 0.12162 0.18217 -0.20558 0.41725 0.18669 -0.16677 -0.25856 -0.10778 0.0036255 -0.080875 -0.038927 
you 0.21148 0.031008 -0.0020005 -0.18923 0.0052298 -0.20319 -0.0058455 -0.16352 -0.050397 -0.038407 0.042959 0.065374 -0.037029 0.21389 -0.14469 -0.16299 -0.072767 0.13089 0.088497 -0.086049 -0.0047595 0.10816 0.23756 -0.09231 -0.26138 -0.034667 -0.0069714 0.015235 0.12315 0.086015 -0.089869 0.12056 0.035366 0.00067607 0.08846 0.031731 0.18985 -0.070824 -0.06933 0.0727 0.30541 0.14257 0.047714 -0.033058 0.031443 -0.23326 -0.1331 -0.029922 -0.26792 -0.044891 0.045283 0.3143 -0.21496 -0.0068761 -0.051935 -0.26526 0.041996 -0.048768 0.089338 0.25619 -0.057921 0.094281 0.38541 0.19169 -0.19098 0.21603 0.16218 -0.10455 -0.039952 -0.078949 -0.012343 -0.0039389 0.0010167 0.30379 -0.1423 0.1364 0.14889 0.099219 0.12661 0.071436 0.082405 0.11328 0.0021254 -0.15087 0.078713 0.036909 0.19823 -0.23412 -0.15063 0.12528 0.18677 -0.21293 0.43582 0.19948 -0.17272 -0.27287 -0.11477 0.00224 -0.072972 -0.044268 
are 0.20189 0.02984 -0.00036239 -0.17559 0.0078255 -0.19738 -0.013244 -0.15276 -0.0429 -0.039825 0.037215 0.054286 -0.029579 0.21646 -0.13652 -0.15837 -0.078389 0.11778 0.085819 -0.091861 -0.010321 0.11244 0.22752 -0.08458 -0.25544 -0.035613 -0.0043652 0.012904 0.11759 0.089101 -0.089475 0.11068 0.044874 0.0025924 0.084379 0.033788 0.18032 -0.06906 -0.06499 0.073466 0.30058 0.13706 0.042894 -0.027911 0.031967 -0.2259 -0.12861 -0.024168 -0.26418 -0.043975 0.039172 0.30834 -0.20788 -0.0065631 -0.049559 -0.25111 0.031433 -0.039845 0.091876 0.2512 -0.061466 0.081426 0.37598 0.19045 -0.18423 0.20995 0.16421 -0.10827 -0.043765 -0.078198 -0.02213 0.0059799 0.0018203 0.29454 -0.13762 0.13732 0.14096 0.092903 0.12718 0.060873 0.077467 0.10935 0.00069444 -0.15474 0.078764 0.036087 0.19046 -0.22961 -0.14916 0.11838 0.18529 -0.20343 0.43396 0.19452 -0.17357 -0.26846 -0.11481 -0.0043312 -0.076611 -0.043617 
an 0.19697 0.029938 -0.00030625 -0.18306 0.009894 -0.19505 -0.0031368 -0.15845 -0.046607 -0.039977 0.043379 0.055479 -0.0329 0.21188 -0.13092 -0.15064 -0.068423 0.12269 0.08976 -0.085646 -0.0020663 0.10846 0.22694 -0.085233 -0.25933 -0.032644 -0.0085884 0.018664 0.11881 0.087916 -0.086598 0.10728 0.035256 0.0018088 0.085065 0.029462 0.18209 -0.077883 -0.067194 0.071329 0.29197 0.1359 0.049131 -0.029662 0.026731 -0.22191 -0.12418 -0.026196 -0.25818 -0.035028 0.04922 0.30916 -0.20981 -0.0041422 -0.044966 -0.24907 0.035489 -0.047257 0.080229 0.24646 -0.056141 0.094675 0.37349 0.18157 -0.1773 0.20913 0.15025 -0.10725 -0.042116 -0.076674 -0.019328 -0.0035181 0.00021732 0.29345 -0.13673 0.13087 0.13891 0.098187 0.12628 0.063158 0.087822 0.10477 -0.0054113 -0.14755 0.080974 0.031912 0.19974 -0.23037 -0.15326 0.11716 0.17489 -0.20235 0.42313 0.1945 -0.1613 -0.26747 -0.10876 -0.0017273 -0.082866 -0.044277 
our 0.20509 0.027742 -0.00052562 -0.17332 0.0025153 -0.19155 -0.018067 -0.15195 -0.036235 -0.041161 0.046437 0.057041 -0.027092 0.22097 -0.13839 -0.16064 -0.086251 0.11007 0.081324 -0.092854 -0.010877 0.11456 0.23729 -0.081416 -0.25516 -0.034352 0.00034979 0.01131 0.11482 0.093867 -0.098478 0.11026 0.050463 0.0079322 0.083412 0.028448 0.1795 -0.057732 -0.066588 0.078791 0.31301 0.1431 0.033266 -0.026583 0.030406 -0.23333 -0.13349 -0.029158 -0.26764 -0.039171 0.025909 0.31696 -0.21866 -0.0067055 -0.049644 -0.25333 0.028848 -0.039469 0.10437 0.25789 -0.058666 0.076639 0.38437 0.19895 -0.17752 0.21191 0.17119 -0.10966 -0.038865 -0.080901 -0.025354 0.010926 0.0061336 0.28872 -0.14871 0.14295 0.13815 0.096605 0.13165 0.062245 0.077085 0.10533 0.0038915 -0.1497 0.077305 0.046814 0.18389 -0.23896 -0.16211 0.11672 0.19679 -0.20494 0.44699 0.18685 -0.18065 -0.27336 -0.11587 -0.0031893 -0.080104 -0.042763 
#VDtech 0.17857 0.02823 -0.0024843 -0.15735 0.0060586 -0.1718 -0.010384 -0.13786 -0.038143 -0.037872 0.036487 0.05389 -0.027229 0.18729 -0.12518 -0.13972 -0.07097 0.10784 0.075868 -0.081718 -0.0075125 0.098381 0.20615 -0.075425 -0.22806 -0.034873 -0.0047631 0.014807 0.10355 0.08177 -0.083051 0.09813 0.038155 0.0032537 0.078924 0.025457 0.16015 -0.061185 -0.059682 0.067454 0.26885 0.12051 0.039762 -0.025606 0.025787 -0.20233 -0.1136 -0.026334 -0.23661 -0.037454 0.034334 0.27544 -0.18731 -0.0042669 -0.041978 -0.22332 0.028841 -0.038271 0.081231 0.22171 -0.05279 0.0774 0.33471 0.17134 -0.15841 0.18656 0.14416 -0.094572 -0.038027 -0.068186 -0.015584 0.0045395 0.0042732 0.26062 -0.12778 0.12579 0.12542 0.084697 0.11259 0.057644 0.06979 0.097629 0.0045718 -0.13361 0.070921 0.031194 0.16864 -0.20791 -0.1379 0.10567 0.16884 -0.18487 0.39066 0.17322 -0.15265 -0.23998 -0.098583 -0.0034875 -0.071696 -0.038602 
that 0.20625 0.031821 0.0026566 -0.18523 0.0058885 -0.18768 -0.0087359 -0.15359 -0.049898 -0.03921 0.035769 0.055831 -0.032617 0.20443 -0.1454 -0.15319 -0.068154 0.12417 0.085325 -0.083772 -0.0078252 0.099382 0.22406 -0.087467 -0.25014 -0.032632 -0.0090693 0.020409 0.12038 0.082885 -0.078911 0.10681 0.035964 0.0040736 0.085982 0.028059 0.18273 -0.068333 -0.066493 0.070284 0.29194 0.1374 0.045128 -0.029257 0.032522 -0.22052 -0.12844 -0.025656 -0.25542 -0.041547 0.047042 0.29891 -0.20447 -0.0082351 -0.049604 -0.25077 0.04203 -0.045531 0.081541 0.24201 -0.057474 0.095107 0.37077 0.18228 -0.18818 0.20131 0.15199 -0.09817 -0.046236 -0.074024 -0.011863 -0.0026536 -0.0022434 0.29498 -0.13561 0.13042 0.14767 0.095172 0.12215 0.065578 0.082503 0.10739 -0.0020618 -0.14568 0.080433 0.031952 0.19528 -0.2259 -0.14582 0.12337 0.18097 -0.20544 0.41967 0.19973 -0.16287 -0.26676 -0.10523 0.00088254 -0.068467 -0.039863 
du 0.16696 0.026756 -0.0039981 -0.14918 -0.00012668 -0.1604 -0.020271 -0.13137 -0.027815 -0.041694 0.038382 0.05132 -0.02187 0.19307 -0.1167 -0.13602 -0.073965 0.094115 0.065394 -0.085912 -0.0027111 0.095882 0.19997 -0.068321 -0.21581 -0.033311 0.0042699 0.011705 0.095156 0.083433 -0.088372 0.1013 0.045347 0.0009475 0.068687 0.023654 0.15491 -0.054957 -0.060209 0.064802 0.26776 0.11141 0.033434 -0.019671 0.020408 -0.20305 -0.1115 -0.022807 -0.22781 -0.027202 0.015573 0.26611 -0.19054 0.0018609 -0.038537 -0.21069 0.018636 -0.026946 0.092394 0.21739 -0.047597 0.067475 0.3267 0.17174 -0.14676 0.18163 0.15043 -0.10005 -0.037696 -0.06617 -0.019 0.014867 0.0030154 0.25022 -0.12632 0.12557 0.12155 0.079615 0.11511 0.04857 0.071213 0.084788 0.012235 -0.13536 0.065782 0.042324 0.14935 -0.206 -0.13867 0.10159 0.17271 -0.17215 0.38626 0.15545 -0.15784 -0.23868 -0.10375 -0.0052805 -0.067514 -0.042551 
sur 0.17327 0.025946 -0.0030305 -0.14065 -0.0012247 -0.16554 -0.026105 -0.13693 -0.02644 -0.045902 0.043356 0.057981 -0.023068 0.20151 -0.12607 -0.14725 -0.087387 0.099347 0.075235 -0.096892 -0.013327 0.11164 0.22239 -0.067642 -0.22503 -0.032139 0.0056688 0.0066365 0.09984 0.091185 -0.098111 0.10339 0.049727 0.0054423 0.077719 0.027359 0.15395 -0.047735 -0.059417 0.070799 0.28247 0.12193 0.023375 -0.021252 0.02525 -0.21127 -0.12347 -0.023737 -0.24806 -0.034806 0.0097976 0.28661 -0.20306 0.001397 -0.041513 -0.21891 0.018473 -0.028662 0.10704 0.23285 -0.051088 0.068035 0.34576 0.18663 -0.15029 0.18854 0.16354 -0.10328 -0.037521 -0.074463 -0.029555 0.016292 0.0073286 0.25137 -0.13683 0.13641 0.11885 0.08301 0.12511 0.057929 0.066818 0.087316 0.0097561 -0.13655 0.068573 0.043158 0.15517 -0.21661 -0.15136 0.10267 0.17861 -0.17851 0.40878 0.15876 -0.17316 -0.24835 -0.11033 -0.010097 -0.077422 -0.039393 
be 0.20819 0.032388 -0.0065845 -0.18772 0.014079 -0.18885 -0.013438 -0.15122 -0.039363 -0.036663 0.040268 0.059292 -0.034049 0.2092 -0.14741 -0.15577 -0.073411 0.125 0.091041 -0.081631 -0.013324 0.10935 0.22603 -0.088754 -0.2527 -0.032214 -0.013165 0.013602 0.11962 0.087168 -0.090165 0.11163 0.03785 0.0047755 0.07984 0.029193 0.1834 -0.077113 -0.073685 0.072801 0.29845 0.14108 0.046041 -0.033977 0.031763 -0.22277 -0.13525 -0.026694 -0.26115 -0.037391 0.048192 0.30787 -0.20173 -0.011161 -0.049407 -0.26229 0.035924 -0.041858 0.079526 0.24998 -0.06066 0.092051 0.37944 0.18724 -0.18535 0.20894 0.15522 -0.1017 -0.042744 -0.075532 -0.015683 0.0047964 0.0018645 0.30356 -0.13725 0.12784 0.14887 0.096075 0.12396 0.063311 0.07588 0.10806 0.0021657 -0.14557 0.080774 0.037515 0.19716 -0.23216 -0.15614 0.11954 0.18256 -0.21014 0.42387 0.18923 -0.16735 -0.26891 -0.1072 0.0051515 -0.072685 -0.038113 
EPFL 0.18131 0.026304 -0.0015294 -0.15708 0.0036773 -0.17739 -0.0099634 -0.14537 -0.039583 -0.039544 0.035913 0.051417 -0.02693 0.19682 -0.12783 -0.1442 -0.077386 0.10892 0.082833 -0.085934 -0.0064868 0.09922 0.21995 -0.07316 -0.22971 -0.034685 -0.0052263 0.019155 0.10858 0.083971 -0.08673 0.10661 0.040873 0.0017324 0.079914 0.029482 0.1637 -0.059966 -0.058378 0.070832 0.27531 0.12591 0.037179 -0.020637 0.025143 -0.20893 -0.11821 -0.033853 -0.2414 -0.037354 0.028203 0.2845 -0.19674 -0.0043697 -0.039356 -0.2287 0.028798 -0.034063 0.088653 0.22939 -0.056504 0.077903 0.34511 0.1762 -0.15822 0.19521 0.14838 -0.10047 -0.039556 -0.07086 -0.018249 0.011699 0.0017309 0.26839 -0.13154 0.12905 0.13217 0.087354 0.11684 0.06001 0.073139 0.097564 0.0050278 -0.13762 0.070128 0.037869 0.17057 -0.21662 -0.14304 0.10964 0.17522 -0.19086 0.40514 0.17225 -0.16508 -0.2469 -0.10823 -0.0057604 -0.075572 -0.042452 
@epfl 0.21316 0.031537 -0.0022984 -0.18711 0.002405 -0.20185 -0.013814 -0.16757 -0.039429 -0.046824 0.04279 0.062384 -0.031069 0.223 -0.15128 -0.16855 -0.085466 0.12392 0.085255 -0.10127 -0.0085285 0.11648 0.24503 -0.087668 -0.26307 -0.037758 -1.8619e-05 0.022976 0.12156 0.096745 -0.095143 0.1181 0.04934 -0.002819 0.092036 0.029511 0.19262 -0.068969 -0.070998 0.07664 0.31904 0.14493 0.040303 -0.027046 0.030677 -0.23941 -0.1342 -0.030089 -0.27663 -0.043587 0.034666 0.32366 -0.2274 -0.0056906 -0.051094 -0.26715 0.032732 -0.041846 0.09503 0.26354 -0.060633 0.090399 0.39905 0.2042 -0.19118 0.22159 0.16844 -0.11219 -0.046737 -0.079718 -0.020844 0.0058011 0.0053911 0.31018 -0.14874 0.14637 0.14988 0.099694 0.13694 0.066675 0.081799 0.11366 0.0058221 -0.15772 0.083818 0.043416 0.1936 -0.24788 -0.16661 0.12859 0.20004 -0.21807 0.45977 0.19719 -0.18129 -0.28666 -0.11717 -0.003734 -0.083753 -0.043134 
about 0.2092 0.033214 -0.0019235 -0.19088 0.0057928 -0.19324 -0.0085927 -0.15854 -0.045636 -0.044524 0.042098 0.058321 -0.033472 0.21523 -0.14272 -0.1628 -0.077224 0.12525 0.089393 -0.094016 -0.010047 0.10722 0.23871 -0.084453 -0.26104 -0.039347 -0.0060568 0.017392 0.12275 0.090381 -0.094034 0.11213 0.041978 0.0069395 0.087905 0.0296 0.18988 -0.072325 -0.06803 0.075773 0.30991 0.14109 0.044564 -0.030427 0.026231 -0.23056 -0.13427 -0.025251 -0.26927 -0.041843 0.044691 0.31467 -0.21732 -0.0029687 -0.049758 -0.26559 0.037949 -0.042737 0.08878 0.25409 -0.062124 0.09718 0.38683 0.19498 -0.19123 0.21433 0.16143 -0.10518 -0.043448 -0.079303 -0.014455 0.00042229 -0.0028638 0.30629 -0.14246 0.14113 0.1513 0.098414 0.12322 0.067005 0.082594 0.11065 0.0039027 -0.15493 0.080961 0.036203 0.19591 -0.23876 -0.15879 0.12406 0.18956 -0.20953 0.44399 0.19919 -0.17284 -0.27417 -0.11244 0.0027056 -0.078391 -0.046413 
new 0.19567 0.032961 -0.0051335 -0.1762 0.0053725 -0.19068 -0.012142 -0.15608 -0.041269 -0.034543 0.042899 0.055143 -0.027476 0.20811 -0.14019 -0.15685 -0.079501 0.11979 0.081688 -0.08841 -0.0092141 0.10409 0.23018 -0.081794 -0.25277 -0.032999 -0.0040135 0.012738 0.117 0.083697 -0.084927 0.1065 0.039303 0.0037915 0.089151 0.027283 0.18044 -0.066489 -0.066145 0.072796 0.29747 0.136 0.035936 -0.031709 0.02749 -0.22288 -0.13014 -0.022561 -0.25823 -0.036409 0.037708 0.30273 -0.20868 -0.002569 -0.049357 -0.24863 0.031365 -0.044717 0.088398 0.24456 -0.055667 0.088868 0.37004 0.19109 -0.18221 0.205 0.15937 -0.10354 -0.0447 -0.077146 -0.0172 0.0086097 -0.0010431 0.29134 -0.13652 0.13567 0.14643 0.095801 0.12212 0.062436 0.080191 0.11012 -0.0015435 -0.14593 0.079011 0.034955 0.1904 -0.22852 -0.15161 0.11841 0.18277 -0.19797 0.42188 0.19325 -0.1666 -0.26279 -0.10733 -0.0036483 -0.073881 -0.044357 
A 0.18485 0.025302 -0.0056613 -0.16306 0.0031287 -0.17951 -0.0070493 -0.13998 -0.032386 -0.038906 0.038289 0.050285 -0.034202 0.1973 -0.12571 -0.15173 -0.070581 0.11292 0.075098 -0.093813 -0.0067941 0.10447 0.21331 -0.077899 -0.23559 -0.035687 -0.0094702 0.0094354 0.10286 0.082981 -0.075163 0.10676 0.037109 -0.00081844 0.076237 0.03075 0.16212 -0.070207 -0.062468 0.067064 0.27827 0.12304 0.035288 -0.030886 0.035895 -0.20882 -0.11925 -0.028141 -0.24408 -0.047641 0.026588 0.28924 -0.20067 -0.0094695 -0.043296 -0.24241 0.024145 -0.042466 0.083392 0.23277 -0.050755 0.083385 0.34997 0.17929 -0.16838 0.19357 0.15435 -0.1024 -0.045587 -0.071293 -0.022301 0.012543 -0.0019578 0.26857 -0.13859 0.13527 0.13403 0.091582 0.11634 0.059797 0.071997 0.098691 0.009192 -0.13308 0.074956 0.029167 0.17505 -0.21896 -0.14658 0.11146 0.16821 -0.18481 0.39983 0.17941 -0.15358 -0.24941 -0.10797 -0.0043505 -0.076698 -0.040804 
can 0.20177 0.029099 0.00049386 -0.17981 0.0052647 -0.19464 -0.014364 -0.15628 -0.042348 -0.038613 0.03828 0.053818 -0.035331 0.21062 -0.1398 -0.15341 -0.074063 0.11759 0.088228 -0.083437 -0.0086763 0.10868 0.23038 -0.081331 -0.25568 -0.034207 -0.0044126 0.01671 0.11632 0.089954 -0.090491 0.10904 0.036883 0.0023365 0.086224 0.029171 0.18176 -0.070821 -0.068399 0.068646 0.29374 0.13335 0.042848 -0.033298 0.02887 -0.22505 -0.12729 -0.024532 -0.25944 -0.039257 0.039044 0.3059 -0.20843 -0.0061444 -0.04475 -0.25269 0.038357 -0.048361 0.088282 0.24641 -0.056174 0.090324 0.36867 0.18413 -0.1813 0.20907 0.15845 -0.10771 -0.045932 -0.074889 -0.017635 0.002321 -0.0034756 0.28759 -0.13669 0.13843 0.1431 0.094322 0.12418 0.062315 0.082739 0.11096 -0.00072758 -0.15093 0.078869 0.031594 0.19194 -0.23195 -0.15673 0.1195 0.18414 -0.19755 0.42311 0.19444 -0.16721 -0.26382 -0.10735 -0.0056351 -0.073178 -0.040913 
Swiss 0.19967 0.031203 -0.0019156 -0.1796 0.0041579 -0.19208 -0.010425 -0.15526 -0.043472 -0.03953 0.043498 0.056257 -0.030494 0.21312 -0.13986 -0.15869 -0.078891 0.11851 0.084962 -0.092689 -0.0085252 0.10459 0.23054 -0.082895 -0.25206 -0.033992 -0.0023356 0.016229 0.11544 0.088658 -0.088501 0.11015 0.041074 0.0014358 0.088052 0.029629 0.18215 -0.069126 -0.066563 0.0775 0.29818 0.13337 0.04239 -0.031522 0.028876 -0.22208 -0.12454 -0.025475 -0.2605 -0.042898 0.0361 0.30587 -0.20806 -0.0053697 -0.048026 -0.25098 0.033865 -0.042037 0.090988 0.2475 -0.061241 0.087895 0.37032 0.18517 -0.17743 0.20722 0.16202 -0.10604 -0.042836 -0.077977 -0.018564 0.0056627 0.0028787 0.28978 -0.1383 0.14223 0.14358 0.092169 0.12208 0.064257 0.077678 0.10783 0.0040968 -0.14966 0.080291 0.036949 0.1867 -0.23264 -0.15195 0.12072 0.18774 -0.20392 0.43268 0.18746 -0.16735 -0.26509 -0.11324 -0.0031409 -0.075987 -0.040992 
have 0.21161 0.03318 0.0011474 -0.19041 0.0083456 -0.20062 -0.010136 -0.16333 -0.043091 -0.04305 0.038728 0.059447 -0.027454 0.22248 -0.14628 -0.16635 -0.078475 0.12777 0.088232 -0.095874 -0.0086952 0.11058 0.24173 -0.089518 -0.267 -0.036344 -0.0058779 0.014609 0.1193 0.094979 -0.095128 0.11612 0.041494 0.0024606 0.092005 0.035445 0.1944 -0.070411 -0.070238 0.077675 0.31052 0.1455 0.045499 -0.031589 0.027698 -0.23555 -0.13393 -0.027616 -0.27352 -0.042192 0.040762 0.32282 -0.22362 -0.0035864 -0.051836 -0.26724 0.036311 -0.047343 0.097366 0.25751 -0.065308 0.097555 0.39262 0.19731 -0.19523 0.21974 0.1697 -0.11172 -0.045073 -0.080291 -0.017502 0.00086119 0.00032336 0.30865 -0.14771 0.14827 0.14925 0.10176 0.13438 0.070775 0.086156 0.1143 0.00265 -0.15445 0.085639 0.037149 0.20154 -0.2412 -0.16059 0.1253 0.19424 -0.2134 0.45578 0.20119 -0.17352 -0.28082 -0.11666 -0.0015872 -0.081318 -0.046941 
I 0.19951 0.024223 -0.0045301 -0.17407 0.0053805 -0.18903 -0.01402 -0.14627 -0.042356 -0.040857 0.035733 0.06241 -0.038864 0.20642 -0.14604 -0.15619 -0.068989 0.12332 0.078079 -0.092587 -0.011249 0.095133 0.22281 -0.074607 -0.2483 -0.039305 -0.0066984 0.026314 0.12106 0.078762 -0.08664 0.10319 0.040471 0.0042114 0.085976 0.030434 0.18407 -0.073786 -0.062119 0.069015 0.30066 0.13889 0.045142 -0.035829 0.029818 -0.21659 -0.1244 -0.025235 -0.2468 -0.047512 0.039427 0.29779 -0.20594 -0.011492 -0.046796 -0.24696 0.041897 -0.046534 0.089552 0.238 -0.057088 0.09258 0.36583 0.19375 -0.18332 0.21184 0.15317 -0.10511 -0.045021 -0.06709 -0.013791 0.00030683 -0.0041445 0.28806 -0.13909 0.13554 0.13549 0.088525 0.11064 0.059678 0.088096 0.11063 0.0082006 -0.14018 0.0717 0.034518 0.18693 -0.22852 -0.13918 0.128 0.17337 -0.1996 0.42746 0.19747 -0.154 -0.26892 -0.10855 -0.0028371 -0.073226 -0.037113 
au 0.17685 0.025333 -0.00068894 -0.1386 -0.0017786 -0.16378 -0.025702 -0.13965 -0.02437 -0.039765 0.046701 0.054617 -0.016284 0.19653 -0.1251 -0.14649 -0.076867 0.09822 0.069207 -0.09245 -0.0094271 0.10881 0.21412 -0.068454 -0.22556 -0.031553 0.0011681 0.010693 0.099439 0.090176 -0.092731 0.10244 0.055591 0.0047122 0.071434 0.027849 0.15411 -0.05301 -0.050454 0.068816 0.27903 0.11691 0.026944 -0.018836 0.024297 -0.20891 -0.12626 -0.026903 -0.24353 -0.032998 0.017182 0.27589 -0.20162 0.00086331 -0.04423 -0.21438 0.014684 -0.029558 0.10441 0.23151 -0.048359 0.062378 0.33235 0.18212 -0.14516 0.1913 0.15972 -0.099163 -0.040905 -0.072079 -0.029719 0.02058 0.0072053 0.25252 -0.1315 0.13936 0.12381 0.081317 0.12256 0.047035 0.069575 0.08702 0.007881 -0.14081 0.064045 0.043456 0.14491 -0.21351 -0.14529 0.10343 0.17675 -0.18373 0.40095 0.14683 -0.16648 -0.24254 -0.10583 -0.0098845 -0.070021 -0.04119 
: 0.18663 0.031229 1.7207e-05 -0.16516 0.0017879 -0.18387 -0.016561 -0.14035 -0.03587 -0.046008 0.047949 0.058348 -0.03064 0.20499 -0.12989 -0.15394 -0.089295 0.10346 0.074112 -0.094163 -0.012015 0.10218 0.2322 -0.072913 -0.23918 -0.039308 0.00072748 0.019303 0.11045 0.095208 -0.10163 0.11145 0.046294 0.010154 0.079425 0.027978 0.17022 -0.053516 -0.061035 0.074366 0.30008 0.1401 0.03392 -0.0235 0.032137 -0.22738 -0.1296 -0.023293 -0.24991 -0.033123 0.027307 0.30309 -0.21225 -0.0046896 -0.041875 -0.23527 0.01559 -0.03736 0.099795 0.23998 -0.055378 0.070749 0.36615 0.18269 -0.16546 0.20514 0.15853 -0.10339 -0.042974 -0.086518 -0.025423 0.012913 0.0073962 0.27945 -0.14887 0.1498 0.13814 0.086958 0.12846 0.060891 0.072818 0.094585 0.012035 -0.13678 0.075614 0.039678 0.17537 -0.23027 -0.1512 0.11472 0.18193 -0.19823 0.43332 0.18281 -0.17414 -0.25679 -0.11284 0.0042423 -0.086357 -0.039218 
un 0.18721 0.02505 -0.0035241 -0.154 0.0017113 -0.17391 -0.016509 -0.14 -0.030102 -0.044668 0.046172 0.049782 -0.018074 0.20481 -0.13141 -0.14784 -0.081647 0.10523 0.07762 -0.097621 -0.0093011 0.1159 0.22479 -0.072722 -0.23043 -0.033981 0.0027727 0.020218 0.10186 0.091754 -0.097097 0.10493 0.051344 0.0062336 0.076992 0.02526 0.16598 -0.047853 -0.065133 0.078465 0.28881 0.1205 0.025446 -0.01843 0.033885 -0.21495 -0.12714 -0.026344 -0.25349 -0.033511 0.019037 0.28755 -0.20604 0.0029947 -0.038055 -0.23206 0.017452 -0.032109 0.096952 0.24164 -0.053029 0.072721 0.35374 0.18557 -0.15737 0.20297 0.16599 -0.10591 -0.039342 -0.077838 -0.024391 0.016287 0.0074104 0.25896 -0.13559 0.13645 0.12639 0.088463 0.12942 0.05199 0.068348 0.090015 0.0084814 -0.14191 0.06724 0.042016 0.16403 -0.22527 -0.15762 0.10917 0.18224 -0.19347 0.42443 0.16301 -0.17204 -0.25495 -0.11404 -0.0071442 -0.077904 -0.042066 
New 0.19146 0.030684 -0.0029219 -0.17594 0.00077695 -0.18645 -0.0086174 -0.14869 -0.039285 -0.038064 0.042185 0.058491 -0.030408 0.20139 -0.13413 -0.14651 -0.071193 0.11444 0.074468 -0.087047 -0.0071132 0.10136 0.21489 -0.081327 -0.2457 -0.035734 -0.004 0.0094637 0.11157 0.087534 -0.083761 0.10439 0.034316 -0.00096551 0.081452 0.025111 0.17549 -0.070117 -0.058239 0.072593 0.2858 0.12952 0.039171 -0.032322 0.028776 -0.21304 -0.12038 -0.022271 -0.24821 -0.042058 0.035576 0.29602 -0.19925 -0.01083 -0.04529 -0.24246 0.030952 -0.042843 0.08526 0.23566 -0.052143 0.083078 0.35823 0.17712 -0.17241 0.19809 0.14767 -0.097422 -0.04357 -0.070499 -0.019205 0.0059819 0.0015263 0.27496 -0.13292 0.13354 0.13982 0.093222 0.11477 0.057516 0.077607 0.10162 0.00045936 -0.14616 0.074161 0.03491 0.18158 -0.2193 -0.14415 0.11411 0.17795 -0.19499 0.40526 0.18312 -0.16233 -0.25459 -0.11065 -0.0074146 -0.073295 -0.043703 
| 0.1747 0.029157 -0.0048616 -0.15365 -0.00053027 -0.16857 -0.019136 -0.14466 -0.032023 -0.035033 0.043159 0.058475 -0.018952 0.18627 -0.12893 -0.14689 -0.066522 0.10514 0.074345 -0.088195 -0.0074719 0.091137 0.2057 -0.076801 -0.22097 -0.036607 0.0068668 0.018494 0.10881 0.08352 -0.083558 0.10672 0.040017 -0.00090608 0.080825 0.026711 0.16775 -0.058254 -0.052774 0.067279 0.26704 0.1223 0.041098 -0.027057 0.026339 -0.20038 -0.11809 -0.020744 -0.23156 -0.031687 0.0316 0.27578 -0.18512 -0.0051937 -0.037162 -0.21733 0.027406 -0.038386 0.090266 0.22801 -0.0561 0.074521 0.33443 0.16873 -0.15397 0.18117 0.14952 -0.097071 -0.036808 -0.069091 -0.011865 -0.0010072 -0.007215 0.26106 -0.13302 0.1235 0.12635 0.078158 0.10836 0.061184 0.071749 0.094373 0.0046911 -0.13242 0.06633 0.032657 0.1673 -0.20164 -0.14573 0.10445 0.17039 -0.18732 0.38722 0.16712 -0.15255 -0.2381 -0.10483 -0.006029 -0.063189 -0.036232 
more 0.20357 0.031223 -0.0010053 -0.18118 0.0086725 -0.1948 -0.01322 -0.15832 -0.044207 -0.043367 0.038048 0.060875 -0.034647 0.21302 -0.14267 -0.15921 -0.079411 0.12434 0.085684 -0.089182 -0.011624 0.10822 0.23086 -0.083079 -0.25709 -0.035726 -0.0079952 0.017012 0.11884 0.091649 -0.089369 0.10776 0.043066 0.0043088 0.09011 0.031335 0.18413 -0.069904 -0.066013 0.076747 0.30051 0.14003 0.041388 -0.031598 0.030312 -0.22593 -0.12794 -0.025527 -0.26287 -0.038439 0.039644 0.3093 -0.21148 -0.0082083 -0.048754 -0.25492 0.036833 -0.041598 0.092651 0.25087 -0.06233 0.087352 0.37836 0.19045 -0.18499 0.21025 0.162 -0.10698 -0.046334 -0.078118 -0.018079 0.0071745 -0.00051804 0.29969 -0.13916 0.14254 0.14488 0.095404 0.1269 0.064121 0.079993 0.11024 0.0061902 -0.14911 0.078559 0.040205 0.19272 -0.23267 -0.15575 0.11732 0.19268 -0.20759 0.4411 0.19735 -0.16999 -0.26967 -0.11227 -0.0036932 -0.07971 -0.044397 
it 0.21216 0.032631 0.00068466 -0.19425 0.0027996 -0.20222 -0.013929 -0.16553 -0.047778 -0.043994 0.045334 0.063781 -0.031875 0.22505 -0.14639 -0.16812 -0.082417 0.1254 0.091005 -0.093149 -0.012287 0.10199 0.24165 -0.08361 -0.2676 -0.041599 -0.0014563 0.016482 0.12751 0.097043 -0.091354 0.11668 0.041328 0.0027756 0.093991 0.030567 0.19373 -0.072518 -0.073483 0.078712 0.31446 0.14576 0.044364 -0.031081 0.025657 -0.22988 -0.13744 -0.026614 -0.27037 -0.041982 0.040881 0.31627 -0.21575 -0.0072991 -0.051401 -0.26271 0.044881 -0.043089 0.094179 0.26163 -0.064066 0.099935 0.38909 0.19369 -0.19073 0.21373 0.16416 -0.10993 -0.050416 -0.076762 -0.013583 0.00083078 -0.0022191 0.30947 -0.15225 0.14895 0.15288 0.09547 0.12359 0.065813 0.082208 0.11145 0.0040637 -0.15817 0.082348 0.036486 0.19655 -0.24125 -0.15311 0.12944 0.1905 -0.20728 0.45565 0.19981 -0.17128 -0.2802 -0.116 0.0022515 -0.076974 -0.043545 
will 0.20117 0.032499 -0.00088421 -0.17921 0.0060637 -0.19292 -0.012935 -0.15837 -0.044774 -0.034197 0.037332 0.05836 -0.032342 0.20926 -0.13993 -0.15342 -0.076405 0.12139 0.084802 -0.086528 -0.0072141 0.10331 0.22956 -0.084194 -0.25097 -0.037454 -0.0027673 0.01581 0.12006 0.084082 -0.086839 0.11141 0.039561 0.003694 0.084415 0.029629 0.1767 -0.06596 -0.069813 0.07697 0.29551 0.13472 0.046459 -0.031852 0.033286 -0.22552 -0.12509 -0.021987 -0.25771 -0.041195 0.039823 0.30621 -0.20404 -0.0050937 -0.04845 -0.25237 0.037123 -0.044156 0.088372 0.2428 -0.059771 0.091257 0.37137 0.18909 -0.18062 0.20571 0.15819 -0.10304 -0.044248 -0.07577 -0.0147 0.0041931 0.0011395 0.29056 -0.13631 0.13718 0.14504 0.09171 0.1203 0.066359 0.077404 0.10998 0.004144 -0.14969 0.078908 0.034902 0.19058 -0.23123 -0.15225 0.11808 0.18185 -0.20638 0.42713 0.19201 -0.16999 -0.26716 -0.10951 -0.0064444 -0.079945 -0.037249 
#Switzerland 0.22684 0.03133 -0.0024874 -0.20196 0.0043383 -0.2237 -0.010804 -0.18391 -0.047441 -0.050763 0.05134 0.06222 -0.035779 0.24434 -0.15322 -0.18331 -0.091092 0.13779 0.098964 -0.10418 -0.0080328 0.12471 0.26789 -0.097796 -0.29727 -0.041291 -0.005154 0.019041 0.13546 0.10054 -0.10187 0.12765 0.048268 0.00041778 0.10188 0.037713 0.20694 -0.085902 -0.071545 0.087182 0.34679 0.15594 0.04706 -0.034216 0.03487 -0.2609 -0.14395 -0.026966 -0.30818 -0.049233 0.045098 0.36423 -0.2408 -0.007212 -0.057662 -0.2932 0.038186 -0.05164 0.10583 0.29135 -0.070472 0.10081 0.42494 0.21646 -0.20442 0.24595 0.18896 -0.12389 -0.048993 -0.087835 -0.024713 0.0068623 -0.0015908 0.33565 -0.16353 0.16827 0.16584 0.10945 0.14496 0.074289 0.09972 0.12758 0.0059636 -0.17344 0.090214 0.040833 0.21804 -0.27227 -0.18073 0.13786 0.21653 -0.23512 0.50451 0.21905 -0.20276 -0.3065 -0.13085 -0.0059395 -0.096397 -0.05046 
has 0.20745 0.032635 -0.00061415 -0.1855 0.0045982 -0.19742 -0.015474 -0.15904 -0.043538 -0.039626 0.041564 0.057088 -0.030432 0.21349 -0.14112 -0.16531 -0.078604 0.12742 0.08894 -0.097114 -0.011551 0.10343 0.23244 -0.087263 -0.26209 -0.035582 -0.0063046 0.016847 0.11965 0.093981 -0.094436 0.11132 0.042866 0.0067439 0.091785 0.032789 0.18913 -0.072665 -0.067809 0.074804 0.30402 0.13991 0.0472 -0.030121 0.027135 -0.22551 -0.13457 -0.02827 -0.25881 -0.039444 0.043346 0.3099 -0.21745 -0.0038522 -0.049926 -0.25946 0.037214 -0.039494 0.090071 0.2485 -0.061369 0.097158 0.37767 0.19188 -0.18626 0.21112 0.16225 -0.10845 -0.045684 -0.076241 -0.016223 0.0011019 0.0035392 0.29989 -0.13742 0.14608 0.14644 0.096004 0.12707 0.062216 0.081285 0.11051 0.0030694 -0.15832 0.083696 0.038332 0.19236 -0.23382 -0.15786 0.12462 0.18389 -0.20397 0.43754 0.1982 -0.17031 -0.27225 -0.11471 -0.0045334 -0.077162 -0.045895 
une 0.17405 0.02407 -0.0018752 -0.14204 -0.00083492 -0.16505 -0.016555 -0.13495 -0.026036 -0.043284 0.038604 0.05059 -0.022138 0.19325 -0.1244 -0.14316 -0.081779 0.099136 0.070079 -0.094248 -0.011431 0.10841 0.21617 -0.066772 -0.2242 -0.036003 0.0069072 0.012765 0.094602 0.087891 -0.089949 0.10504 0.052617 0.0068048 0.070482 0.022424 0.15429 -0.047998 -0.056257 0.068902 0.27304 0.11983 0.027776 -0.021521 0.025572 -0.20595 -0.11887 -0.025247 -0.23544 -0.036773 0.013582 0.27661 -0.19499 -0.0002172 -0.033979 -0.21427 0.016373 -0.032478 0.097054 0.22904 -0.0476 0.065085 0.3341 0.18226 -0.15127 0.18882 0.15846 -0.10037 -0.038761 -0.075679 -0.026569 0.017738 0.0059335 0.24923 -0.13062 0.13234 0.12019 0.080836 0.12019 0.056998 0.063529 0.084381 0.0081296 -0.13337 0.065714 0.043105 0.14842 -0.21551 -0.14538 0.10267 0.17427 -0.18088 0.39675 0.15121 -0.16788 -0.23942 -0.10453 -0.010261 -0.070425 -0.038503 
first 0.21559 0.032601 -0.0068049 -0.19935 0.0072554 -0.20466 -0.011379 -0.16612 -0.041088 -0.043805 0.040493 0.059854 -0.031556 0.22164 -0.14699 -0.17139 -0.083704 0.13239 0.091793 -0.094853 -0.012222 0.11325 0.24275 -0.090127 -0.26842 -0.03609 -0.0066312 0.014697 0.12334 0.092315 -0.094876 0.11361 0.045846 0.001435 0.091913 0.033782 0.19655 -0.077373 -0.069127 0.078508 0.31791 0.1462 0.048637 -0.027226 0.027992 -0.23943 -0.13693 -0.027616 -0.27516 -0.044903 0.042217 0.32534 -0.22052 -0.0061702 -0.05009 -0.27 0.036094 -0.044087 0.08704 0.26157 -0.066853 0.098134 0.39831 0.19885 -0.19673 0.21823 0.1685 -0.10918 -0.047231 -0.07947 -0.018597 0.0011177 -0.0019529 0.31311 -0.14432 0.15028 0.15197 0.099529 0.13302 0.071564 0.087594 0.11834 0.0025388 -0.16281 0.087293 0.035332 0.20807 -0.24153 -0.16195 0.12985 0.19155 -0.21359 0.45561 0.20617 -0.17629 -0.28538 -0.11825 7.1738e-06 -0.079201 -0.043962 
2018 0.20704 0.034286 -0.0075975 -0.18338 0.0075144 -0.19767 -0.011408 -0.16792 -0.043423 -0.042345 0.044585 0.064092 -0.032745 0.21943 -0.14671 -0.16534 -0.085288 0.12846 0.08628 -0.095255 -0.0095866 0.11386 0.2416 -0.081013 -0.26684 -0.035328 -0.0027615 0.01687 0.11768 0.094807 -0.098531 0.12071 0.047778 0.0015686 0.088064 0.031264 0.18362 -0.06478 -0.066053 0.082683 0.31232 0.14486 0.044244 -0.028006 0.03186 -0.23432 -0.13793 -0.022689 -0.27165 -0.043953 0.036477 0.32319 -0.21801 -0.0018302 -0.046455 -0.26001 0.032528 -0.042014 0.096184 0.26212 -0.063357 0.090934 0.38862 0.19763 -0.18004 0.2198 0.16939 -0.11069 -0.042017 -0.083594 -0.023818 0.0081786 0.0037918 0.3068 -0.14529 0.149 0.14481 0.09561 0.12852 0.067964 0.08474 0.10918 0.0039481 -0.15767 0.081793 0.041574 0.19374 -0.24462 -0.16657 0.12479 0.19178 -0.21564 0.44976 0.19715 -0.18262 -0.27499 -0.11511 -0.0034269 -0.080129 -0.040914 
@MartinVetterli 0.18397 0.027914 -0.0027798 -0.16236 0.003605 -0.17618 -0.01269 -0.14418 -0.037726 -0.039611 0.038164 0.053965 -0.026908 0.19484 -0.12783 -0.14963 -0.074238 0.11066 0.076203 -0.085226 -0.0081368 0.10172 0.21485 -0.076342 -0.23572 -0.033861 -0.004187 0.013798 0.10837 0.083371 -0.085792 0.10434 0.04391 0.0010916 0.080225 0.025698 0.16605 -0.061847 -0.061076 0.069875 0.27895 0.12472 0.037124 -0.027095 0.028196 -0.20933 -0.11952 -0.022416 -0.24478 -0.039624 0.031279 0.28677 -0.1976 -0.0027739 -0.042197 -0.23243 0.025993 -0.038856 0.087264 0.23298 -0.0541 0.078729 0.34642 0.17622 -0.16387 0.19549 0.15143 -0.099582 -0.040129 -0.071108 -0.019772 0.0087988 0.0036431 0.26802 -0.13028 0.13196 0.13215 0.087454 0.1196 0.057303 0.074335 0.096405 0.0042643 -0.13817 0.072487 0.037809 0.1725 -0.21565 -0.14401 0.10927 0.17365 -0.1907 0.40228 0.17209 -0.16245 -0.24773 -0.10563 -0.0041085 -0.072707 -0.038636 
all 0.21016 0.029301 -0.0018648 -0.19336 0.0038812 -0.20384 -0.0070171 -0.1669 -0.043444 -0.041451 0.04129 0.059941 -0.035955 0.2237 -0.14537 -0.16575 -0.080518 0.13116 0.09008 -0.094109 -0.011129 0.10917 0.24528 -0.087266 -0.26792 -0.040803 -0.00097057 0.018757 0.12538 0.095161 -0.090302 0.11578 0.047649 -0.0016979 0.090507 0.030344 0.19407 -0.076364 -0.071034 0.076444 0.31612 0.14341 0.049777 -0.034 0.028643 -0.24103 -0.13249 -0.023858 -0.27905 -0.042634 0.043226 0.32747 -0.22392 -0.0056624 -0.055207 -0.27144 0.035226 -0.046861 0.094099 0.25907 -0.062703 0.098299 0.39247 0.19563 -0.19299 0.22142 0.17182 -0.11159 -0.043544 -0.079502 -0.013969 0.0072401 0.0018809 0.31137 -0.14722 0.14744 0.15562 0.099865 0.12728 0.072211 0.088756 0.11458 0.0011064 -0.16065 0.083607 0.032568 0.20654 -0.24579 -0.16361 0.1291 0.19252 -0.21729 0.45182 0.20682 -0.18041 -0.28167 -0.11545 -0.001854 -0.083311 -0.043876 
students 0.21005 0.032143 -0.0034143 -0.18859 0.0040406 -0.20073 -0.0094769 -0.16388 -0.042044 -0.044108 0.044154 0.06337 -0.032762 0.21979 -0.14671 -0.16718 -0.080969 0.12853 0.088099 -0.094948 -0.010554 0.1139 0.24356 -0.087237 -0.26827 -0.039666 -0.0045645 0.017419 0.12224 0.093979 -0.092909 0.11663 0.045139 -0.0021929 0.087108 0.029612 0.19036 -0.072185 -0.069557 0.077918 0.31496 0.14406 0.040874 -0.030182 0.031973 -0.23727 -0.13325 -0.02764 -0.27686 -0.043601 0.042043 0.32372 -0.22322 -0.0072258 -0.051518 -0.26358 0.036141 -0.047048 0.093761 0.259 -0.063325 0.09357 0.39259 0.19966 -0.19014 0.22092 0.16557 -0.10811 -0.046177 -0.078843 -0.01775 0.0046398 0.001375 0.3091 -0.14645 0.14533 0.14956 0.09948 0.12862 0.067032 0.081689 0.11144 0.0053713 -0.15703 0.085386 0.037238 0.20017 -0.24358 -0.16413 0.12808 0.19548 -0.21471 0.45496 0.19817 -0.17572 -0.28099 -0.11758 -0.0015366 -0.08118 -0.044014 
par 0.17662 0.02702 -0.0035627 -0.15359 -0.0023406 -0.17497 -0.015483 -0.14182 -0.030025 -0.045008 0.042076 0.053718 -0.02562 0.20363 -0.12487 -0.1426 -0.08655 0.10554 0.073768 -0.091376 -0.0082492 0.10737 0.21794 -0.073168 -0.2316 -0.033228 0.0019995 0.012436 0.10382 0.08213 -0.091057 0.1019 0.051194 0.00082688 0.080706 0.022278 0.15734 -0.05599 -0.058632 0.073169 0.2849 0.12713 0.030128 -0.020482 0.023569 -0.21294 -0.12146 -0.019915 -0.24327 -0.034486 0.020373 0.28965 -0.20814 -0.0003466 -0.041369 -0.22564 0.021904 -0.035506 0.099523 0.23504 -0.052627 0.072979 0.34896 0.17952 -0.15505 0.19629 0.15764 -0.10552 -0.040227 -0.075365 -0.026399 0.015021 0.0023612 0.2598 -0.13481 0.13877 0.12675 0.085502 0.12514 0.059458 0.075454 0.095046 0.011911 -0.13896 0.067292 0.039172 0.1648 -0.21489 -0.15038 0.10761 0.17881 -0.18619 0.41068 0.16587 -0.16976 -0.24533 -0.10852 -0.0011109 -0.071002 -0.039484 
Les 0.17942 0.026785 -0.0030362 -0.14818 -0.00096253 -0.17028 -0.022299 -0.14137 -0.029452 -0.043372 0.044434 0.053171 -0.024563 0.20342 -0.12511 -0.14137 -0.076472 0.10616 0.069079 -0.091561 -0.0066685 0.10765 0.21943 -0.075954 -0.22742 -0.038272 0.0017469 0.013813 0.099571 0.08545 -0.094417 0.10144 0.043923 0.0042317 0.077376 0.027199 0.16271 -0.052449 -0.057645 0.072067 0.28322 0.1218 0.031328 -0.023407 0.028151 -0.21015 -0.12128 -0.024348 -0.24589 -0.038633 0.011545 0.28436 -0.20406 0.0013745 -0.043027 -0.22387 0.021579 -0.027147 0.096128 0.23407 -0.052015 0.067672 0.34784 0.18463 -0.15509 0.1945 0.16157 -0.10549 -0.038304 -0.072745 -0.022438 0.018838 0.0093501 0.2596 -0.13612 0.13693 0.12847 0.09068 0.12232 0.049835 0.07013 0.087708 0.0053872 -0.13194 0.068596 0.036202 0.15891 -0.21798 -0.14781 0.10794 0.18148 -0.18265 0.40889 0.15823 -0.16933 -0.24186 -0.1071 -0.0073461 -0.07881 -0.041939 
now 0.21068 0.028921 0.0023309 -0.19484 0.01016 -0.19534 -0.0087406 -0.15876 -0.046705 -0.044286 0.040425 0.062479 -0.030051 0.21597 -0.14576 -0.16443 -0.079796 0.12678 0.087868 -0.088957 -0.013455 0.11048 0.23137 -0.088685 -0.25998 -0.041102 -0.0052302 0.017353 0.12394 0.087224 -0.089313 0.10705 0.042291 0.0034716 0.091299 0.033995 0.18599 -0.069653 -0.069073 0.081352 0.3073 0.14259 0.045164 -0.032374 0.027267 -0.23178 -0.13513 -0.027036 -0.26779 -0.042998 0.040751 0.31569 -0.21392 -0.0077605 -0.053864 -0.25776 0.038627 -0.047899 0.093087 0.25037 -0.057644 0.094567 0.38562 0.1862 -0.1928 0.21656 0.15964 -0.10468 -0.042029 -0.080335 -0.016325 0.0016674 0.0013579 0.30075 -0.1407 0.14049 0.15001 0.092436 0.124 0.063512 0.079023 0.11206 6.4176e-05 -0.15244 0.084075 0.035499 0.19523 -0.23853 -0.15772 0.12862 0.1906 -0.21041 0.43602 0.20105 -0.17134 -0.27639 -0.11296 -0.00098692 -0.084001 -0.04467 
this 0.2088 0.030517 -0.0030409 -0.1878 0.0093738 -0.19399 -0.0095742 -0.1549 -0.044725 -0.036705 0.034102 0.056497 -0.033443 0.20455 -0.14299 -0.15609 -0.073787 0.12415 0.086879 -0.086198 -0.012004 0.1034 0.22937 -0.086586 -0.2561 -0.034072 -0.007115 0.020843 0.11888 0.087535 -0.084048 0.11015 0.038642 0.0072383 0.08786 0.028309 0.186 -0.068351 -0.066573 0.070628 0.29895 0.13936 0.048737 -0.034179 0.030781 -0.22002 -0.12959 -0.024213 -0.26176 -0.041918 0.046105 0.30209 -0.20903 -0.0074464 -0.046249 -0.25822 0.040921 -0.047269 0.083885 0.24788 -0.060733 0.095012 0.37675 0.18613 -0.19133 0.20812 0.1518 -0.10011 -0.045845 -0.072933 -0.014198 -0.00065099 -0.0039444 0.29897 -0.13629 0.14289 0.14577 0.094183 0.12316 0.065378 0.079556 0.10986 -0.0013462 -0.14589 0.081312 0.036377 0.19672 -0.23011 -0.1516 0.12333 0.18061 -0.20716 0.42732 0.20057 -0.16393 -0.26788 -0.10853 0.00055905 -0.07375 -0.04228 
its 0.20687 0.031263 -0.0063142 -0.19072 0.0046021 -0.19652 -0.013057 -0.16247 -0.045585 -0.047818 0.044882 0.063894 -0.032531 0.21915 -0.1484 -0.16469 -0.082694 0.1269 0.085794 -0.09042 -0.005662 0.10906 0.23519 -0.085482 -0.26706 -0.040004 -0.0072088 0.015194 0.12165 0.094479 -0.087947 0.11523 0.044306 0.0044553 0.08868 0.025891 0.19143 -0.069471 -0.064924 0.08068 0.30895 0.14331 0.043397 -0.03176 0.026271 -0.23124 -0.135 -0.0251 -0.27136 -0.044618 0.042797 0.3157 -0.21492 -0.0046133 -0.049389 -0.25846 0.038333 -0.043359 0.093445 0.25603 -0.060165 0.098071 0.38827 0.19746 -0.18617 0.2128 0.1661 -0.10903 -0.050355 -0.07508 -0.017219 0.0016361 0.0053088 0.30873 -0.1419 0.14472 0.14859 0.096605 0.12683 0.064501 0.080466 0.11076 0.0029168 -0.1572 0.081054 0.039102 0.19454 -0.23845 -0.16414 0.1192 0.1957 -0.21071 0.44735 0.19727 -0.17331 -0.28036 -0.11951 -0.0010141 -0.085576 -0.042531 
@ETH_en 0.19785 0.031706 -0.0027634 -0.17845 0.0036941 -0.19193 -0.0099815 -0.15571 -0.046 -0.042734 0.042022 0.053905 -0.030272 0.21241 -0.137 -0.15578 -0.080745 0.11851 0.083893 -0.087564 -0.0065124 0.10453 0.22897 -0.082599 -0.25349 -0.035686 -0.0030028 0.018306 0.11892 0.09014 -0.088223 0.11046 0.040818 0.0015352 0.084974 0.030753 0.18024 -0.070393 -0.065629 0.072577 0.29926 0.13783 0.041677 -0.030316 0.028474 -0.22188 -0.1252 -0.02582 -0.26254 -0.042212 0.037421 0.31032 -0.20232 -0.0079295 -0.049382 -0.25039 0.034409 -0.043911 0.092257 0.24435 -0.061084 0.092627 0.37105 0.1874 -0.1796 0.20645 0.1589 -0.10495 -0.043329 -0.075544 -0.020152 0.0047602 -0.0005378 0.28912 -0.13821 0.14195 0.14111 0.09246 0.1227 0.064957 0.082149 0.10859 0.0042231 -0.14687 0.078925 0.035474 0.18762 -0.23392 -0.1519 0.11952 0.186 -0.2055 0.43284 0.1919 -0.16899 -0.26805 -0.11159 -0.0048466 -0.080061 -0.041348 
how 0.20801 0.028691 -0.0026204 -0.18481 0.011282 -0.19375 -0.0097479 -0.1558 -0.046173 -0.042787 0.037507 0.05861 -0.031536 0.21312 -0.14286 -0.16223 -0.07446 0.12714 0.08571 -0.088939 -0.0075479 0.10658 0.23295 -0.085625 -0.2601 -0.040573 -0.0064489 0.015284 0.1205 0.09245 -0.091566 0.1045 0.039808 0.0017754 0.089568 0.0312 0.18449 -0.070721 -0.066293 0.071628 0.30823 0.14204 0.040945 -0.035332 0.026835 -0.23197 -0.13515 -0.026544 -0.26664 -0.042321 0.037156 0.31371 -0.21203 -0.0081235 -0.049169 -0.25889 0.037036 -0.042478 0.090216 0.25312 -0.060191 0.095758 0.38683 0.18638 -0.18986 0.21481 0.16243 -0.10282 -0.046004 -0.074607 -0.012934 0.001791 -0.0037273 0.29648 -0.14079 0.14671 0.1479 0.096075 0.12175 0.068577 0.083355 0.11505 -0.003025 -0.14936 0.080564 0.03509 0.1931 -0.23665 -0.15432 0.12528 0.18878 -0.20331 0.44296 0.19825 -0.17309 -0.27376 -0.11106 -0.0019581 -0.080849 -0.047089 
2017 0.1863 0.030463 -0.0041877 -0.1626 0.0026006 -0.17825 -0.010036 -0.14289 -0.038516 -0.039447 0.040466 0.052138 -0.031288 0.19553 -0.12795 -0.14385 -0.077318 0.11231 0.074888 -0.086379 -0.0039164 0.10173 0.21528 -0.072815 -0.23731 -0.03106 -0.0039422 0.014861 0.10397 0.081642 -0.088828 0.10151 0.040588 0.0029611 0.082275 0.029274 0.16723 -0.055942 -0.062589 0.072726 0.27976 0.12264 0.039448 -0.025438 0.027499 -0.20893 -0.12191 -0.019416 -0.2407 -0.036843 0.034802 0.28452 -0.19609 -0.0028616 -0.03928 -0.23037 0.028354 -0.033979 0.086197 0.23124 -0.053951 0.081533 0.34804 0.17792 -0.16182 0.19724 0.15147 -0.097731 -0.040246 -0.073372 -0.019379 0.0074718 0.002522 0.26721 -0.13038 0.13358 0.13018 0.087284 0.11441 0.061121 0.073628 0.097335 0.0023129 -0.14043 0.073118 0.038396 0.17392 -0.21675 -0.14658 0.11451 0.17262 -0.19396 0.4044 0.17259 -0.16158 -0.24901 -0.10423 -0.00093851 -0.069445 -0.038755 
their 0.20286 0.030022 -0.0024064 -0.18108 0.008049 -0.18653 -0.0066427 -0.15593 -0.045867 -0.038986 0.035374 0.058783 -0.033208 0.20466 -0.1359 -0.15474 -0.072248 0.12019 0.08312 -0.085981 -0.0089579 0.095661 0.22081 -0.081857 -0.2496 -0.035264 -0.0048079 0.018735 0.11677 0.089554 -0.084279 0.10855 0.03788 0.00027979 0.085524 0.030049 0.1773 -0.067928 -0.063266 0.070626 0.29178 0.13375 0.043053 -0.030356 0.030815 -0.21831 -0.12521 -0.025868 -0.25539 -0.042447 0.043731 0.29591 -0.20275 -0.0052643 -0.049235 -0.25015 0.040105 -0.047074 0.07927 0.2405 -0.058682 0.090014 0.3676 0.18375 -0.18392 0.2004 0.14809 -0.096444 -0.042936 -0.07325 -0.01585 -0.002766 0.0025979 0.28898 -0.13269 0.13001 0.14048 0.093482 0.11522 0.062059 0.080498 0.10564 -0.00030166 -0.14494 0.077181 0.036417 0.18979 -0.22513 -0.14897 0.11847 0.18024 -0.20471 0.41459 0.19207 -0.15851 -0.25973 -0.10643 0.0012851 -0.06969 -0.038795 
@epfl_en 0.1904 0.02936 -0.0024791 -0.16975 0.0036758 -0.18495 -0.01048 -0.15144 -0.040011 -0.041465 0.037583 0.055966 -0.030135 0.20068 -0.13195 -0.1511 -0.074371 0.11417 0.07956 -0.08625 -0.0062218 0.10333 0.22144 -0.078122 -0.24101 -0.035165 -0.0011431 0.01858 0.11064 0.084 -0.085261 0.10461 0.040155 -0.0014965 0.083453 0.026817 0.17231 -0.064882 -0.062976 0.069049 0.28602 0.13033 0.038893 -0.025827 0.030175 -0.21311 -0.12134 -0.02663 -0.25043 -0.040123 0.03473 0.29477 -0.19996 -0.0061063 -0.047388 -0.24062 0.031176 -0.041795 0.083873 0.23693 -0.05598 0.083966 0.35833 0.18027 -0.17239 0.19879 0.15106 -0.1 -0.043077 -0.073564 -0.019194 0.0050724 0.0017645 0.27775 -0.13318 0.13365 0.13683 0.090675 0.12052 0.060985 0.075598 0.10391 0.0042732 -0.14158 0.075894 0.036069 0.17984 -0.22239 -0.14703 0.11452 0.17997 -0.19657 0.41642 0.18138 -0.16046 -0.25731 -0.10653 -0.0017268 -0.076979 -0.038601 
as 0.20749 0.030553 -0.010066 -0.19534 0.00071371 -0.20243 -0.021957 -0.15492 -0.040741 -0.051427 0.045427 0.061815 -0.03495 0.2127 -0.14583 -0.16545 -0.081272 0.12876 0.087496 -0.092627 -0.010497 0.11549 0.23389 -0.087021 -0.25895 -0.039169 -0.0018442 0.019297 0.12113 0.092493 -0.090726 0.10639 0.046181 0.0031638 0.094154 0.034822 0.19298 -0.073653 -0.066845 0.078754 0.31067 0.13718 0.043571 -0.026813 0.024025 -0.22863 -0.13812 -0.023279 -0.26793 -0.037458 0.032389 0.31804 -0.22285 -0.0067751 -0.056159 -0.25465 0.031535 -0.04618 0.093938 0.25112 -0.061808 0.096566 0.39008 0.18958 -0.18746 0.21436 0.16405 -0.10924 -0.055275 -0.073396 -0.019537 -0.0022646 0.0016338 0.30117 -0.13837 0.15038 0.1464 0.096396 0.12907 0.067662 0.078968 0.11358 0.0027902 -0.16047 0.085811 0.035148 0.19148 -0.23624 -0.1611 0.1222 0.18584 -0.21072 0.44821 0.18994 -0.17426 -0.27258 -0.10857 -0.0056294 -0.084355 -0.043751 
@unil 0.20309 0.031083 -0.0077957 -0.17873 0.0048798 -0.19131 -0.0097774 -0.15826 -0.043946 -0.043796 0.041673 0.059516 -0.028625 0.21453 -0.13849 -0.15685 -0.078032 0.11885 0.081107 -0.096913 -0.010109 0.11059 0.23466 -0.082949 -0.25642 -0.036224 -0.0019806 0.01332 0.11624 0.093058 -0.094492 0.11076 0.045554 0.0018021 0.08565 0.031128 0.18096 -0.067433 -0.065354 0.075072 0.306 0.13634 0.042717 -0.026919 0.03161 -0.23069 -0.12878 -0.024782 -0.26858 -0.039907 0.034684 0.31026 -0.21539 -0.0048088 -0.047799 -0.2547 0.031394 -0.039032 0.093616 0.25349 -0.060145 0.089242 0.37844 0.18997 -0.18232 0.21079 0.1665 -0.10807 -0.043741 -0.076577 -0.022584 0.0055407 0.0030614 0.29417 -0.14199 0.14378 0.14432 0.095833 0.12631 0.063885 0.081642 0.10839 0.0046749 -0.15395 0.080116 0.036637 0.18863 -0.23516 -0.16035 0.11949 0.19045 -0.20464 0.43943 0.19 -0.17118 -0.27183 -0.11575 -0.0012202 -0.079756 -0.041714 
dans 0.17197 0.024763 -0.0031591 -0.14551 -0.0016727 -0.16667 -0.019933 -0.13284 -0.033435 -0.041952 0.035633 0.05065 -0.022458 0.18707 -0.11682 -0.13833 -0.075795 0.099162 0.072966 -0.086484 -0.0090569 0.10374 0.20695 -0.069164 -0.21911 -0.035302 -0.0018577 0.012367 0.098266 0.080497 -0.085776 0.094955 0.048007 0.0023004 0.070358 0.025754 0.15527 -0.05409 -0.058168 0.063861 0.26619 0.11495 0.032273 -0.021655 0.028814 -0.19998 -0.11607 -0.022759 -0.22877 -0.031674 0.023684 0.27187 -0.1933 -0.0017157 -0.037352 -0.2132 0.02042 -0.033015 0.089777 0.22232 -0.050353 0.072441 0.32898 0.17229 -0.15427 0.18348 0.14666 -0.09939 -0.039729 -0.06819 -0.023248 0.013619 0.0052622 0.25002 -0.12348 0.12715 0.12032 0.077954 0.11334 0.049214 0.066364 0.088438 0.005128 -0.13224 0.065022 0.036991 0.1578 -0.20572 -0.14259 0.099279 0.16786 -0.17795 0.38978 0.15227 -0.15905 -0.23363 -0.10062 -0.0088909 -0.072051 -0.039525 
we 0.20866 0.031079 -0.0050286 -0.19026 0.0090582 -0.19968 -0.010945 -0.15777 -0.040182 -0.041811 0.046949 0.063529 -0.034638 0.21797 -0.13807 -0.16813 -0.077226 0.13223 0.088441 -0.091514 -0.015633 0.10671 0.23548 -0.084274 -0.26413 -0.041805 -0.0059175 0.019815 0.12002 0.091614 -0.093817 0.11626 0.044124 0.0055815 0.089523 0.029715 0.19083 -0.073756 -0.065535 0.080191 0.31166 0.13768 0.045271 -0.034876 0.028989 -0.23142 -0.1342 -0.023071 -0.26777 -0.041027 0.039029 0.31764 -0.21705 -0.0060383 -0.053559 -0.26596 0.034715 -0.047354 0.091509 0.25794 -0.059365 0.093817 0.38545 0.18784 -0.19548 0.2175 0.16405 -0.10531 -0.041443 -0.072977 -0.014083 0.0060637 0.005976 0.30467 -0.14557 0.14603 0.14472 0.093304 0.12829 0.065396 0.076955 0.11212 0.0015018 -0.15264 0.081141 0.035509 0.20341 -0.24283 -0.16127 0.12433 0.19118 -0.2104 0.44411 0.19637 -0.17386 -0.27535 -0.11305 0.0075844 -0.077342 -0.049614 
your 0.19626 0.028991 -0.0017822 -0.16919 0.0024702 -0.18822 -0.013563 -0.14954 -0.039048 -0.038966 0.041799 0.058705 -0.029171 0.20777 -0.13701 -0.15615 -0.080152 0.1162 0.082691 -0.085506 -0.0094609 0.10758 0.22921 -0.080615 -0.24915 -0.031012 -0.002565 0.012268 0.11119 0.088145 -0.095428 0.11511 0.04556 0.00077882 0.083023 0.031076 0.17631 -0.058284 -0.065941 0.072957 0.29623 0.13562 0.041027 -0.02641 0.031339 -0.22412 -0.12774 -0.025195 -0.25939 -0.039794 0.030581 0.30147 -0.20766 -0.0057729 -0.045729 -0.24694 0.031821 -0.041578 0.097282 0.2451 -0.056144 0.079681 0.36849 0.19183 -0.17234 0.20748 0.1603 -0.10464 -0.037954 -0.076348 -0.019902 0.0052544 0.0039969 0.27928 -0.14027 0.13257 0.13586 0.09383 0.12532 0.061608 0.074785 0.10374 0.004888 -0.14564 0.078503 0.04034 0.17671 -0.2251 -0.15057 0.11612 0.18585 -0.19705 0.4234 0.18694 -0.17074 -0.26235 -0.1132 -0.0029406 -0.072342 -0.041076 
Lausanne 0.22178 0.031145 -0.0043308 -0.19129 0.0057763 -0.20848 -0.015012 -0.17372 -0.044149 -0.046929 0.047072 0.067054 -0.030629 0.23341 -0.15601 -0.17448 -0.093132 0.12756 0.091831 -0.1065 -0.0095891 0.11976 0.2592 -0.090062 -0.27945 -0.04145 -0.0033549 0.01773 0.13005 0.10036 -0.10338 0.12683 0.052396 0.0017883 0.09179 0.033261 0.19582 -0.07261 -0.071109 0.086478 0.33465 0.14905 0.042685 -0.031755 0.033396 -0.25119 -0.14646 -0.031989 -0.29148 -0.047016 0.037311 0.34663 -0.23756 -0.0046764 -0.054175 -0.27543 0.033844 -0.046104 0.10462 0.27587 -0.061151 0.093026 0.41809 0.21414 -0.19367 0.23532 0.1844 -0.11669 -0.048662 -0.085963 -0.025869 0.0081149 0.0023993 0.32225 -0.15741 0.16278 0.15838 0.099837 0.14082 0.071113 0.087016 0.11468 0.0049095 -0.16584 0.085111 0.045266 0.20462 -0.26374 -0.17407 0.13376 0.20913 -0.22465 0.48532 0.20854 -0.1944 -0.29691 -0.12628 -0.0072507 -0.086903 -0.049027 
Avec 0.1369 0.017205 0.00034344 -0.11555 -0.00094309 -0.12958 -0.015445 -0.10457 -0.022787 -0.033632 0.029715 0.041645 -0.01925 0.14951 -0.096076 -0.10825 -0.060579 0.079431 0.054721 -0.069295 -0.0079636 0.077771 0.1643 -0.055094 -0.17545 -0.021369 7.6427e-05 0.0090432 0.076378 0.067777 -0.069209 0.076387 0.038013 6.6593e-05 0.058409 0.022964 0.12161 -0.042079 -0.04443 0.05687 0.21482 0.094508 0.025605 -0.013799 0.018286 -0.15988 -0.091317 -0.021767 -0.18449 -0.029513 0.021163 0.21503 -0.15486 7.388e-05 -0.030879 -0.16999 0.016588 -0.024282 0.072792 0.17574 -0.038797 0.056661 0.26332 0.13907 -0.11711 0.14492 0.11652 -0.074568 -0.029073 -0.053536 -0.017578 0.012078 0.0036475 0.19755 -0.098826 0.10163 0.094912 0.066392 0.091129 0.04001 0.055695 0.069101 0.0069611 -0.10111 0.054212 0.032897 0.12387 -0.16485 -0.11275 0.081397 0.13431 -0.14304 0.31241 0.12642 -0.12159 -0.18514 -0.082646 -0.0051212 -0.059162 -0.033396 
vous 0.17139 0.024442 -0.0073955 -0.144 -0.0026694 -0.16234 -0.019611 -0.1336 -0.029805 -0.040977 0.040776 0.051773 -0.019151 0.19022 -0.124 -0.1407 -0.077418 0.10196 0.068546 -0.088417 -0.010907 0.10733 0.21108 -0.070548 -0.22039 -0.031588 0.0030161 0.0088691 0.099283 0.085429 -0.088279 0.10195 0.049651 0.0029388 0.075913 0.028532 0.15151 -0.053564 -0.058128 0.068685 0.27349 0.11619 0.026709 -0.019326 0.02038 -0.20449 -0.11923 -0.020128 -0.23712 -0.033949 0.017567 0.2793 -0.19694 -0.00054736 -0.039814 -0.21376 0.018539 -0.02992 0.095671 0.22771 -0.049517 0.069811 0.33116 0.17776 -0.14662 0.18318 0.15481 -0.10394 -0.03994 -0.074814 -0.027418 0.016086 0.0053832 0.24431 -0.1294 0.1321 0.11987 0.081726 0.11727 0.054462 0.069254 0.086522 0.0099774 -0.13079 0.068938 0.039871 0.15766 -0.20984 -0.14775 0.10252 0.17004 -0.17788 0.39648 0.15739 -0.16126 -0.23603 -0.10309 -0.0072093 -0.072632 -0.041841 
#innovation 0.19085 0.02826 -0.0022699 -0.17059 0.0064459 -0.18246 -0.010427 -0.15176 -0.039613 -0.037321 0.040832 0.056202 -0.02951 0.20346 -0.13329 -0.15245 -0.076956 0.11708 0.079349 -0.089624 -0.0076251 0.10451 0.22509 -0.082989 -0.24446 -0.036044 -0.0034953 0.016356 0.11243 0.08828 -0.087442 0.10929 0.04225 0.0029914 0.081532 0.029812 0.17378 -0.064216 -0.062479 0.072612 0.28959 0.13291 0.03966 -0.030106 0.029476 -0.21862 -0.12404 -0.025358 -0.25352 -0.039278 0.03339 0.29732 -0.20214 -0.0011268 -0.046399 -0.2413 0.03087 -0.040607 0.089466 0.23949 -0.059423 0.085518 0.36163 0.18316 -0.1734 0.20186 0.15463 -0.10188 -0.04195 -0.075082 -0.018764 0.0067821 0.0022535 0.28274 -0.13646 0.13619 0.13831 0.090308 0.11954 0.063916 0.075322 0.10402 0.0041131 -0.14509 0.076685 0.03584 0.18126 -0.22418 -0.15047 0.11412 0.18194 -0.19751 0.41912 0.18197 -0.16756 -0.25901 -0.10766 -0.0038583 -0.076415 -0.041767 
talk 0.19929 0.031015 -0.0014338 -0.18226 0.011762 -0.19022 -0.010506 -0.15402 -0.043218 -0.041734 0.034375 0.057169 -0.026482 0.20803 -0.13814 -0.16065 -0.07719 0.11994 0.084049 -0.089629 -0.011853 0.106 0.22869 -0.08285 -0.25413 -0.034181 -0.0057749 0.0121 0.11101 0.088803 -0.087275 0.10973 0.038676 0.0039379 0.086484 0.027286 0.17591 -0.06645 -0.064112 0.074427 0.29556 0.13502 0.044988 -0.033615 0.027336 -0.22522 -0.12971 -0.024398 -0.26133 -0.040848 0.04036 0.30606 -0.21086 -0.0055709 -0.046277 -0.25381 0.034106 -0.045569 0.083981 0.24545 -0.058433 0.092342 0.3723 0.18881 -0.18005 0.20741 0.15758 -0.10472 -0.042995 -0.076582 -0.018555 0.0076517 0.0015766 0.29129 -0.13524 0.14124 0.14227 0.094408 0.12378 0.065276 0.081554 0.10815 -0.00033389 -0.15087 0.080599 0.034388 0.19679 -0.22756 -0.15431 0.11719 0.1831 -0.19999 0.42778 0.19262 -0.16586 -0.26348 -0.10995 -0.003425 -0.076856 -0.041792 
next 0.19856 0.033689 -0.0027582 -0.18495 0.0051271 -0.19233 -0.0092912 -0.15733 -0.041821 -0.039607 0.041315 0.056164 -0.028921 0.20828 -0.13774 -0.15905 -0.078541 0.1176 0.08308 -0.089092 -0.011244 0.10762 0.23155 -0.081995 -0.25465 -0.036184 -0.0052232 0.016229 0.11708 0.084676 -0.091467 0.11004 0.040406 0.0048458 0.086283 0.031448 0.18232 -0.066785 -0.066251 0.077316 0.29789 0.13852 0.041226 -0.033269 0.027086 -0.22385 -0.12533 -0.02451 -0.26132 -0.04112 0.041331 0.30608 -0.20705 -0.0058322 -0.048867 -0.25031 0.03525 -0.045258 0.081067 0.2441 -0.060454 0.087047 0.37286 0.18566 -0.17934 0.20636 0.15678 -0.10464 -0.043614 -0.077267 -0.017851 0.0043022 5.5885e-05 0.29442 -0.13747 0.13947 0.14295 0.097469 0.12274 0.064333 0.081084 0.10932 0.0034352 -0.14449 0.079263 0.039628 0.18675 -0.23274 -0.15599 0.11892 0.18282 -0.2009 0.42563 0.1881 -0.17087 -0.26399 -0.11025 -0.0030067 -0.075623 -0.047014 
avec 0.18651 0.023976 -0.00076274 -0.1608 0.0027204 -0.17507 -0.01998 -0.14298 -0.030969 -0.046688 0.040567 0.05581 -0.025337 0.20711 -0.13158 -0.14709 -0.084593 0.10506 0.072771 -0.099156 -0.0082127 0.11076 0.22013 -0.071359 -0.23706 -0.035177 0.00032936 0.013628 0.10161 0.092072 -0.095663 0.10787 0.048693 0.0027417 0.078052 0.029864 0.16366 -0.054412 -0.062817 0.077006 0.29202 0.12897 0.032931 -0.01749 0.023699 -0.21447 -0.12569 -0.025108 -0.25047 -0.038654 0.022294 0.29462 -0.20824 0.0019344 -0.039414 -0.23151 0.018104 -0.033919 0.10258 0.23449 -0.053458 0.07102 0.35321 0.18814 -0.15864 0.19932 0.16056 -0.10296 -0.043511 -0.074833 -0.024973 0.015815 0.006842 0.26664 -0.13908 0.13752 0.1254 0.08765 0.126 0.056243 0.071872 0.094186 0.0084882 -0.13766 0.075185 0.041699 0.16675 -0.22652 -0.1545 0.10761 0.18274 -0.19004 0.42351 0.16765 -0.17078 -0.24893 -0.10964 -0.003741 -0.080576 -0.039587 
work 0.21629 0.038347 -0.0085244 -0.19426 0.0064496 -0.21263 -0.0067534 -0.17408 -0.044713 -0.043311 0.042087 0.061265 -0.032448 0.22991 -0.14635 -0.17502 -0.081005 0.13388 0.092264 -0.094703 -0.0078217 0.11786 0.24868 -0.095637 -0.28297 -0.039934 -0.0045447 0.015631 0.12612 0.095091 -0.097066 0.11506 0.045466 -7.2422e-05 0.095685 0.032746 0.19854 -0.079539 -0.067837 0.078439 0.32642 0.14472 0.046267 -0.031852 0.031651 -0.24693 -0.13737 -0.030469 -0.28843 -0.042777 0.045039 0.34095 -0.22926 -0.0082395 -0.054585 -0.2825 0.039077 -0.051094 0.094951 0.27337 -0.065833 0.1026 0.40612 0.1989 -0.1957 0.2327 0.17561 -0.11769 -0.048851 -0.081464 -0.0191 0.0018794 9.8492e-05 0.32112 -0.15575 0.15494 0.15874 0.10393 0.13722 0.077789 0.092459 0.12098 0.0023753 -0.1656 0.089185 0.036368 0.21336 -0.25524 -0.16941 0.12918 0.19901 -0.22299 0.46756 0.21342 -0.18582 -0.28866 -0.11941 0.0013435 -0.087008 -0.046121 
#epflcampus 0.17658 0.024381 -0.0051899 -0.15316 0.0032122 -0.1688 -0.012359 -0.13719 -0.034762 -0.037201 0.037006 0.052696 -0.027 0.18752 -0.12591 -0.13942 -0.071497 0.10678 0.073225 -0.08085 -0.0076735 0.098762 0.20432 -0.072583 -0.22158 -0.033924 -0.0021235 0.015279 0.10313 0.079876 -0.080035 0.10034 0.039898 0.0016642 0.075565 0.028047 0.15931 -0.058377 -0.060546 0.065828 0.26812 0.12008 0.033565 -0.025307 0.027582 -0.20157 -0.11245 -0.025848 -0.23314 -0.037353 0.029392 0.27376 -0.18969 -0.003946 -0.040624 -0.22194 0.026002 -0.035028 0.083606 0.22421 -0.052823 0.074484 0.335 0.17168 -0.1568 0.18678 0.14455 -0.096391 -0.038443 -0.069734 -0.020062 0.00613 0.0029373 0.25764 -0.12585 0.13024 0.12441 0.084351 0.11177 0.056647 0.070781 0.093687 0.0042171 -0.13159 0.070093 0.03521 0.16306 -0.20671 -0.14024 0.10582 0.16691 -0.18083 0.38733 0.16557 -0.15354 -0.2363 -0.10066 -0.0031013 -0.070103 -0.037802 
my 0.19027 0.024094 -0.012802 -0.17031 0.0076172 -0.18453 -0.013548 -0.14697 -0.04312 -0.036677 0.034483 0.062174 -0.03225 0.19756 -0.1339 -0.15409 -0.069953 0.11988 0.073179 -0.086329 -0.015096 0.098084 0.22086 -0.074467 -0.24867 -0.037215 -0.0028371 0.018413 0.11106 0.085231 -0.079218 0.10503 0.04148 0.0035647 0.07736 0.027576 0.17806 -0.066963 -0.067256 0.067227 0.28584 0.129 0.04706 -0.032708 0.029689 -0.22206 -0.11919 -0.020992 -0.24946 -0.036237 0.034108 0.28576 -0.1996 -0.0052125 -0.043268 -0.24416 0.029385 -0.045942 0.081535 0.22937 -0.061077 0.084243 0.36147 0.17513 -0.17367 0.19328 0.15101 -0.097658 -0.043976 -0.068479 -0.019238 -0.0018925 -0.0045114 0.28006 -0.12455 0.12959 0.13974 0.092082 0.11942 0.059995 0.075937 0.10199 -0.0019311 -0.14215 0.077918 0.033273 0.1867 -0.21966 -0.15078 0.11759 0.18061 -0.1952 0.40947 0.18372 -0.15449 -0.25831 -0.10821 -0.0038972 -0.073495 -0.037929 
? 0.17605 0.019959 0.0023605 -0.14535 0.0029517 -0.16556 -0.016202 -0.12384 -0.035945 -0.043702 0.043205 0.054 -0.031843 0.17827 -0.11297 -0.12642 -0.07295 0.092423 0.078607 -0.085887 0.00015283 0.098388 0.19619 -0.066626 -0.21683 -0.032167 0.0066313 0.0073556 0.090878 0.086185 -0.086418 0.098743 0.041174 0.00052838 0.072224 0.016047 0.14675 -0.050842 -0.054695 0.066849 0.26247 0.11053 0.034635 -0.022486 0.024764 -0.19195 -0.10589 -0.01887 -0.2219 -0.036261 0.025404 0.26375 -0.18652 -0.001258 -0.042028 -0.21572 0.019357 -0.040216 0.079728 0.21549 -0.044737 0.07164 0.31924 0.16452 -0.15024 0.18109 0.14131 -0.091384 -0.031525 -0.06611 -0.01315 0.018661 0.0079508 0.23916 -0.12076 0.12228 0.11798 0.073125 0.114 0.052219 0.067121 0.088594 0.0018856 -0.12585 0.062078 0.033518 0.1535 -0.19405 -0.1279 0.10289 0.1638 -0.16729 0.37032 0.15494 -0.15155 -0.23042 -0.092854 -0.0042499 -0.068941 -0.03681 
research 0.20856 0.033768 -0.00092412 -0.18728 0.010827 -0.19247 -0.0058081 -0.15852 -0.046772 -0.039514 0.037832 0.059721 -0.031944 0.21462 -0.14434 -0.15995 -0.075839 0.12774 0.089119 -0.090034 -0.00479 0.10435 0.23382 -0.092143 -0.25839 -0.041098 -0.011918 0.018947 0.12053 0.089037 -0.091848 0.11101 0.038612 -0.00031907 0.089802 0.031558 0.18847 -0.070669 -0.068005 0.074574 0.30384 0.14197 0.048073 -0.032034 0.032176 -0.2281 -0.13072 -0.028592 -0.26778 -0.041616 0.045433 0.31557 -0.2129 -0.0068666 -0.050879 -0.2591 0.040631 -0.04753 0.0861 0.24884 -0.05935 0.095977 0.38525 0.19122 -0.18849 0.21561 0.15609 -0.10532 -0.045558 -0.073591 -0.014678 -0.0013306 -0.0030618 0.30668 -0.1371 0.14076 0.14942 0.098509 0.12481 0.070446 0.081212 0.11547 0.00023479 -0.14794 0.080483 0.03357 0.19993 -0.23585 -0.15697 0.1213 0.18864 -0.20909 0.43839 0.20077 -0.17087 -0.27544 -0.11323 -0.0024678 -0.07702 -0.044764 
Learning 0.22668 0.038776 -0.0055195 -0.20154 0.0058596 -0.21118 -0.0096191 -0.17498 -0.052327 -0.041682 0.040802 0.068222 -0.036442 0.23441 -0.15899 -0.17793 -0.084528 0.13973 0.092646 -0.097924 -0.0081109 0.11723 0.25863 -0.098345 -0.28597 -0.041463 -0.0083856 0.016292 0.12901 0.094358 -0.092162 0.11994 0.043265 0.0037268 0.091025 0.034526 0.203 -0.080262 -0.071561 0.085828 0.33519 0.15462 0.051461 -0.042493 0.032982 -0.252 -0.1468 -0.02847 -0.2917 -0.052509 0.046116 0.34717 -0.23489 -0.0069465 -0.057961 -0.28459 0.040288 -0.053218 0.096504 0.27477 -0.067881 0.10123 0.41933 0.21216 -0.20396 0.23579 0.17443 -0.11172 -0.050749 -0.084856 -0.01485 0.0029817 0.0020836 0.33882 -0.15224 0.15764 0.16372 0.10493 0.13771 0.075787 0.086913 0.12309 0.0075263 -0.16497 0.086944 0.04249 0.21609 -0.26185 -0.16856 0.13363 0.20569 -0.22882 0.47585 0.21421 -0.18917 -0.30007 -0.12091 -0.0074753 -0.088589 -0.050378 
@dgt_switzerland 0.18959 0.027116 -0.0020713 -0.16816 0.0044241 -0.18366 -0.0090189 -0.15176 -0.04066 -0.040518 0.041366 0.052962 -0.028496 0.20074 -0.1297 -0.15205 -0.076205 0.11392 0.081256 -0.086703 -0.0069035 0.10322 0.22222 -0.080732 -0.24503 -0.034221 -0.003885 0.015991 0.11129 0.084476 -0.085075 0.10584 0.040363 0.0007337 0.083793 0.029452 0.17216 -0.069959 -0.060192 0.072293 0.28835 0.13001 0.038058 -0.027165 0.028159 -0.21618 -0.12103 -0.023644 -0.25447 -0.041841 0.037293 0.29902 -0.19955 -0.0060051 -0.047028 -0.24226 0.031392 -0.041389 0.087083 0.24102 -0.058374 0.084228 0.35383 0.17994 -0.17054 0.20338 0.1574 -0.10188 -0.042732 -0.072486 -0.01911 0.0059366 0.00052692 0.2787 -0.13599 0.13788 0.13713 0.090163 0.11972 0.060926 0.0796 0.10499 0.0039705 -0.14502 0.075567 0.035108 0.17936 -0.2252 -0.14834 0.11495 0.17919 -0.19521 0.41621 0.18127 -0.16785 -0.25415 -0.11009 -0.005626 -0.077677 -0.041914 
up 0.20242 0.034943 -0.0022775 -0.18616 0.0040376 -0.19235 -0.010764 -0.15833 -0.037433 -0.044918 0.041654 0.061306 -0.028624 0.21506 -0.15093 -0.15904 -0.077265 0.12785 0.083701 -0.092436 -0.0070467 0.1071 0.23296 -0.086239 -0.25672 -0.037461 0.0016214 0.01388 0.12253 0.087921 -0.089217 0.11011 0.041324 0.0037252 0.083539 0.032527 0.1842 -0.064645 -0.068051 0.071228 0.30669 0.13664 0.043792 -0.03534 0.031534 -0.2312 -0.13305 -0.022218 -0.26169 -0.039444 0.03639 0.31573 -0.20537 -0.0062792 -0.046006 -0.25417 0.037101 -0.040765 0.089489 0.24734 -0.063876 0.095987 0.3778 0.18614 -0.19094 0.21549 0.16593 -0.099375 -0.044985 -0.074898 -0.018682 0.0032372 0.0003126 0.29477 -0.14403 0.1443 0.15198 0.09651 0.12839 0.060397 0.086975 0.10824 0.0006434 -0.14814 0.077761 0.030688 0.18759 -0.22956 -0.15151 0.12562 0.18459 -0.20701 0.4336 0.18987 -0.16516 -0.26949 -0.11067 0.0028135 -0.077863 -0.042707 
day 0.21457 0.03215 -0.0033032 -0.19443 0.0039848 -0.20124 -0.010538 -0.16621 -0.046751 -0.042016 0.04117 0.05785 -0.030979 0.22344 -0.14783 -0.17005 -0.08139 0.12997 0.091219 -0.091102 -0.010288 0.11588 0.24166 -0.086353 -0.27475 -0.040121 -0.0038883 0.016249 0.12392 0.093337 -0.095028 0.11415 0.041155 0.0014315 0.089789 0.035089 0.19229 -0.076467 -0.066805 0.075046 0.31899 0.14267 0.048023 -0.035258 0.030413 -0.23244 -0.13926 -0.027373 -0.27864 -0.043966 0.044134 0.32643 -0.22368 -0.010612 -0.050257 -0.26626 0.036199 -0.042069 0.098067 0.2566 -0.066244 0.097601 0.40005 0.20181 -0.19471 0.21946 0.1661 -0.11246 -0.047021 -0.076076 -0.016396 0.0062198 0.0017673 0.31278 -0.14675 0.15236 0.15494 0.098225 0.13138 0.069549 0.079756 0.11251 0.0029944 -0.15816 0.088423 0.039646 0.20164 -0.24872 -0.16417 0.12296 0.19664 -0.21811 0.4549 0.19993 -0.17927 -0.28453 -0.1163 0.00058765 -0.078847 -0.048431 
This 0.20149 0.036283 -0.0030963 -0.17921 0.0091717 -0.19141 -0.011184 -0.1534 -0.041826 -0.042673 0.033735 0.060989 -0.032901 0.20544 -0.13999 -0.15844 -0.073583 0.1189 0.081688 -0.087885 -0.008912 0.10357 0.22995 -0.081159 -0.25166 -0.034586 -0.0063179 0.017158 0.11683 0.087476 -0.087931 0.10796 0.041554 0.0045205 0.083875 0.027888 0.18164 -0.067883 -0.065249 0.075094 0.29884 0.13801 0.044058 -0.034337 0.026318 -0.21696 -0.12711 -0.025994 -0.2577 -0.044308 0.04383 0.30314 -0.20724 -0.0096073 -0.046526 -0.25406 0.038635 -0.040356 0.089318 0.24477 -0.060556 0.090999 0.37354 0.18494 -0.18639 0.20692 0.1542 -0.10161 -0.04462 -0.070995 -0.017199 0.0030254 -0.00041932 0.29062 -0.14008 0.14142 0.14211 0.088244 0.12223 0.06954 0.078446 0.10784 0.0010943 -0.14465 0.081227 0.038142 0.19329 -0.22858 -0.15119 0.12113 0.18063 -0.20197 0.42187 0.19325 -0.16818 -0.26555 -0.10804 -0.00044978 -0.07196 -0.03978 
Un 0.16748 0.022187 -0.0014114 -0.14746 0.0054435 -0.16314 -0.016726 -0.12639 -0.028948 -0.041009 0.04103 0.048537 -0.022043 0.18034 -0.11647 -0.1402 -0.070501 0.09735 0.073839 -0.084091 -0.0039916 0.090816 0.20558 -0.065822 -0.21012 -0.034091 -0.001388 0.0074396 0.099463 0.076034 -0.081431 0.096761 0.04279 0.0046957 0.06915 0.026069 0.15565 -0.053758 -0.056892 0.070066 0.26038 0.11327 0.028831 -0.019584 0.02663 -0.19326 -0.10766 -0.025118 -0.22359 -0.030418 0.021577 0.26071 -0.18916 -0.0017378 -0.039046 -0.20949 0.023922 -0.026869 0.087528 0.21326 -0.050108 0.066544 0.31982 0.16585 -0.14109 0.18178 0.14703 -0.091063 -0.039361 -0.065919 -0.020165 0.015112 0.0033869 0.23969 -0.12257 0.12423 0.11616 0.077621 0.1133 0.051744 0.062486 0.082805 0.0040995 -0.13152 0.059035 0.041044 0.14858 -0.1995 -0.13635 0.09557 0.15972 -0.16562 0.36903 0.15254 -0.14985 -0.22732 -0.096456 -0.0060479 -0.070525 -0.033282 
his 0.21005 0.035035 -0.0031932 -0.18698 0.011959 -0.19855 -0.0060542 -0.16035 -0.041164 -0.036714 0.037749 0.057777 -0.031158 0.21152 -0.14146 -0.16225 -0.071521 0.12538 0.087472 -0.089998 -0.0076205 0.10504 0.23039 -0.088066 -0.2585 -0.033878 -0.0040038 0.022372 0.11981 0.086478 -0.089361 0.1086 0.040648 0.0076288 0.084081 0.031953 0.18962 -0.068279 -0.062843 0.07515 0.30647 0.14102 0.045809 -0.035047 0.026386 -0.22224 -0.13034 -0.023261 -0.26734 -0.045196 0.048358 0.3066 -0.20668 -0.011215 -0.043506 -0.25881 0.040849 -0.049512 0.086691 0.24816 -0.057631 0.091456 0.3785 0.18954 -0.19025 0.20696 0.15958 -0.10535 -0.044503 -0.074421 -0.017175 -0.0010474 -0.001709 0.30146 -0.13612 0.14493 0.15194 0.09063 0.12644 0.072561 0.08 0.11116 -0.0053345 -0.14917 0.083385 0.03759 0.19372 -0.23344 -0.15321 0.12459 0.18492 -0.20707 0.43105 0.20106 -0.17311 -0.27127 -0.10811 0.0012726 -0.072773 -0.042201 
out 0.2113 0.03369 -0.0028847 -0.19443 0.0056303 -0.20058 -0.010443 -0.16309 -0.04289 -0.043848 0.043699 0.059435 -0.037183 0.21688 -0.14648 -0.16481 -0.081046 0.12464 0.086737 -0.092589 -0.01189 0.10768 0.24046 -0.084537 -0.26501 -0.040386 -0.010324 0.014477 0.12463 0.094402 -0.090503 0.11093 0.041539 0.0067462 0.091294 0.030293 0.1934 -0.073207 -0.065128 0.073424 0.31221 0.14399 0.045686 -0.0346 0.03032 -0.22818 -0.13873 -0.025885 -0.26964 -0.042934 0.046729 0.3158 -0.21852 -0.003077 -0.051046 -0.26517 0.040247 -0.042925 0.088503 0.25525 -0.061024 0.09881 0.39239 0.19427 -0.19174 0.21469 0.16426 -0.10641 -0.045193 -0.078899 -0.015158 0.0027031 -0.0012344 0.31284 -0.14433 0.1461 0.1536 0.094512 0.1234 0.067943 0.080833 0.11121 0.0054853 -0.15343 0.084176 0.038279 0.20445 -0.24638 -0.15905 0.12841 0.18869 -0.21261 0.44487 0.20176 -0.17414 -0.28236 -0.11354 -0.00094301 -0.078532 -0.043468 
We 0.20557 0.034969 0.005353 -0.18627 0.010125 -0.19829 -0.0065731 -0.15656 -0.039839 -0.037514 0.039704 0.060486 -0.028176 0.21868 -0.13835 -0.16304 -0.08152 0.12606 0.085786 -0.086996 -0.0078842 0.10578 0.23663 -0.093537 -0.25735 -0.035665 -0.0066004 0.019622 0.11747 0.090319 -0.09759 0.10817 0.043903 0.006821 0.083698 0.034136 0.19205 -0.065468 -0.068345 0.077962 0.30539 0.13761 0.044062 -0.041403 0.028965 -0.23578 -0.13301 -0.027852 -0.26562 -0.049575 0.038883 0.31901 -0.21602 -0.0086173 -0.047403 -0.2676 0.033808 -0.043494 0.09113 0.24904 -0.059254 0.097024 0.38711 0.19786 -0.18693 0.21576 0.16284 -0.10585 -0.038317 -0.078765 -0.019824 0.0040883 0.0014105 0.29617 -0.14326 0.13876 0.13832 0.095146 0.12643 0.06634 0.078669 0.1088 0.0091286 -0.15191 0.080578 0.038355 0.19825 -0.22852 -0.16175 0.11969 0.19079 -0.20671 0.44103 0.19746 -0.17127 -0.26853 -0.11205 0.00020466 -0.078466 -0.047424 
but 0.2054 0.030817 0.0038651 -0.19343 0.0063355 -0.1941 -0.013977 -0.15553 -0.04582 -0.046552 0.040453 0.057262 -0.030986 0.21289 -0.14213 -0.15835 -0.074011 0.12591 0.087517 -0.091485 -0.01787 0.10654 0.23663 -0.081723 -0.26112 -0.038266 -0.0082632 0.020621 0.12343 0.095871 -0.092824 0.11632 0.041426 0.0060446 0.092244 0.03347 0.18866 -0.07232 -0.066099 0.073358 0.30978 0.13677 0.047762 -0.034573 0.030562 -0.2246 -0.13733 -0.024646 -0.2632 -0.042463 0.0428 0.315 -0.21822 -0.0036368 -0.047935 -0.25865 0.036435 -0.039015 0.095473 0.25492 -0.060177 0.09765 0.38328 0.18666 -0.19376 0.21009 0.16398 -0.10777 -0.047533 -0.082301 -0.011298 -0.00049107 -0.0059737 0.30412 -0.1458 0.14414 0.1492 0.093831 0.12239 0.067599 0.080132 0.11136 0.00086126 -0.15328 0.077744 0.037964 0.19318 -0.23884 -0.15649 0.12632 0.18881 -0.20874 0.4442 0.19349 -0.17117 -0.27441 -0.11091 0.0063484 -0.077447 -0.043978 
Thanks 0.17775 0.027607 -0.0027603 -0.15808 0.0057717 -0.16979 -0.0097037 -0.13816 -0.038188 -0.03915 0.033603 0.048496 -0.026564 0.18721 -0.1231 -0.13847 -0.067803 0.10585 0.070921 -0.082001 -0.0042728 0.095276 0.20125 -0.074122 -0.22446 -0.033937 -0.002156 0.009623 0.10621 0.07857 -0.078084 0.099408 0.036647 0.00070661 0.076014 0.026802 0.15951 -0.063523 -0.060579 0.064929 0.26434 0.11846 0.036924 -0.026706 0.028688 -0.19877 -0.1132 -0.023302 -0.23015 -0.036766 0.033531 0.27114 -0.18677 -0.0073415 -0.040986 -0.22268 0.030078 -0.036151 0.077737 0.2208 -0.054762 0.079471 0.33011 0.16804 -0.15866 0.18538 0.14338 -0.093937 -0.037244 -0.068897 -0.017664 0.0067682 -0.00020612 0.26067 -0.128 0.12686 0.12565 0.080602 0.10699 0.057428 0.073421 0.098076 0.0025907 -0.13266 0.068653 0.032166 0.1698 -0.2052 -0.13535 0.10726 0.16391 -0.18219 0.3829 0.16874 -0.15126 -0.2359 -0.1008 -0.00079172 -0.072651 -0.036649 
#AI 0.20835 0.037552 0.0009325 -0.18825 0.00039821 -0.19798 -0.013421 -0.15692 -0.047911 -0.0422 0.041868 0.061431 -0.026271 0.21897 -0.14265 -0.16393 -0.079098 0.12971 0.089846 -0.092105 -0.010889 0.11078 0.23866 -0.089113 -0.25993 -0.037335 0.00039863 0.019137 0.12347 0.094942 -0.092189 0.11491 0.050469 0.0042959 0.089934 0.029399 0.18461 -0.076523 -0.068526 0.072446 0.31552 0.14285 0.047264 -0.031086 0.033686 -0.23263 -0.1368 -0.026763 -0.27135 -0.038386 0.034325 0.31516 -0.21749 0.00099483 -0.049364 -0.2643 0.038133 -0.046377 0.093355 0.25651 -0.065089 0.096956 0.38927 0.19822 -0.19035 0.21442 0.17035 -0.10775 -0.046801 -0.075031 -0.014273 0.0013483 -0.0027875 0.30222 -0.14546 0.14187 0.14285 0.095678 0.12684 0.070923 0.085877 0.11014 0.003511 -0.15765 0.081879 0.039422 0.19086 -0.24037 -0.16054 0.12714 0.19272 -0.21216 0.45341 0.19597 -0.17315 -0.27289 -0.12037 -0.00037135 -0.085448 -0.044493 
made 0.19732 0.024726 -0.0060804 -0.17682 0.0061663 -0.1904 -0.010789 -0.15114 -0.040054 -0.044416 0.043846 0.058307 -0.030289 0.21042 -0.13862 -0.15867 -0.078825 0.11965 0.082533 -0.08719 -0.0099796 0.10579 0.23494 -0.083618 -0.24708 -0.036109 -0.0034855 0.016222 0.114 0.088262 -0.092015 0.10892 0.039273 0.00063568 0.085782 0.033837 0.17904 -0.067181 -0.067074 0.071563 0.29738 0.13055 0.040138 -0.029439 0.027533 -0.2201 -0.12502 -0.023511 -0.26033 -0.038988 0.033852 0.30593 -0.20786 -0.0050452 -0.047623 -0.25133 0.035011 -0.043429 0.091402 0.24821 -0.061772 0.087212 0.36891 0.18724 -0.18083 0.20859 0.1619 -0.1051 -0.044032 -0.072706 -0.022336 0.0039678 -0.0060074 0.28765 -0.1383 0.14255 0.13872 0.092893 0.12081 0.064586 0.082073 0.10537 0.0061053 -0.14706 0.078745 0.033885 0.1862 -0.23228 -0.15198 0.11562 0.18451 -0.20302 0.43058 0.18916 -0.16881 -0.26108 -0.11173 0.0025338 -0.073967 -0.040133 
see 0.19588 0.031076 -0.00063312 -0.17423 0.0029448 -0.19042 -0.014647 -0.15234 -0.039075 -0.043375 0.040332 0.053347 -0.030271 0.20538 -0.13268 -0.15431 -0.079207 0.11296 0.085394 -0.092315 -0.010089 0.10628 0.22691 -0.085681 -0.24726 -0.036191 -0.0030942 0.017102 0.11898 0.086111 -0.090719 0.1105 0.04085 0.0030019 0.084746 0.030218 0.17498 -0.067262 -0.068609 0.077057 0.29212 0.13765 0.039684 -0.026589 0.031846 -0.22341 -0.12745 -0.028261 -0.25726 -0.040122 0.030216 0.29765 -0.2051 -0.0047176 -0.042624 -0.247 0.033584 -0.041665 0.095047 0.2424 -0.053618 0.080555 0.36878 0.18384 -0.17799 0.20444 0.15506 -0.10359 -0.043365 -0.072798 -0.018931 0.0051394 -0.001077 0.29036 -0.13652 0.13691 0.14071 0.088839 0.12612 0.062104 0.078877 0.10477 0.0017891 -0.15081 0.073446 0.041048 0.17774 -0.22555 -0.15514 0.11786 0.1895 -0.19997 0.42171 0.18688 -0.16922 -0.2672 -0.10794 0.0010009 -0.076403 -0.045187 
#Lausanne 0.19614 0.027244 -0.0036776 -0.16822 0.0045597 -0.18476 -0.014773 -0.15315 -0.038521 -0.04202 0.041754 0.05879 -0.025646 0.20694 -0.13779 -0.15536 -0.082746 0.11232 0.081636 -0.094903 -0.0084726 0.10742 0.2289 -0.078846 -0.2477 -0.036728 -0.0034896 0.015777 0.11434 0.090158 -0.092917 0.11247 0.048204 0.002505 0.0805 0.029761 0.17369 -0.062625 -0.063098 0.076176 0.29537 0.13039 0.037175 -0.026778 0.031536 -0.22194 -0.12897 -0.028289 -0.25725 -0.041142 0.030783 0.30592 -0.20998 -0.0043811 -0.047799 -0.24343 0.028504 -0.039297 0.094486 0.24509 -0.053329 0.081243 0.37054 0.19039 -0.16992 0.20794 0.16295 -0.10306 -0.043117 -0.077305 -0.022412 0.0092229 0.0031163 0.28416 -0.13936 0.14373 0.13926 0.088547 0.12486 0.062169 0.076251 0.10121 0.0047833 -0.1465 0.075025 0.040889 0.17849 -0.23473 -0.15462 0.11807 0.18492 -0.199 0.43124 0.1821 -0.17284 -0.26225 -0.11057 -0.0060771 -0.077251 -0.043194 
one 0.18439 0.026218 -0.0063824 -0.16478 0.0079788 -0.17637 -0.012243 -0.14739 -0.036511 -0.038339 0.035995 0.052576 -0.032967 0.19653 -0.13008 -0.15054 -0.078599 0.10992 0.08297 -0.083711 -0.0091635 0.10313 0.21956 -0.076075 -0.23557 -0.040832 -0.0054668 0.015274 0.10852 0.08228 -0.08415 0.10682 0.043244 0.0021292 0.076497 0.02639 0.16902 -0.06346 -0.060561 0.070732 0.28214 0.1274 0.035615 -0.029443 0.024887 -0.21257 -0.1246 -0.028842 -0.24822 -0.036189 0.035746 0.28818 -0.20366 -0.0099355 -0.042382 -0.23694 0.032108 -0.042206 0.08157 0.23646 -0.052677 0.08025 0.35388 0.17592 -0.16808 0.19683 0.15393 -0.10138 -0.042465 -0.073911 -0.016533 0.0042839 0.0022797 0.27443 -0.13325 0.13036 0.13532 0.088679 0.1161 0.067418 0.072265 0.10215 0.0018084 -0.14335 0.078361 0.037779 0.17309 -0.22028 -0.1484 0.11165 0.17495 -0.19291 0.40548 0.17594 -0.16201 -0.25471 -0.10373 -0.0056565 -0.07281 -0.037303 
aux 0.16203 0.023693 -5.4439e-05 -0.13743 -0.0029307 -0.1531 -0.019811 -0.12742 -0.024554 -0.035982 0.039253 0.051451 -0.024679 0.17788 -0.11148 -0.13331 -0.076354 0.093374 0.065908 -0.080977 -0.0069294 0.097656 0.19937 -0.064124 -0.20767 -0.027898 0.0018471 0.011519 0.091613 0.072318 -0.079891 0.097534 0.043545 0.0018764 0.065596 0.025082 0.14236 -0.05082 -0.052783 0.06345 0.25303 0.10962 0.027459 -0.021828 0.023039 -0.1928 -0.11082 -0.021046 -0.22073 -0.028036 0.015759 0.25725 -0.18367 -0.0019729 -0.037141 -0.20407 0.01787 -0.030217 0.094002 0.20684 -0.05203 0.068408 0.31103 0.1643 -0.13869 0.17231 0.14434 -0.094301 -0.038223 -0.063374 -0.025064 0.015268 0.0041528 0.23203 -0.12095 0.12421 0.11451 0.077067 0.10944 0.047543 0.065008 0.08115 0.0057834 -0.12605 0.064907 0.036581 0.14676 -0.1983 -0.13243 0.098301 0.16158 -0.16628 0.36832 0.14769 -0.15072 -0.22732 -0.095478 -0.0040002 -0.070187 -0.037899 
